svm_type c_svc
kernel_type linear
nr_class 12
total_sv 3470
rho 9.71126 10.2308 5.61355 17.2689 15.7746 23.5755 17.0655 17.0191 17.0541 -10.4922 -5.83712 4.52831 -3.7182 9.3923 11.7146 18.9844 7.31665 10.5295 9.46001 -18.0733 -5.90496 -1.95326 7.84978 7.57379 9.33438 7.23554 9.48166 5.25438 -20.3445 -6.94788 12.7977 7.51131 6.54099 8.33253 9.38507 7.04114 -20.778 -6.33023 -3.40521 -1.57717 0.30294 3.11592 -1.43545 -33.3279 -5.96124 -1.32957 -0.0891871 3.34431 0.410159 -24.0358 -5.60878 1.61314 3.56314 1.43884 -26.4185 -6.02552 2.47139 0.757085 -22.6977 -6.58743 -7.00265 -23.7328 -5.86654 -23.3843 -7.21355 -6.48528
label 9 10 11 12 8 7 6 4 3 2 5 1
nr_sv 289 347 352 274 353 350 288 274 358 296 288 1
SV
1 1 0 0 0.606287769484288 1 0 1 0 0 0 1:-56 2:-72 3:-70 4:-62 5:-47 
1 1 1 1 1 1 1 1 1 1 0 1:-62 2:-70 3:-70 4:-63 5:-51 
1 1 0.2132918904395709 0 1 1 1 1 1 1 0 1:-65 2:-76 3:-71 4:-67 5:-61 
1 0 0 0 0 0 0 0 0 1 0 1:-63 2:-75 3:-80 4:-68 5:-62 
1 1 1 0 1 1 0 0.8513370768205635 0 1 0 1:-67 2:-70 3:-79 4:-66 5:-59 
1 0 0 0 0 0.6209200396875312 0 0 0 1 0 1:-59 2:-72 3:-73 4:-69 5:-63 
1 0 0 0 0 0 0 0 0 1 0 1:-61 2:-77 3:-74 4:-68 5:-66 
1 0 0 0 0 0 0 0 0 0 0 1:-59 2:-77 3:-78 4:-62 5:-57 
1 1 0 0 0 1 0 0 0 1 0 1:-65 2:-77 3:-78 4:-63 5:-48 
1 1 0 0 0 1 0 0 0 1 0 1:-64 2:-76 3:-74 4:-66 5:-61 
1 1 0 0 1 1 0 1 1 1 0 1:-65 2:-69 3:-71 4:-72 5:-47 
1 1 1 0 0 1 0 0 0 1 0 1:-62 2:-62 3:-80 4:-73 5:-59 
1 1 1 1 1 1 1 1 1 1 0 1:-64 2:-69 3:-71 4:-65 5:-63 
1 1 1 1 1 1 1 1 1 1 0 1:-66 2:-67 3:-70 4:-65 5:-63 
1 1 1 0 1 1 1 1 1 1 0 1:-65 2:-75 3:-72 4:-67 5:-63 
0 0 0 0 0 0 0 0 0 1 0 1:-61 2:-78 3:-80 4:-68 5:-66 
0 0 0 0 0 0 0 0 0 1 0 1:-46 2:-79 3:-76 4:-71 5:-67 
0 0 0 0 0 0 0 0 0 1 0 1:-45 2:-72 3:-77 4:-72 5:-64 
1 0 0 0 0 1 0 0 0 1 0 1:-49 2:-75 3:-70 4:-68 5:-46 
1 0 0 0 0 1 0 0 0 1 0 1:-57 2:-80 3:-76 4:-72 5:-38 
1 0 0 0 0 0.5699589184186448 0 0 0 1 0 1:-57 2:-74 3:-80 4:-72 5:-37 
0 0 0 0 0 0 0 0 0 1 0 1:-61 2:-79 3:-79 4:-73 5:-66 
0 0 0 0 0 0 0 0 0 1 0 1:-52 2:-75 3:-70 4:-76 5:-56 
1 0 0 0 0 1 0 0 0 1 0 1:-61 2:-77 3:-72 4:-80 5:-56 
0 0 0 0 0 1 0 0 0 1 0 1:-41 2:-69 3:-69 4:-70 5:-47 
1 0 0 0 0 1 0 0 0 0 0 1:-45 2:-73 3:-73 4:-69 5:-40 
1 0 0 0 0 1 0 0 0 1 0 1:-49 2:-71 3:-74 4:-74 5:-39 
0 0 0 0 0 0 0 0 0 1 0 1:-48 2:-66 3:-79 4:-70 5:-62 
0 0 0 0 0 0 0 0 0 1 0 1:-56 2:-70 3:-79 4:-68 5:-74 
0 0 0 0 0 0 0 0 0 1 0 1:-55 2:-69 3:-80 4:-66 5:-75 
0 0 0 0 0 0 0 0 0 1 0 1:-57 2:-72 3:-75 4:-66 5:-68 
0 0 0 0 0 0 0 0 0 1 0 1:-52 2:-77 3:-77 4:-78 5:-70 
0 0 0 0 0 0 0 0 0 1 0 1:-47 2:-72 3:-75 4:-68 5:-69 
0 0 0 0 0 0 0 0 0 0.3540088588790136 0 1:-44 2:-78 3:-72 4:-70 5:-70 
1 0 0 0 0 0 0 0 0 1 0 1:-61 2:-80 3:-74 4:-71 5:-58 
1 1 0 0 0 1 0 0 0 1 0 1:-61 2:-76 3:-72 4:-64 5:-56 
1 0 0 0 0 1 0 0 0 1 0 1:-58 2:-76 3:-71 4:-66 5:-62 
1 1 0 0 1 1 0 1 0 1 0 1:-51 2:-61 3:-72 4:-64 5:-56 
1 1 0 0.978203034487791 1 1 1 1 0.3927073793878015 0 0 1:-53 2:-66 3:-72 4:-60 5:-59 
0 0 0 0 0 1 0 0 0 0 0 1:-41 2:-67 3:-72 4:-63 5:-50 
0 0 0 0 0 0 0 0 0 1 0 1:-52 2:-75 3:-77 4:-67 5:-64 
0 0 0 0 0 0 0 0 0 1 0 1:-47 2:-66 3:-78 4:-73 5:-70 
1 1 0 0 0 1 0 0 0 1 0 1:-58 2:-68 3:-73 4:-68 5:-65 
0 0 0 0 0 0 0 0 0 1 0 1:-57 2:-66 3:-77 4:-71 5:-73 
0 0 0 0 0 0 0 0 0 1 0 1:-54 2:-67 3:-78 4:-70 5:-64 
0 0 0 0 0 0 0 0 0 1 0 1:-43 2:-65 3:-74 4:-69 5:-63 
0 0 0 0 0 0 0 0 0 1 0 1:-46 2:-60 3:-80 4:-66 5:-57 
1 0 0 0 0 0 1 0 0 0 0 1:-51 2:-64 3:-77 4:-56 5:-59 
1 0 0 0 0 1 0 0 0 1 0 1:-57 2:-74 3:-68 4:-73 5:-57 
0 0 0 0 0 1 0 0 0 1 0 1:-50 2:-75 3:-69 4:-73 5:-56 
0 0 0 0 0 0 0 0 0 1 0 1:-45 2:-74 3:-73 4:-70 5:-58 
0 0 0 0 0 0 0 0 0 1 0 1:-45 2:-76 3:-74 4:-75 5:-57 
0 0 0 0 0 0 0 0 0 1 0 1:-46 2:-78 3:-77 4:-70 5:-68 
0 0 0 0 0 0 0 0 0 1 0 1:-56 2:-77 3:-73 4:-67 5:-70 
0 0 0 0 0 0 0 0 0 1 0 1:-44 2:-66 3:-73 4:-69 5:-68 
1 0.6622223375883607 0.122744581609247 0 0 0 0 0 0 1 0 1:-61 2:-68 3:-79 4:-67 5:-69 
0 0 0 0 0 0 0 0 0 1 0 1:-46 2:-66 3:-79 4:-67 5:-69 
0 0 0 0 0 0 0 0 0 1 0 1:-48 2:-77 3:-74 4:-75 5:-68 
0 0 0 0 0 0 0 0 0 1 0 1:-50 2:-78 3:-76 4:-74 5:-69 
0 0 0 0 0 0 0 0 0 1 0 1:-48 2:-78 3:-79 4:-76 5:-68 
0 0 0 0 0 0 0 0 0 1 0 1:-51 2:-77 3:-77 4:-68 5:-70 
0 0 0 0 0 0 0 0 0 1 0 1:-53 2:-77 3:-78 4:-77 5:-70 
0 0 0 1 0 0 1 1 0 0 0 1:-54 2:-76 3:-69 4:-62 5:-75 
0 0 0 0 0 0 0 0 0 1 0 1:-54 2:-78 3:-70 4:-68 5:-65 
0 0 0 0 0 0 0 0 0 1 0 1:-52 2:-68 3:-77 4:-76 5:-65 
1 1 0 0 1 1 1 1 0 1 0 1:-60 2:-66 3:-77 4:-61 5:-57 
0 0 0 0 0 0 0 0 0 1 0 1:-45 2:-67 3:-77 4:-76 5:-58 
0 0 0 0 0 0 0 0 0 1 0 1:-58 2:-76 3:-80 4:-74 5:-64 
0 0 0 0 0 0 0 0 0 1 0 1:-58 2:-76 3:-73 4:-66 5:-71 
0 0 0 0 0 0 0 0 0 1 0 1:-50 2:-74 3:-74 4:-68 5:-71 
0 0 0 0 0 0 0 0 0 1 0 1:-51 2:-79 3:-71 4:-69 5:-71 
1 1 0 0 0 0 0 0 0 1 0 1:-67 2:-75 3:-77 4:-70 5:-61 
0 0 0 0 0 0 0 0 0 1 0 1:-50 2:-68 3:-79 4:-67 5:-60 
0 0 0 0 0 0 0 0 0 1 0 1:-50 2:-72 3:-80 4:-72 5:-62 
0 0 0 0 0 0 0 0 0 1 0 1:-50 2:-78 3:-78 4:-74 5:-62 
0 0 0 0 0 0 0 0 0 1 0 1:-56 2:-80 3:-79 4:-66 5:-59 
0 0 0 0 0 0 0 0 0 1 0 1:-57 2:-73 3:-79 4:-72 5:-62 
1 0 0 0 0 0 0 0 0 1 0 1:-62 2:-77 3:-79 4:-71 5:-62 
1 1 0 0 0 1 0 0 0 1 0 1:-63 2:-76 3:-77 4:-66 5:-49 
0 0 0 0 0 0 0 0 0 1 0 1:-53 2:-71 3:-79 4:-65 5:-59 
1 0 0 0 0 0 0 0 0 1 0 1:-58 2:-74 3:-75 4:-67 5:-57 
1 0 0 0 0 0 0 0 0 1 0 1:-58 2:-76 3:-72 4:-68 5:-61 
0 0 0 0 0 0 0 0 0 1 0 1:-60 2:-80 3:-77 4:-70 5:-65 
1 1 1 0 1 1 0 1 1 1 0 1:-62 2:-71 3:-70 4:-73 5:-65 
0 0 0 0 0 0 0 0 0 1 0 1:-51 2:-78 3:-80 4:-73 5:-66 
0 0 0 0 0 0 0 0 0 1 0 1:-50 2:-72 3:-79 4:-77 5:-71 
0 0 0 0 0 0 0 0 0 1 0 1:-55 2:-79 3:-76 4:-71 5:-63 
0 0 0 0 0 0 0 0 0 1 0 1:-55 2:-77 3:-75 4:-65 5:-63 
1 0 0 0 0 1 0 0 0 1 0 1:-56 2:-69 3:-75 4:-67 5:-54 
1 0 0 0 0 0 0 0 0 1 0 1:-56 2:-68 3:-74 4:-72 5:-64 
0 0 0 0 0 0 0 0 0 1 0 1:-47 2:-71 3:-74 4:-73 5:-59 
0 0 0 0 0 0 0 0 0 1 0 1:-55 2:-78 3:-75 4:-66 5:-63 
1 1 1 1 1 0 1 1 1 1 0 1:-65 2:-72 3:-78 4:-58 5:-66 
0 0 0 0 0 0 0 0 0 1 0 1:-50 2:-77 3:-72 4:-67 5:-61 
0 0 0 0 0 0 0 0 0 1 0 1:-52 2:-68 3:-74 4:-72 5:-69 
0.1448526245586453 0 0 0 0 0 0 0 0 1 0 1:-56 2:-68 3:-77 4:-72 5:-63 
0 0 0 0 0 0 0 0 0 1 0 1:-56 2:-80 3:-78 4:-71 5:-64 
1 1 1 0 1 1 0 0 0.7797726642586515 1 0 1:-65 2:-72 3:-74 4:-71 5:-66 
1 0 0 0 0 0 0 0 0 1 0 1:-62 2:-75 3:-76 4:-75 5:-66 
1 0 0 0 0 1 0 0 0 0 0 1:-48 2:-66 3:-71 4:-60 5:-58 
1 1 1 1 1 1 1 1 1 1 0 1:-60 2:-68 3:-67 4:-71 5:-70 
1 0 0 0 0 0 0 0 0 0 0 1:-48 2:-68 3:-76 4:-66 5:-50 
1 1 0 0 0 1 0 0 0 1 0 1:-60 2:-70 3:-72 4:-75 5:-53 
0 0 0 0 0 0 0 0 0 1 0 1:-57 2:-77 3:-78 4:-64 5:-57 
0 0 0 0 0 0 0 0 0 1 0 1:-60 2:-76 3:-78 4:-75 5:-65 
1 1 0 0 0 0 0 0 0 1 0 1:-61 2:-65 3:-79 4:-75 5:-64 
1 1 1 0 1 0 0.03474885670026332 1 0 1 0 1:-62 2:-66 3:-78 4:-66 5:-63 
1 1 0 0.8152550716243799 1 1 1 1 1 0 0 1:-52 2:-66 3:-72 4:-56 5:-54 
1 1 1 1 1 1 1 1 1 1 0 1:-60 2:-65 3:-69 4:-65 5:-64 
1 0 0 0 0 1 0 0 0 1 0 1:-49 2:-67 3:-73 4:-67 5:-52 
1 1 0 0 1 1 0 1 1 1 0 1:-59 2:-66 3:-72 4:-68 5:-58 
1 1 1 1 1 1 1 1 1 1 0 1:-63 2:-65 3:-72 4:-65 5:-66 
1 1 1 1 1 1 1 1 1 0 0 1:-63 2:-68 3:-75 4:-56 5:-67 
1 1 0 0 1 1 1 1 1 1 0 1:-63 2:-77 3:-68 4:-65 5:-53 
0 0 0 0 0 0 0 0 0 1 0 1:-52 2:-72 3:-76 4:-66 5:-57 
0 0 0 0 0 0 0 0 0 1 0 1:-49 2:-75 3:-68 4:-70 5:-63 
1 1 0 0 0 0 1 1 0 0 0 1:-61 2:-74 3:-78 4:-57 5:-65 
1 1 1 1 1 1 1 1 0 0 0 1:-61 2:-66 3:-79 4:-58 5:-58 
0 0 0 0 0 0 0 0 0 1 0 1:-45 2:-69 3:-76 4:-74 5:-69 
0 0 0 0 0 0 0 0 0 1 0 1:-45 2:-70 3:-76 4:-69 5:-53 
0 0 0 0 0 0 0 0 0 1 0 1:-55 2:-76 3:-75 4:-76 5:-59 
1 0 0 0 0 0 0 0 0 1 0 1:-61 2:-78 3:-76 4:-62 5:-63 
0 0 0 0 0 0 0 0 0 1 0 1:-56 2:-70 3:-79 4:-67 5:-61 
0 0 0 0 0 0 0 0 0 1 0 1:-55 2:-79 3:-80 4:-66 5:-55 
0 0 0 0 0 0 0 0 0 1 0 1:-56 2:-74 3:-73 4:-67 5:-65 
1 0 0 0 0 0 1 1 0 0 0 1:-61 2:-79 3:-73 4:-59 5:-65 
0.4298604045337333 0 0 0 0 1 0 0 0 0 0 1:-46 2:-67 3:-75 4:-57 5:-51 
1 0 0 0 0 0 0 0 0 0 0 1:-49 2:-68 3:-77 4:-59 5:-51 
0 0 0 0 0 0 0 0 0 1 0 1:-45 2:-69 3:-77 4:-71 5:-67 
0 0 0 0 0 0 0 0 0 1 0 1:-47 2:-60 3:-79 4:-68 5:-71 
0 0 0 0 0 0 0 0 0 1 0 1:-43 2:-65 3:-71 4:-68 5:-71 
0 0 0 0 0 1 0 0 0 0 0 1:-49 2:-66 3:-72 4:-62 5:-64 
0 0 0 0 0 0 1 0 0 0 0 1:-51 2:-66 3:-77 4:-57 5:-61 
1 0 0 0 0 1 0 0 0 1 0 1:-53 2:-74 3:-71 4:-67 5:-50 
0 0 0 0 0 0 0 0 0 1 0 1:-48 2:-75 3:-75 4:-71 5:-56 
1 0 0 0 0 0 0 0 0 1 0 1:-59 2:-76 3:-75 4:-69 5:-55 
0 0 0 0 0 0 0 0 0 1 0 1:-46 2:-72 3:-80 4:-73 5:-66 
0 0 0 0 0 0 0 0 0 1 0 1:-55 2:-72 3:-76 4:-71 5:-61 
0 0 0 0 0 0 0 0 0 1 0 1:-56 2:-75 3:-75 4:-76 5:-62 
0 0 0 0 0 0 0 0 0 1 0 1:-59 2:-75 3:-80 4:-73 5:-61 
0 0 0 0 0 0 0 0 0 1 0 1:-58 2:-78 3:-76 4:-65 5:-59 
1 0 0 0 0 0.5073725036901036 0 0 0 0 0 1:-60 2:-80 3:-75 4:-61 5:-52 
1 1 0 0 0 1 0 0 1 1 0 1:-62 2:-80 3:-67 4:-68 5:-52 
1 1 0 1 1 1 1 1 1 1 0 1:-58 2:-70 3:-71 4:-62 5:-63 
1 0 0 0 0 1 0 0 0 1 0 1:-57 2:-70 3:-72 4:-67 5:-64 
0 0 0 0 0 0 0 0 0 1 0 1:-48 2:-77 3:-79 4:-72 5:-61 
1 1 1 0 1 0 1 1 0 1 0 1:-62 2:-66 3:-80 4:-63 5:-63 
1 1 0 0 0 0 0 0 0 1 0 1:-64 2:-77 3:-80 4:-66 5:-50 
0 0 0 0 0 0 0 0 0 1 0 1:-57 2:-77 3:-77 4:-68 5:-65 
0 0 0 0 0 0 0 0 0 1 0 1:-56 2:-73 3:-80 4:-68 5:-68 
0 0 0 0 0 0 0 0 0 1 0 1:-47 2:-77 3:-80 4:-71 5:-63 
0 0 0 0 0 0 0 0 0 1 0 1:-46 2:-74 3:-77 4:-75 5:-62 
0 0 0 0 0 0 0 0 0 1 0 1:-50 2:-78 3:-74 4:-75 5:-48 
1 1 1 1 1 1 1 1 1 1 0 1:-77 2:-68 3:-74 4:-62 5:-67 
0 0 0 0 0 1 0.1962181877595507 0 0 0 0 1:-44 2:-68 3:-68 4:-60 5:-63 
0 0 0 0 0 0 0 0 0 1 0 1:-48 2:-76 3:-70 4:-68 5:-65 
0 0 0 0 0 0 0 0 0 1 0 1:-55 2:-75 3:-77 4:-67 5:-63 
1 0 0 1 0 1 1 1 1 1 0 1:-54 2:-69 3:-68 4:-67 5:-67 
1 0 0 0 0 1 0 0 0 1 0 1:-56 2:-67 3:-72 4:-69 5:-66 
1 1 0 0 0 1 0 1 1 1 0 1:-57 2:-76 3:-65 4:-67 5:-58 
1 0 0 0 0 1 0 0 0 1 0 1:-52 2:-77 3:-64 4:-67 5:-56 
1 0 0 0 0 1 0 0 0 1 0 1:-54 2:-67 3:-71 4:-70 5:-62 
0 0 0 0 0 0 0 0 0 1 0 1:-54 2:-69 3:-77 4:-71 5:-74 
0 0 0 0 0 0 0 0 0 1 0 1:-49 2:-71 3:-72 4:-72 5:-72 
0 0 0 1 0.159847761284395 1 1 1 1 0 0 1:-52 2:-65 3:-72 4:-61 5:-67 
1 1 1 1 1 1 1 1 1 1 0 1:-71 2:-70 3:-75 4:-62 5:-55 
1 1 0 0 0 1 0 0 0 1 0 1:-56 2:-70 3:-72 4:-67 5:-55 
1 1 1 1 1 1 1 1 1 1 0 1:-75 2:-62 3:-71 4:-63 5:-56 
1 0 0 0 0 1 1 1 0 0 0 1:-49 2:-66 3:-70 4:-59 5:-53 
0 0 0 0 0 0 0 0 0 1 0 1:-55 2:-79 3:-74 4:-65 5:-55 
1 0 0 0 0 1 0 0 0 0 0 1:-54 2:-71 3:-74 4:-62 5:-53 
1 1 0 0 0 0.3907325617768039 1 0 0 0 0 1:-58 2:-71 3:-79 4:-54 5:-54 
1 1 0 0 0 1 0 0 0 0 0 1:-58 2:-72 3:-77 4:-61 5:-54 
0 0 0 0 0 0 0 0 0 1 0 1:-52 2:-75 3:-76 4:-68 5:-66 
0 0 0 0 0 0 0 0 0 1 0 1:-52 2:-68 3:-78 4:-71 5:-68 
1 0 0 0 0 0 0 0 0 1 0 1:-58 2:-69 3:-78 4:-73 5:-63 
1 1 1 1 1 1 1 1 1 1 0 1:-79 2:-72 3:-68 4:-64 5:-58 
1 1 0 0 0 1 0 1 1 1 0 1:-57 2:-78 3:-63 4:-68 5:-60 
1 1 1 1 1 1 1 1 1 1 0 1:-67 2:-62 3:-70 4:-61 5:-60 
1 1 1 1 1 1 1 1 1 1 0 1:-67 2:-62 3:-74 4:-61 5:-60 
0 0 0 0 0 0 0 0 0 1 0 1:-51 2:-66 3:-75 4:-67 5:-63 
0 0 0 0 0 0 0 0 0 1 0 1:-51 2:-71 3:-77 4:-72 5:-62 
0 0 0 0 0 0 0 0 0 1 0 1:-51 2:-72 3:-76 4:-66 5:-62 
0 0 0 0 0 0 0 0 0 1 0 1:-51 2:-78 3:-69 4:-68 5:-61 
0 0 0 0 0 0 0 0 0 1 0 1:-52 2:-79 3:-76 4:-67 5:-63 
1 1 0 0 0 0 0 0 0 1 0 1:-68 2:-80 3:-75 4:-71 5:-59 
1 1 1 0 1 1 1 1 1 1 0 1:-69 2:-77 3:-75 4:-63 5:-59 
1 0 0 0 0 0 0 0 0 0.4459534191647998 0 1:-59 2:-77 3:-80 4:-63 5:-52 
1 1 0.9096457114997947 1 1 1 1 1 1 0 0 1:-59 2:-73 3:-61 4:-58 5:-47 
0 0 0 0 0 0 0 0 0 1 0 1:-53 2:-79 3:-79 4:-67 5:-60 
0 0 0 0 0 0 0 0 0 1 0 1:-52 2:-67 3:-78 4:-69 5:-61 
0 0 0 0 0 0 0 0 0 1 0 1:-52 2:-76 3:-73 4:-71 5:-61 
1 0 0 0 0 0 0 0 0 1 0 1:-53 2:-74 3:-72 4:-72 5:-57 
0 0 0 0 0 0 0 0 0 1 0 1:-53 2:-78 3:-71 4:-66 5:-62 
1 0 0 0 0 0 0 0 0 1 0 1:-55 2:-73 3:-74 4:-66 5:-57 
0 0 0 0 0 0 0 0 0 1 0 1:-54 2:-78 3:-75 4:-68 5:-59 
0 0 0 0 0 0 0 0 0 1 0 1:-55 2:-78 3:-79 4:-71 5:-66 
0 0 0 0 0 0 0 0 0 1 0 1:-54 2:-78 3:-75 4:-70 5:-60 
1 0 0 0 0 0 0 0 0 1 0 1:-59 2:-76 3:-74 4:-70 5:-60 
0 0 0 0 0 0 0 0 0 1 0 1:-59 2:-74 3:-80 4:-62 5:-64 
0 0 0 0 0 0 0 0 0 1 0 1:-50 2:-74 3:-77 4:-74 5:-61 
0 0 0 0 0 0 0 0 0 1 0 1:-58 2:-76 3:-76 4:-74 5:-61 
1 0 0 0 0 0 0 0 0 1 0 1:-59 2:-77 3:-77 4:-70 5:-54 
1 0 0 0 0 0 0 0 0 1 0 1:-60 2:-72 3:-77 4:-72 5:-62 
1 0 0 0 0 0 0 0 0 1 0 1:-58 2:-73 3:-79 4:-64 5:-59 
1 0 0 0 0 0 0 0 0 1 0 1:-59 2:-75 3:-76 4:-72 5:-55 
1 0 0 0 0 0 0 0 0 1 0 1:-60 2:-75 3:-77 4:-72 5:-55 
0 0 0 0 0 0 0 0 0 1 0 1:-54 2:-77 3:-80 4:-69 5:-66 
0 0 0 0 0 0 0 0 0 1 0 1:-50 2:-79 3:-76 4:-72 5:-59 
0 0 0 0 0 0 0 0 0 1 0 1:-48 2:-78 3:-74 4:-72 5:-64 
0 0 0 0 0 0 0 0 0 1 0 1:-46 2:-77 3:-73 4:-77 5:-63 
0 0 0 0 0 0 0 0 0 1 0 1:-48 2:-73 3:-73 4:-69 5:-65 
0 0 0 0 0 0 0 0 0 1 0 1:-51 2:-78 3:-80 4:-68 5:-70 
0 0 0 0 0 0 0 0 0 1 0 1:-51 2:-80 3:-74 4:-72 5:-69 
0 0 0 0 0 0 0 0 0 1 0 1:-46 2:-71 3:-77 4:-74 5:-72 
0 0 0 0 0 0 0 0 0 1 0 1:-50 2:-80 3:-75 4:-71 5:-70 
0 0 0 0 0 0 0 0 0 1 0.000263008828709913 1:-60 2:-78 3:-77 4:-73 5:-71 
0 0 0 0 0 0 0 0 0 1 0 1:-62 2:-75 3:-79 4:-63 5:-70 
0 0 0 0 0 0 0 0 0 1 0 1:-64 2:-78 3:-80 4:-64 5:-68 
0 0 0 0 0 0 0 0 0 1 0 1:-56 2:-75 3:-79 4:-64 5:-69 
0 0 0 0 0 0 0 0 0 1 0 1:-49 2:-80 3:-80 4:-70 5:-67 
1 0 0 0 0 0 0 0 0 1 0 1:-59 2:-77 3:-75 4:-69 5:-57 
1 0 0 0 0 0 0 0 0 1 0 1:-54 2:-79 3:-80 4:-72 5:-46 
0 0 0 0 0 0 0 0 0 1 0 1:-53 2:-80 3:-79 4:-72 5:-48 
0 0 0 0 0 0 0 0 0 1 0 1:-50 2:-71 3:-79 4:-73 5:-56 
1 0 0 0 0 1 0 0 0 1 0 1:-58 2:-76 3:-72 4:-72 5:-56 
0 0 0 0 0 0 0 0 0 1 0 1:-49 2:-79 3:-72 4:-78 5:-69 
0 0 0 0 0 0 0 0 0 1 0 1:-51 2:-80 3:-76 4:-70 5:-49 
1 0 0 0 0 0 0 0 0 1 0 1:-59 2:-69 3:-80 4:-72 5:-57 
1 1 0 0 0 1 0 0 0 1 0 1:-65 2:-69 3:-75 4:-80 5:-58 
1 1 0.3293259519906661 0 0 0 0 0 0 1 0.0002218918943620879 1:-69 2:-71 3:-78 4:-80 5:-61 
0 0 0 0 0 0 0 0 0 1 0 1:-60 2:-80 3:-78 4:-80 5:-63 
1 1 0 0 0 1 0 0 0 1 0 1:-60 2:-71 3:-73 4:-72 5:-62 
1 0 0 0 0 0 0 0 0 1 0 1:-61 2:-73 3:-77 4:-73 5:-63 
1 0 0 0 0 0 0 0 0 1 0 1:-58 2:-70 3:-79 4:-64 5:-62 
1 1 0 0 0 0 0 0 0 1 0 1:-63 2:-74 3:-76 4:-64 5:-62 
0 0 0 0 0 0 0 0 0 1 0 1:-47 2:-72 3:-76 4:-68 5:-67 
1 0.1556067986050529 0 0 0 0 0 0 0 1 0 1:-58 2:-68 3:-80 4:-61 5:-57 
1 1 0 0 1 1 1 1 0 0.130073960819324 0 1:-59 2:-69 3:-75 4:-60 5:-57 
1 0 0 0 0 0 0 0 0 1 0 1:-60 2:-77 3:-70 4:-69 5:-66 
1 1 0 0 0 0 0 0 0 1 0 1:-60 2:-67 3:-75 4:-71 5:-65 
0 0 0 0 0 0 0 0 0 1 0 1:-48 2:-65 3:-71 4:-65 5:-66 
0 0 0 1 0 0 1 0.3633284269183173 0 1 0 1:-54 2:-65 3:-75 4:-63 5:-67 
1 1 1 1 1 1 1 1 1 1 0 1:-67 2:-66 3:-72 4:-65 5:-59 
1 1 1 1 1 1 1 1 1 1 0 1:-67 2:-67 3:-69 4:-63 5:-59 
1 0 0 0 0 1 0 0 0 1 0 1:-56 2:-70 3:-76 4:-64 5:-56 
1 0 0 0 0 0 0 0 0 1 0 1:-57 2:-76 3:-75 4:-67 5:-55 
0 0 0 0 0 0 0 0 0 1 0 1:-59 2:-75 3:-80 4:-69 5:-61 
1 1 0 0 0 1 0 0 0 1 0 1:-62 2:-78 3:-72 4:-70 5:-51 
0 0 0 0 0 1 0 0 0 0 0 1:-47 2:-68 3:-72 4:-64 5:-55 
0 0 0 0 0 0 0 0 0 1 0 1:-57 2:-79 3:-69 4:-66 5:-70 
0 0 0 0 0 0 0 0 0 1 0 1:-51 2:-76 3:-68 4:-66 5:-64 
0 0 0 0 0 0 0 0 0 1 0 1:-51 2:-72 3:-80 4:-66 5:-71 
0 0 0 0 0 0 0 0 0 1 0 1:-52 2:-69 3:-79 4:-73 5:-72 
0 0 0 0 0 0 0 0 0 1 0 1:-50 2:-71 3:-79 4:-72 5:-68 
0 0 0 0 0 0 1 0 0 0 0 1:-50 2:-65 3:-74 4:-61 5:-64 
0 0 0 0 0 1 1 1 0 0 0 1:-49 2:-66 3:-71 4:-61 5:-65 
0 0 0 0 0 0 0 0 0 1 0 1:-57 2:-73 3:-77 4:-63 5:-65 
0 0 0 0 0 0 0 0 0 1 0 1:-52 2:-70 3:-76 4:-73 5:-65 
1 1 1 1 1 1 1 1 1 1 0 1:-67 2:-73 3:-72 4:-64 5:-67 
1 1 0 0 0 1 0 0 0 1 0 1:-60 2:-74 3:-73 4:-65 5:-60 
0 0 0 0 0 0 0 0 0 1 0 1:-55 2:-73 3:-79 4:-66 5:-59 
1 1 0 0 1 1 1 0 0 0 0 1:-59 2:-67 3:-79 4:-59 5:-55 
1 1 0 0 0 1 0 0 0 1 0 1:-59 2:-69 3:-75 4:-69 5:-55 
1 0 0 0 0 1 0 0 0 1 0 1:-52 2:-62 3:-73 4:-68 5:-60 
0 0 0 0 0 0 0 0 0 1 0 1:-52 2:-72 3:-80 4:-68 5:-63 
0 0 0 0 0 0 0 0 0 1 0 1:-57 2:-72 3:-80 4:-68 5:-62 
1 1 1 0 1 1 0 1 0 1 0 1:-60 2:-63 3:-75 4:-69 5:-61 
0 0 0 0 0 0 0 0 0 1 0 1:-48 2:-72 3:-73 4:-68 5:-66 
1 0 0 0 0 0 0 0 0 1 0 1:-58 2:-71 3:-75 4:-72 5:-62 
1 0 0 0 0 0 0 0 0 1 0 1:-58 2:-72 3:-75 4:-70 5:-63 
0 0 0 0 0 0 0 0 0 1 0 1:-57 2:-78 3:-79 4:-65 5:-62 
0 0 0 0 0 0 0 0 0 1 0 1:-57 2:-79 3:-79 4:-66 5:-65 
1 1 1 1 1 1 1 1 1 1 0 1:-68 2:-67 3:-76 4:-66 5:-64 
0 0 0 0 0 0 0.1151943374923061 0 0 1 0 1:-58 2:-69 3:-75 4:-67 5:-72 
0 0 0 0 0 0 0 0 0 1 0 1:-57 2:-76 3:-80 4:-63 5:-74 
1 0 0 0 0 1 0 0 0 1 0 1:-58 2:-76 3:-68 4:-71 5:-59 
1 1 1 1 1 1 1 1 1 1 0 1:-66 2:-70 3:-70 4:-71 5:-56 
1 1 1 1 1 1 1 1 1 1 0 1:-66 2:-72 3:-74 4:-65 5:-61 
0 0 0 0 0 0 0 0 0 1 0 1:-61 2:-76 3:-79 4:-66 5:-74 
1 1 1 0.3070410459814402 0 0 1 0 0 1 0 1:-66 2:-75 3:-78 4:-64 5:-70 
1 1 0 0 0 1 0.1162460878689236 0 0 1 0 1:-60 2:-76 3:-72 4:-64 5:-63 
0 0 0 0 0 0 0 0 0 1 0 1:-60 2:-75 3:-74 4:-71 5:-67 
0 0 0 0 0 0 0 0 0 1 0 1:-58 2:-74 3:-74 4:-74 5:-72 
0 0.6398561456307652 1 0 0 0 0 0 0 1 0 1:-63 2:-72 3:-75 4:-73 5:-73 
0.3500297216547904 0 0 0 0 0 0 0 0 1 0 1:-62 2:-74 3:-77 4:-67 5:-68 
0 0 0 0 0 0 1 0.9629906313005097 0 0 0 1:-60 2:-80 3:-74 4:-56 5:-64 
0 0 0 0 0 0 0 0 0 1 0 1:-55 2:-78 3:-79 4:-66 5:-69 
0 0 0 0 0 0 0 0 0 0.3478743749708361 0 1:-48 2:-66 3:-75 4:-65 5:-66 
-1 1 0 0 0 1 0 1 0 1 0 1:-61 2:-70 3:-71 4:-65 5:-60 
-0 1 0 0 0 1 0 0 0 0 0 1:-61 2:-71 3:-70 4:-65 5:-52 
-1 0 0 0 0 0 0 0 0 1 0 1:-60 2:-78 3:-76 4:-71 5:-63 
-1 0 0 0 0 0 0 0 0 1 0 1:-61 2:-70 3:-76 4:-69 5:-58 
-0 1 1 1 1 0 1 1 1 0 0 1:-71 2:-67 3:-76 4:-62 5:-62 
-0 1 0 0 0 0 0 0 0 0 0 1:-64 2:-71 3:-76 4:-61 5:-53 
-1 0 0 0 0 1 0 0 0 1 0 1:-56 2:-69 3:-75 4:-60 5:-54 
-1 0 0 0 0 1 0 0 0 1 0 1:-48 2:-70 3:-75 4:-65 5:-43 
-0 1 0 0 0 0 0 0 0 0 0 1:-70 2:-69 3:-77 4:-67 5:-47 
-1 0 0 0 0 0 0 0 0 1 0 1:-62 2:-73 3:-77 4:-66 5:-51 
-1 1 0 0 0 0 0 0 0 1 0 1:-63 2:-71 3:-75 4:-66 5:-62 
-0 1 0 0 0 0 0 0 0 0 0 1:-68 2:-68 3:-75 4:-66 5:-52 
-1 1 1 1 1 0 1 1 0 1 0 1:-64 2:-67 3:-76 4:-64 5:-63 
-1 1 0 0 1 1 1 1 0 0 0 1:-64 2:-70 3:-73 4:-63 5:-59 
-0 1 1 1 1 1 1 1 1 0 0 1:-61 2:-67 3:-66 4:-56 5:-63 
-0 1 1 1 1 1 1 1 1 0 0 1:-64 2:-58 3:-67 4:-65 5:-63 
-0 1 1 1 1 1 1 1 1 0 0 1:-63 2:-58 3:-67 4:-63 5:-56 
-0 1 1 1 1 1 1 1 1 0 0 1:-69 2:-62 3:-67 4:-61 5:-57 
-0 1 0 0 0 0 0 0 0 0 0 1:-62 2:-63 3:-76 4:-64 5:-53 
-0 1 0 0 0 0 0 0 0 0 0 1:-68 2:-72 3:-76 4:-64 5:-44 
-0 1 0 0 1 0 0 0 0 0 0 1:-68 2:-71 3:-76 4:-53 5:-42 
-0 1 0 0 0 1 0 0 0 0 0 1:-61 2:-74 3:-69 4:-59 5:-43 
-0 0 0 0 0 1 0 0 0 0 0 1:-62 2:-80 3:-69 4:-62 5:-43 
-0 0 0 0 0 1 0 0 0 0 0 1:-63 2:-65 3:-72 4:-63 5:-34 
-0 1 1 1 1 1 1 1 1 0 0 1:-71 2:-64 3:-68 4:-55 5:-56 
-0 1 1 1 1 1 1 1 1 0 0 1:-71 2:-66 3:-68 4:-56 5:-57 
-0 1 1 1 1 1 1 1 1 0 0 1:-65 2:-67 3:-72 4:-54 5:-51 
-0 1 0 0 0 1 0 0 0 0 0 1:-60 2:-66 3:-69 4:-62 5:-44 
-0 0 0 0 0 1 0 0 0 0 0 1:-56 2:-64 3:-75 4:-65 5:-47 
-0 1 1 1 1 1 1 1 0 0 0 1:-59 2:-60 3:-72 4:-63 5:-59 
-0 1 0 0 1 1 0 1 0 0 0 1:-60 2:-68 3:-70 4:-63 5:-56 
-1 0 0 0 0 1 0 0 0 1 0 1:-57 2:-68 3:-73 4:-67 5:-59 
-1 0 0 0 0 1 0 0 0 0 0 1:-56 2:-73 3:-75 4:-64 5:-47 
-0 0 0 0 0 1 0 0 0 0 0 1:-63 2:-76 3:-67 4:-72 5:-50 
-0 1 0 0 1 0 0 1 1 0 0 1:-71 2:-77 3:-71 4:-65 5:-57 
-1 1 1 1 1 1 0 0 0 1 0 1:-59 2:-63 3:-73 4:-70 5:-68 
-1 1 0 1 1 1 1 1 1 1 0 1:-59 2:-70 3:-73 4:-64 5:-68 
-1 1 1 1 1 1 1 1 1 1 0 1:-60 2:-69 3:-70 4:-63 5:-66 
-1 1 0 0 0 0 0 0 0 1 0 1:-67 2:-70 3:-79 4:-65 5:-59 
-0 1 0 0 0 0 0 0 0 1 0 1:-64 2:-63 3:-79 4:-69 5:-58 
-1 0 0 0 0 0 0 0 0 1 0 1:-63 2:-74 3:-79 4:-69 5:-62 
-0 1 1 1 1 1 1 1 1 0 0 1:-69 2:-74 3:-67 4:-66 5:-62 
-0 1 0 0 1 1 0 0 0 0 0 1:-61 2:-61 3:-71 4:-62 5:-47 
-0 1 0 1 1 1 1 1 1 0 0 1:-54 2:-67 3:-61 4:-59 5:-51 
-1 1 0 0 0 1 1 1 0 1 0 1:-62 2:-78 3:-72 4:-67 5:-66 
-1 1 1 1 1 0 1 1 1 1 0.0002659650178667831 1:-68 2:-74 3:-75 4:-65 5:-75 
-0 1 1 1 1 1 1 1 1 0 0 1:-68 2:-72 3:-71 4:-64 5:-64 
-1 1 0 1 1 1 1 1 1 1 0 1:-65 2:-78 3:-67 4:-65 5:-63 
-0 1 1 0.8270699527757437 1 0 0 0 0 1 0 1:-66 2:-65 3:-74 4:-68 5:-61 
-0 0 0 0 0 1 0 0 0 0 0 1:-63 2:-64 3:-72 4:-67 5:-43 
-0 1 0 0 0 1 0 0 0 0 0 1:-64 2:-67 3:-69 4:-63 5:-45 
-0 1 0 0 1 1 0 0 0 0 0 1:-68 2:-66 3:-70 4:-63 5:-42 
-0 1 0 0 0 0 0 0 0 0 0 1:-67 2:-74 3:-74 4:-60 5:-47 
-0 0 0 0 0 1 0 0 0 0 0 1:-55 2:-61 3:-68 4:-64 5:-42 
-0 1 1 0 1 1 0 0 0 0 0 1:-65 2:-62 3:-73 4:-70 5:-58 
-1 0 0 0 0 0 0 0 0 1 0 1:-64 2:-70 3:-74 4:-71 5:-59 
-0 1 1 1 1 1 1 1 1 0 0 1:-71 2:-72 3:-62 4:-65 5:-67 
-0 0.1125525996614392 0 0 0 1 0 0 1 0 0 1:-60 2:-78 3:-64 4:-66 5:-50 
-1 0 0 0 0 1 0 1 1 0 0 1:-57 2:-80 3:-62 4:-65 5:-50 
-0 0 0 0 0 0 0 0 0 1 0 1:-65 2:-76 3:-74 4:-76 5:-50 
-0 1 0 0 1 1 0 0 1 0 0 1:-70 2:-66 3:-65 4:-75 5:-50 
-0 1 1 1 1 1 0 1 1 0 0 1:-74 2:-71 3:-65 4:-78 5:-65 
-1 0 0 0 0 0 0 0 0 1 0 1:-64 2:-75 3:-76 4:-72 5:-57 
-0.9352958755313201 0 0 0 0 1 0 0 0 1 0 1:-61 2:-72 3:-64 4:-76 5:-58 
-0 1 0 0 0 1 0 0 1 0 0 1:-64 2:-69 3:-64 4:-76 5:-55 
-1 1 0.8051951633321561 0 0 0.2942765823188623 0 0 0 1 0 1:-66 2:-68 3:-72 4:-76 5:-65 
-0 1 1 1 1 1 0 1 1 0 0 1:-65 2:-64 3:-63 4:-70 5:-61 
-1 1 1 0 0 0 0 0 0 1 0 1:-65 2:-66 3:-76 4:-68 5:-63 
-0 1 1 0 0 0 0 0 0 0 0 1:-69 2:-64 3:-75 4:-72 5:-56 
-0 1 1 0 0 0 0 0 0 1 0 1:-68 2:-64 3:-76 4:-72 5:-60 
-0 1 0 0 0 0 0 0 0 1 0 1:-67 2:-68 3:-76 4:-72 5:-61 
-0 1 1 0 1 0 0 0 0 0 0 1:-70 2:-65 3:-77 4:-65 5:-55 
-0 0 0 0 0 0 0 0 0 1 0 1:-64 2:-65 3:-80 4:-71 5:-55 
-1 0 0 0 0 0 0 0 0 1 0 1:-65 2:-75 3:-78 4:-70 5:-56 
-1 0 0 0 0 0 0 0 0 1 0 1:-56 2:-75 3:-80 4:-60 5:-51 
-0 1 0 0.03388650753228771 1 1 0 1 1 0 0 1:-69 2:-77 3:-69 4:-66 5:-59 
-1 0 0 0 0 1 1 0 0 1 0 1:-55 2:-70 3:-76 4:-63 5:-62 
-1 1 1 1 1 0 1 1 1 0 0 1:-69 2:-69 3:-76 4:-58 5:-66 
-1 1 0 0 1 0 1 1 0 0 0 1:-66 2:-73 3:-77 4:-56 5:-57 
-1 0 0 0 0 1 0 0 0 1 0 1:-50 2:-73 3:-76 4:-61 5:-47 
-1 0 0 0 0 1 0 0 0 1 0 1:-48 2:-67 3:-70 4:-64 5:-47 
-0 0 0 0 0 1 0 0 0 0 0 1:-57 2:-67 3:-70 4:-64 5:-47 
-1 0 0 0 0 1 0 0 0 1 0 1:-48 2:-71 3:-78 4:-64 5:-41 
-1 0 0 0 0 1 0 0 0 1 0 1:-56 2:-69 3:-75 4:-74 5:-48 
-1 0 0 0 0 0 0 0 0 1 0 1:-60 2:-70 3:-76 4:-62 5:-56 
-1 1 0 0 0 0 0 0 0 1 0 1:-61 2:-71 3:-75 4:-62 5:-57 
-1 0 0 0 0 1 0 0 0 1 0 1:-54 2:-74 3:-62 4:-77 5:-56 
-1 0 0 0 0 0 0 0 0 1 0 1:-61 2:-71 3:-76 4:-66 5:-61 
-0 1 0 0 0 1 0 0 0 0 0 1:-64 2:-67 3:-73 4:-67 5:-53 
-1 0 0 0 0 0 0 0 0 1 0 1:-70 2:-78 3:-80 4:-69 5:-54 
-1 1 0 0 0 0 0 0 0 1 0 1:-68 2:-76 3:-71 4:-72 5:-62 
-0 1 1 0 1 0 0 0 1 1 0 1:-73 2:-73 3:-70 4:-75 5:-62 
-1 1 1 0 0 0 0 0 0 1 0.0001723538158349817 1:-70 2:-76 3:-76 4:-70 5:-65 
-1 1 0 0 0 0 0 0 0 1 0 1:-65 2:-77 3:-75 4:-70 5:-65 
-1 1 1 0 0.9568232445452221 0 0 0 0 1 0 1:-65 2:-63 3:-79 4:-70 5:-68 
-0 1 1 1 1 1 1 1 1 0 0 1:-64 2:-64 3:-65 4:-59 5:-68 
-0 1 1 1 1 1 1 1 1 0 0 1:-68 2:-67 3:-66 4:-59 5:-47 
-0 1 1 0 1 0 0 0 0 0 0 1:-74 2:-61 3:-75 4:-66 5:-42 
-1 0 0 0 0 1 0 0 0 1 0 1:-47 2:-66 3:-73 4:-71 5:-58 
-0 1 0 0 0 1 0 0 0 0.7436396381448069 0 1:-62 2:-64 3:-71 4:-69 5:-58 
-0 1 0 0 0 0 0 0 0 0 0 1:-63 2:-69 3:-76 4:-64 5:-53 
-1 0 0 0 0 1 0 0 0 1 0 1:-56 2:-69 3:-73 4:-72 5:-71 
-1 0 0 0 0 0 0 0 0 1 0 1:-65 2:-80 3:-75 4:-78 5:-55 
-0 1 0 0 0 0 0 0 0 0 0 1:-66 2:-65 3:-79 4:-62 5:-45 
-0 1 1 1 1 0 1 1 1 0 0 1:-72 2:-71 3:-78 4:-60 5:-60 
-1 0 0 0 0 1 0 0 0 1 0 1:-60 2:-75 3:-71 4:-69 5:-58 
-1 0 0 0 0 0 0 0 0 1 0 1:-65 2:-79 3:-80 4:-75 5:-55 
-0 1 1 1 1 0 1 1 0 0 0 1:-70 2:-69 3:-78 4:-61 5:-62 
-1 1 0 0 0 0 0 0 0 0 0 1:-64 2:-69 3:-78 4:-63 5:-55 
-1 0 0 0 0 0 0 0 0 1 0 1:-64 2:-72 3:-78 4:-68 5:-53 
-1 1 0 0 0 0 0 0 0 1 0 1:-64 2:-72 3:-79 4:-62 5:-56 
-1 0 0 0 0 1 0 0 0 1 0 1:-59 2:-75 3:-74 4:-64 5:-59 
-1 1 0 0.1888803980019518 1 1 1 1 0 1 0 1:-58 2:-65 3:-73 4:-64 5:-64 
-1 0 0 0 0 0 1 0 0 1 0 1:-55 2:-65 3:-80 4:-64 5:-65 
-0 0 0 0 0 1 0 0 0 0 0 1:-63 2:-72 3:-71 4:-72 5:-51 
-0 1 1 1 1 1 0 1 1 1 0 1:-67 2:-69 3:-69 4:-72 5:-64 
-0 1 0 0 0 0 0 0 0 0 0 1:-67 2:-80 3:-75 4:-63 5:-52 
-1 1 0 0 0 0 0 0 0 1 0 1:-67 2:-69 3:-80 4:-67 5:-58 
-0 1 1 1 1 0 1 1 1 1 0 1:-67 2:-64 3:-74 4:-68 5:-66 
-0 1 1 1 1 0 0 1 0.09642009478229008 1 0 1:-67 2:-65 3:-73 4:-71 5:-65 
-1 0 0 0 0 0 0 0 0 1 0 1:-59 2:-73 3:-79 4:-71 5:-47 
-0 0 0 0 0 1 0 0 0 1 0 1:-62 2:-77 3:-72 4:-74 5:-47 
-1 0 0 0 0 1 0 0 0 1 0 1:-59 2:-70 3:-71 4:-71 5:-61 
-1 0 0 0 0 0 0 0 0 1 0 1:-60 2:-76 3:-76 4:-73 5:-54 
-1 0 0 0 0 0 0 0 0 1 0 1:-65 2:-80 3:-76 4:-68 5:-54 
-1 0 0 0 0 0 0 0 0 1 0 1:-64 2:-73 3:-75 4:-71 5:-63 
-1 1 0 0 0 0 0 0 0 1 0 1:-66 2:-70 3:-74 4:-73 5:-62 
-1 0 0 0 0 0 0 0 0 1 0 1:-64 2:-73 3:-73 4:-75 5:-67 
-1 0 0 0 0 0 0 0 0 1 0 1:-62 2:-72 3:-74 4:-68 5:-60 
-0 1 0 0 1 1 0 1 1 0 0 1:-69 2:-78 3:-67 4:-71 5:-60 
-0 0 0 0 0 1 0 0 0 0 0 1:-64 2:-78 3:-66 4:-73 5:-51 
-1 0 0 0 0 0 0 0 0 1 0 1:-59 2:-75 3:-77 4:-76 5:-56 
-0 1 0 0 1 1 0 0 0 0 0 1:-60 2:-57 3:-72 4:-61 5:-45 
-0 1 1 1 1 1 0.6112523000930843 1 1 0 0 1:-64 2:-57 3:-69 4:-63 5:-54 
-0 1 1 0 0.5337254158821193 0 0 0 0 0 0 1:-67 2:-59 3:-80 4:-66 5:-56 
-1 1 1 1 1 1 1 1 1 0 0 1:-62 2:-68 3:-72 4:-58 5:-61 
-1 1 0 0 0 1 1 0 0 0 0 1:-58 2:-66 3:-77 4:-58 5:-53 
-0 1 1 1 1 0 1 1 0 0 0 1:-70 2:-66 3:-76 4:-66 5:-62 
-0 1 1 1 1 0 1 1 1 0 0 1:-68 2:-67 3:-74 4:-66 5:-62 
-0 1 1 1 1 0 0 1 1 0 0 1:-68 2:-69 3:-73 4:-65 5:-59 
-0 1 1 1 1 1 1 1 1 0 0 1:-72 2:-59 3:-72 4:-64 5:-59 
-0 1 1 1 1 0 1 1 1 0 0 1:-73 2:-69 3:-77 4:-56 5:-58 
-0 1 0 0 0 0 0 0 0 0 0 1:-68 2:-79 3:-72 4:-60 5:-49 
-1 1 1 1 1 0 1 1 1 1 0 1:-68 2:-59 3:-73 4:-68 5:-78 
-0 1 1 1 1 1 0 0 0 0 0 1:-64 2:-59 3:-73 4:-68 5:-58 
-0 1 1 1 1 1 0 1 1 0 0 1:-64 2:-58 3:-69 4:-67 5:-58 
-0 1 1 1 1 0 1 1 1 0 0 1:-65 2:-58 3:-76 4:-57 5:-64 
-0 1 0 0 0 0 0 0 0 0 0 1:-68 2:-66 3:-79 4:-57 5:-45 
-0 1 1 0 0 0 0 0 0 0 0 1:-73 2:-67 3:-80 4:-65 5:-53 
-0 1 1 1 1 1 0 0.621986876684451 0 0 0 1:-73 2:-59 3:-71 4:-64 5:-44 
-0 1 1 1 1 1 0 1 1 0 0 1:-73 2:-59 3:-68 4:-62 5:-48 
-0 1 1 1 1 1 0 1 0 1 0 1:-61 2:-62 3:-71 4:-67 5:-60 
-0 0 0 0 0 0.3811372642039076 0 0 0 0 0 1:-62 2:-77 3:-73 4:-71 5:-47 
-1 0 0 0 0 1 0 0 0 0 0 1:-60 2:-79 3:-72 4:-68 5:-47 
-1 1 1 0 0 0 0 0 0 1 0 1:-66 2:-69 3:-77 4:-66 5:-61 
-1 1 1 1 1 1 1 1 1 1 0 1:-66 2:-73 3:-70 4:-66 5:-63 
-1 0 0 0 0 1 0 0 0 1 0 1:-58 2:-62 3:-74 4:-74 5:-65 
-0 1 0 0 0 1 0 0 0 0 0 1:-67 2:-62 3:-73 4:-71 5:-51 
-0 1 1 1 1 1 1 1 1 0 0 1:-65 2:-65 3:-63 4:-61 5:-52 
-0 1 1 1 1 1 1 1 1 0 0 1:-65 2:-61 3:-64 4:-62 5:-65 
-1 0 0 0 0 1 0 0 0 1 0 1:-61 2:-68 3:-74 4:-69 5:-60 
-0 0 0 0 0 1 0 0 0 0 0 1:-61 2:-68 3:-75 4:-67 5:-46 
-0 1 0 0 0 0 0 0 0 0 0 1:-70 2:-74 3:-77 4:-67 5:-46 
-0 1 0 0 0 1 0 0 0 0 0 1:-65 2:-76 3:-68 4:-70 5:-52 
-0 1 0 0 0 0.03873009429925405 0 0 0 0 0 1:-67 2:-74 3:-72 4:-64 5:-49 
-0 1 0 0 0 1 0 0 0 0 0 1:-65 2:-71 3:-67 4:-66 5:-48 
-0 1 0 0 0 1 0 0 0 0 0 1:-64 2:-70 3:-69 4:-67 5:-51 
-1 0 0 0 0 1 0 0 0 0 0 1:-54 2:-65 3:-77 4:-58 5:-46 
-1 0 0 0 0 0 0 0 0 1 0 1:-63 2:-72 3:-77 4:-65 5:-54 
-1 0 0 0 0 0 0 0 0 1 0 1:-49 2:-74 3:-80 4:-68 5:-46 
-1 0 0 0 0 0 0 0 0 1 0 1:-50 2:-75 3:-79 4:-62 5:-60 
-0 1 1 0.8604619377988765 1 0 1 0 0 0 0 1:-67 2:-63 3:-79 4:-63 5:-59 
-1 0 0 0 0 0 0 0 0 1 0 1:-57 2:-66 3:-79 4:-73 5:-50 
-1 0 0 0 0 1 0 0 0 1 0 1:-58 2:-72 3:-70 4:-73 5:-49 
-1 0 0 0 0 0 0 0 0 1 0 1:-64 2:-71 3:-75 4:-78 5:-62 
-1 0 0 0 0 0 0 0 0 1 0 1:-64 2:-77 3:-79 4:-74 5:-54 
-0 1 0 0 0 1 0 0 0 0 0 1:-61 2:-69 3:-68 4:-64 5:-49 
-0 1 0 0 1 1 0 1 1 0 0 1:-61 2:-68 3:-66 4:-65 5:-53 
-0 0 0 0 0 1 0 0 0 0 0 1:-54 2:-68 3:-68 4:-57 5:-45 
-0 1 1 1 1 1 1 1 1 0 0 1:-70 2:-71 3:-63 4:-57 5:-46 
-0 1 0 0 1 0 1 0.9054768162515615 0 0 0 1:-62 2:-64 3:-78 4:-55 5:-54 
-0 1 1 1 1 1 1 1 1 0 0 1:-65 2:-64 3:-65 4:-56 5:-56 
-0 1 0 0.1726480331406244 1 1 0.7684877503011541 1 0.3334266907356523 0 0 1:-65 2:-65 3:-70 4:-57 5:-46 
-0 1 0 0 0 1 0 0 0 0 0 1:-61 2:-68 3:-70 4:-62 5:-45 
-0 1 0 0 0 1 0 0 0 0 0 1:-60 2:-66 3:-70 4:-62 5:-45 
-0 1 0.3445043836529407 0 1 0 0 0 0 0 0 1:-73 2:-65 3:-76 4:-63 5:-44 
-1 0 0 0 0 1 0 0 0 0 0 1:-47 2:-69 3:-67 4:-64 5:-42 
-1 0 0 0 0 1 1 1 0 1 0 1:-51 2:-76 3:-73 4:-55 5:-61 
-1 1 1 1 1 1 1 1 1 0 0 1:-61 2:-69 3:-72 4:-57 5:-61 
-0 1 1 0 1 0 0 0 0 0 4.454997040332459e-05 1:-76 2:-75 3:-77 4:-69 5:-60 
-1 0 0 0 0 0 0 0 0 1 0 1:-62 2:-78 3:-78 4:-69 5:-67 
-1 1 0 0 0 0 1 0 0 1 0 1:-67 2:-78 3:-76 4:-67 5:-66 
-1 1 0 0 0 1 0 1 1 0 0 1:-64 2:-79 3:-69 4:-64 5:-56 
-0 1 0 0 0 1 0 0 0 0 0 1:-64 2:-69 3:-71 4:-66 5:-56 
-0 1 0 0 1 1 0 0 0 1 0 1:-64 2:-68 3:-71 4:-68 5:-60 
-0 1 0 0 0 1 0 0 0 1 0 1:-64 2:-68 3:-72 4:-68 5:-60 
-1 0 0 0 0 1 0 0 0 1 0 1:-59 2:-76 3:-74 4:-69 5:-52 
-1 1 0 0 1 1 1 1 1 0 0 1:-56 2:-68 3:-66 4:-60 5:-56 
-1 1 0 0 1 1 1 1 1 0 0 1:-55 2:-66 3:-67 4:-61 5:-56 
-1 0 0 0 0 1 0 0 0 1 0 1:-55 2:-68 3:-70 4:-63 5:-57 
-0 1 1 1 1 1 1 1 1 0 0 1:-68 2:-69 3:-72 4:-64 5:-60 
-0 1 1 1 1 1 1 1 1 0 0 1:-66 2:-66 3:-67 4:-59 5:-61 
-0 1 0 0 1 1 0 1 0 0 0 1:-65 2:-64 3:-71 4:-62 5:-50 
-0 1 0 0 1 0 0 0 0 0 0 1:-70 2:-68 3:-72 4:-67 5:-51 
-0 1 0 0 0 0 0 0 0 0 0 1:-68 2:-70 3:-73 4:-67 5:-54 
-1 0 0 0 0 0 0 0 0 1 0 1:-63 2:-76 3:-74 4:-67 5:-60 
-1 0.9559522988197547 0 0 0 1 0 0 0 1 0 1:-60 2:-74 3:-72 4:-65 5:-59 
-1 1 0 0 0 0 0 0 0 1 0 1:-67 2:-75 3:-73 4:-69 5:-59 
-1 1 0 0 0 0 0 0 0 1 0 1:-64 2:-75 3:-75 4:-67 5:-59 
-1 0 0 0 0 0 0 0 0 1 0 1:-66 2:-72 3:-75 4:-75 5:-62 
-1 0 0 0 0 0 0 0 0 1 0 1:-64 2:-74 3:-72 4:-76 5:-61 
-0 1 1 1 1 1 1 1 1 0 0 1:-65 2:-74 3:-61 4:-63 5:-61 
-0 1 0 1 1 1 1 1 1 0 0 1:-68 2:-79 3:-64 4:-63 5:-56 
-0 1 0 1 1 1 0 1 1 0 0 1:-70 2:-75 3:-65 4:-67 5:-57 
-0 1 1 1 1 1 1 1 1 0 0 1:-60 2:-59 3:-65 4:-66 5:-61 
-1 0 0 0 0 0 0 0 0 1 0 1:-60 2:-63 3:-80 4:-64 5:-58 
-0 0 0 0 0 1 0 0 0 0 0 1:-58 2:-64 3:-72 4:-64 5:-50 
-1 0 0 0 0 0 0 0 0 0 0 1:-54 2:-67 3:-80 4:-60 5:-46 
-0 1 0 0 0 0 0 0 0 0 0 1:-66 2:-70 3:-79 4:-61 5:-49 
-1 0 0 0 0 1 0 0 0 1 0 1:-61 2:-78 3:-72 4:-69 5:-62 
-1 1 0 0 0 1 0 1 1 1 0 1:-60 2:-79 3:-68 4:-69 5:-65 
-1 0 0 0 0 0 0 0 0 1 0 1:-67 2:-80 3:-72 4:-71 5:-56 
-1 0 0 0 0 1 0 0 0 1 0 1:-58 2:-80 3:-71 4:-71 5:-63 
-1 0 0 0 0 0 0 0 0 1 0 1:-58 2:-73 3:-77 4:-70 5:-60 
-0 0 0 0 0 1 0 0 0 1 0 1:-62 2:-67 3:-72 4:-71 5:-56 
-1 0 0 0 0 1 0 0 0 1 0 1:-60 2:-71 3:-71 4:-71 5:-64 
-1 1 0 0 0 1 0 0 0 1 0 1:-61 2:-67 3:-74 4:-70 5:-65 
-1 1 0 0 0 1 0 1 1 1 0 1:-61 2:-80 3:-66 4:-66 5:-60 
-1 1 0 0 0 1 0 0 0 1 0 1:-60 2:-71 3:-73 4:-65 5:-61 
-1 0 0 0 0 1 0 0 0 1 0 1:-60 2:-72 3:-73 4:-68 5:-59 
-0 0 0 0 0 1 0 0 0 0 0 1:-62 2:-60 3:-76 4:-66 5:-44 
-0 1 0 0 0 1 0 0 0 0 0 1:-62 2:-67 3:-70 4:-66 5:-45 
-1 0 0 0 0 1 0 0 0 0 0 1:-53 2:-68 3:-74 4:-64 5:-41 
-1 0 0 0 0 1 0 0 0 0 0 1:-50 2:-65 3:-77 4:-58 5:-43 
-0.8091676928385662 0 0 0 0 1 0 0 0 0 0 1:-54 2:-66 3:-74 4:-58 5:-45 
-1 0 0 0 0 1 0 0 0 1 0 1:-52 2:-71 3:-76 4:-62 5:-45 
-0 1 0 0 0 1 0 0 0 0 0 1:-65 2:-71 3:-68 4:-62 5:-45 
-1 1 0 0 1 1 0.4224837687726699 1 0 0 0 1:-55 2:-63 3:-67 4:-63 5:-56 
-0 0 0 0 0 1 0 0 0 0 0 1:-56 2:-64 3:-70 4:-65 5:-45 
-1 0 0 0 0 1 0 0 0 0 0 1:-57 2:-72 3:-72 4:-63 5:-46 
-1 1 0 1 1 1 1 1 1 1 0 1:-56 2:-70 3:-67 4:-63 5:-64 
-1 0 0 0 0 1 1 1 0 1 0 1:-49 2:-69 3:-69 4:-63 5:-65 
-1 0 0 0 0 1 0 0 0 1 0 1:-49 2:-80 3:-73 4:-63 5:-50 
-1 0 0 0 0 1 0 0 0 1 0 1:-51 2:-69 3:-73 4:-76 5:-64 
-1 0 0 0 0 1 0 0 0 1 0 1:-50 2:-70 3:-70 4:-66 5:-56 
-0 1 0 0 0 1 0 0 0 0 0 1:-70 2:-79 3:-69 4:-65 5:-49 
-0 1 0 0 1 1 0 0 0 0 0 1:-68 2:-64 3:-72 4:-65 5:-50 
-0 1 0 0 0 1 0 0 0 0 0 1:-67 2:-62 3:-73 4:-67 5:-42 
-0 0 0 0 0 1 0 0 0 0 0 1:-61 2:-74 3:-69 4:-66 5:-43 
-1 0 0 0 0 1 0 0 0 1 0 1:-57 2:-72 3:-74 4:-65 5:-60 
-1 1 0 0 0 1 1 1 1 1 0 1:-57 2:-76 3:-67 4:-61 5:-59 
-1 1 0 1 1 1 1 1 1 1 0 1:-59 2:-77 3:-68 4:-57 5:-61 
-0 1 1 1 1 1 1 1 1 0 0 1:-60 2:-62 3:-62 4:-68 5:-61 
-1 0.04966462058374282 1 0 0 1 1 0 0 1 0 1:-58 2:-64 3:-75 4:-71 5:-72 
-0 0 0 0 0 1 0 0 0 0 0 1:-62 2:-67 3:-73 4:-72 5:-50 
-1 1 1 1 1 0 1 1 1 1 0 1:-66 2:-66 3:-76 4:-67 5:-69 
-0 1 0 0 0 0 0 0 0 0 0 1:-67 2:-68 3:-75 4:-69 5:-56 
-0 1 0 0 0 1 0 1 1 0 0 1:-57 2:-69 3:-62 4:-69 5:-55 
-0 0 0 0 0 1 0 0 0 0 0 1:-57 2:-70 3:-70 4:-59 5:-47 
-0 0 0 0 0 1 0 0 0 0 0 1:-58 2:-69 3:-71 4:-60 5:-47 
-0 0 0 0 0 1 0 0 0 0 0 1:-58 2:-72 3:-73 4:-64 5:-46 
-0 0 0 0 0 1 0 0 0 0 0 1:-59 2:-68 3:-74 4:-61 5:-46 
-0 0 0 0 0 1 0 0 0 0 0 1:-58 2:-64 3:-73 4:-67 5:-50 
-1 0 0 0 0 0 0 0 0 1 0 1:-65 2:-76 3:-80 4:-68 5:-53 
-0 1 0 0 0 0 0 0 0 0 0 1:-69 2:-75 3:-72 4:-74 5:-54 
-0 1 0 0 1 0 0 1 1 0 0 1:-70 2:-74 3:-72 4:-61 5:-52 
-0 1 0 0 1 0 1 1 1 0 0 1:-70 2:-74 3:-73 4:-62 5:-55 
-0 1 1 0 1 1 0 1 0 0 0 1:-64 2:-64 3:-73 4:-64 5:-57 
-0 1 1 1 1 1 1 1 1 0 0 1:-66 2:-70 3:-66 4:-61 5:-55 
-0 1 1 1 1 1 1 1 1 0 0 1:-61 2:-67 3:-67 4:-62 5:-61 
-0 1 1 1 1 0 1 1 1 0 0 1:-68 2:-65 3:-73 4:-63 5:-59 
-0 1 1 1 1 1 1 1 1 0 0 1:-68 2:-63 3:-68 4:-62 5:-59 
-0 1 0 0 1 1 0 0 0 0 0 1:-65 2:-64 3:-69 4:-65 5:-48 
-1 1 1 1 1 1 1 1 1 0.9538020440145226 0 1:-58 2:-69 3:-63 4:-55 5:-68 
-0 1 0 0 0 1 0 0 1 0 0 1:-58 2:-68 3:-61 4:-63 5:-41 
-0 1 0 0 0 1 0 0 0 0 0 1:-59 2:-63 3:-69 4:-63 5:-42 
-0 0 0 0 0 1 0 0 0 0 0 1:-59 2:-67 3:-67 4:-66 5:-46 
-0 1 0 0 1 1 0 1 0 0 0 1:-61 2:-62 3:-68 4:-60 5:-46 
-0 1 1 1 1 1 0 1 1 0 0 1:-75 2:-62 3:-68 4:-65 5:-47 
-0 1 0 0 0 1 0 0 0 0 0 1:-68 2:-68 3:-71 4:-64 5:-42 
-0 1 0 0 1 1 0 0 0 0 0 1:-71 2:-64 3:-72 4:-63 5:-44 
-0 1 0 0 0 1 0 0 0 0 0 1:-64 2:-60 3:-73 4:-63 5:-42 
-0 1 1 1 1 1 0 1 1 0 0 1:-67 2:-69 3:-71 4:-64 5:-56 
-0 1 0 1 1 1 1 1 1 0 0 1:-61 2:-65 3:-71 4:-60 5:-57 
-0.1802791823772746 1 0 0 0 1 0 0 0 0 0 1:-61 2:-65 3:-75 4:-63 5:-56 
-1 1 0 0 0 1 0 0 0 1 0 1:-61 2:-69 3:-74 4:-65 5:-58 
-0 1 0 0 0 0 0 0 0 0 0 1:-68 2:-71 3:-74 4:-65 5:-55 
-0 1 0 0 1 1 0 1 1 0 0 1:-64 2:-69 3:-69 4:-63 5:-54 
-0 1 1 1 1 0 1 1 0 0 0 1:-68 2:-68 3:-75 4:-64 5:-61 
-0 1 1 1 1 1 0 1 1 0 0 1:-69 2:-67 3:-68 4:-66 5:-54 
-0 1 0 0 1 1 0 0 0 0 0 1:-67 2:-66 3:-68 4:-66 5:-46 
-1 1 0 0 0 0 0 0 0 1 0 1:-62 2:-70 3:-75 4:-62 5:-57 
-0 1 0 0 0 1 0 0 0 0 0 1:-61 2:-69 3:-70 4:-65 5:-49 
-0 0 0 0 0 1 0 0 0 0 0 1:-61 2:-72 3:-72 4:-66 5:-51 
-1 1 0 0 1 1 1 1 0 0 0 1:-61 2:-69 3:-74 4:-58 5:-54 
-0 1 0 0 0 0 0 0 0 0 0 1:-65 2:-67 3:-74 4:-65 5:-47 
-0 1 0 0 1 1 0 1 0 0 0 1:-66 2:-67 3:-69 4:-61 5:-46 
-0 1 0 0 0 1 0 0 0 0 0 1:-59 2:-69 3:-68 4:-61 5:-49 
-0 1 1 1 1 1 1 1 1 0 0 1:-64 2:-60 3:-64 4:-59 5:-49 
-0 1 0 0 1 1 0 0 0 0 0 1:-64 2:-64 3:-74 4:-58 5:-48 
-0 1 0 0 0 0 0 0 0 0 0 1:-65 2:-59 3:-76 4:-67 5:-47 
-0 1 0 0 0 0 0 0 0 0 0 1:-72 2:-72 3:-75 4:-68 5:-45 
-0 1 0 0 0 0 0 0 0 0 0 1:-72 2:-71 3:-73 4:-71 5:-46 
-0 1 0 0 0 1 0 0 1 0 0 1:-73 2:-75 3:-67 4:-71 5:-50 
-0 1 0 0 1 1 0 1 1 0 0 1:-73 2:-77 3:-65 4:-70 5:-54 
-1 1 1 0 0 0 1 0 0 1 0 1:-63 2:-67 3:-79 4:-66 5:-68 
-0 1 0 1 1 1 1 1 1 0 0 1:-58 2:-59 3:-66 4:-61 5:-55 
-0 1 1 1 1 1 1 1 1 0 0 1:-57 2:-60 3:-64 4:-60 5:-57 
-0 1 0 0 1 1 0 1 0 0 0 1:-60 2:-71 3:-68 4:-60 5:-51 
-0 1 0 0 0 1 0 0 0 0 0 1:-63 2:-70 3:-65 4:-68 5:-43 
-0 1 1 1 1 1 0 1 1 0 0 1:-64 2:-60 3:-68 4:-62 5:-51 
-0 1 0 0 0 1 0 0 0 0 0 1:-61 2:-62 3:-76 4:-62 5:-54 
-1 0 0 0 0 1 0 0 0 0 0 1:-59 2:-68 3:-73 4:-66 5:-53 
-1 1 0 0 0 1 0 0 0 1 0 1:-59 2:-70 3:-73 4:-63 5:-56 
-0 1 0 1 1 1 0 1 1 0 0 1:-68 2:-72 3:-64 4:-69 5:-56 
-0 1 0 0 0 1 0 0 0 0 0 1:-68 2:-72 3:-67 4:-70 5:-51 
-0 1 0 0 0 1 0 0 0 0 0 1:-70 2:-72 3:-67 4:-73 5:-50 
-0 0 0 0 0 1 0 0 0 0 0 1:-56 2:-65 3:-73 4:-64 5:-46 
-0 1 0 0 1 1 0 1 0 0 0 1:-64 2:-64 3:-67 4:-65 5:-48 
-0 1 0 0 0 1 0 0 0 0 0 1:-64 2:-64 3:-65 4:-67 5:-40 
-0 1 0 1 1 1 1 1 1 0 0 1:-65 2:-68 3:-67 4:-56 5:-45 
-0 0 0 0 0 1 0 0 0 0 0 1:-59 2:-68 3:-66 4:-66 5:-45 
-0 1 0 0 0 1 0 0 0 0 0 1:-60 2:-70 3:-66 4:-66 5:-52 
-0 1 0 0 1 1 0 0 0 0 0 1:-65 2:-62 3:-64 4:-71 5:-45 
-0 1 0 0 1 1 0 1 0 0 0 1:-60 2:-64 3:-67 4:-61 5:-48 
-0 1 0 0 0 1 0 0 0 0 0 1:-66 2:-65 3:-72 4:-63 5:-46 
-0 1 0 0 0 1 0 0 0 0 0 1:-62 2:-64 3:-72 4:-63 5:-47 
-0 1 1 1 1 1 1 1 1 0 0 1:-61 2:-69 3:-68 4:-55 5:-58 
-0 1 1 1 1 1 1 1 1 0 0 1:-67 2:-74 3:-69 4:-55 5:-56 
-0 1 1 1 1 1 1 1 1 0 0 1:-70 2:-63 3:-72 4:-64 5:-56 
-0 1 0 0 0 1 0 0 0 0 0 1:-69 2:-69 3:-72 4:-65 5:-42 
-0 0 0 0 0 1 0 0 0 0 0 1:-59 2:-78 3:-73 4:-64 5:-39 
-0 0 0 0 0 1 0 0 0 0 0 1:-58 2:-71 3:-73 4:-57 5:-45 
-0 1 0 0 0 1 0 0 0 0 0 1:-66 2:-73 3:-72 4:-57 5:-45 
-0 1 1 1 1 0 1 1 0 0 0 1:-69 2:-67 3:-78 4:-58 5:-55 
-0 1 0 0 0 0 0 0 0 0 0 1:-70 2:-69 3:-80 4:-67 5:-50 
-0 1 0 0 0 1 0 0 0 0 0 1:-65 2:-72 3:-66 4:-67 5:-49 
-0 1 0 0 1 1 0 0 0 0 0 1:-65 2:-63 3:-68 4:-67 5:-48 
-0 1 0 0 0 1 0 0 0.897939284986868 0 0 1:-70 2:-72 3:-67 4:-69 5:-48 
-0 1 0 0 0 0 0 0 0 0 0 1:-66 2:-73 3:-77 4:-63 5:-48 
-0 1 0 0 1 1 0 0 0 0 0 1:-67 2:-69 3:-71 4:-64 5:-49 
-0 1 1 0 1 0 0 0 0 0 0 1:-73 2:-65 3:-75 4:-61 5:-45 
-0 1 1 1 1 1 0 1 1 0 0 1:-73 2:-70 3:-69 4:-60 5:-48 
-0 1 1 1 1 1 0 1 1 0 0 1:-68 2:-65 3:-67 4:-68 5:-53 
-0 1 0 0 1 1 0 0 0 0 0 1:-66 2:-66 3:-69 4:-68 5:-50 
-0 1 0 0 0 0 0 0 0 0 0 1:-70 2:-67 3:-77 4:-69 5:-45 
-0 1 0 0 1 1 0 0 0 0 0 1:-63 2:-68 3:-70 4:-63 5:-51 
-0 -0 1 1 1 0 1 1 1 0 0 1:-70 2:-64 3:-70 4:-60 5:-63 
-0 -0 1 1 1 0 1 1 1 0 0 1:-71 2:-64 3:-71 4:-61 5:-63 
-0 -0 1 1 1 0 0 1 1 0 0 1:-77 2:-73 3:-74 4:-65 5:-63 
-0 -0 1 1 1 0 1 1 1 0 0 1:-74 2:-73 3:-73 4:-64 5:-64 
-1 -1 0 0 0 0 1 0 0 1 0 1:-66 2:-71 3:-79 4:-65 5:-63 
-0 -0 0 1 1 1 1 1 1 0 0 1:-65 2:-67 3:-66 4:-57 5:-51 
-1 -1 0 0 0 1 0 0 0 1 0 1:-66 2:-72 3:-77 4:-72 5:-60 
-0 -0 1 1 1 0 1 1 1 0 0 1:-77 2:-70 3:-76 4:-58 5:-68 
-1 -1 0 0 0 0 1 0 0 1 0 1:-65 2:-72 3:-79 4:-60 5:-58 
-0 -1 1 1 1 0 0 0 0 0 0 1:-70 2:-66 3:-77 4:-63 5:-60 
-1 -1 0 0 0 1 0 0 0 1 0 1:-56 2:-70 3:-70 4:-60 5:-47 
-0 -1 0 0 1 1 0 0 0 0 0 1:-60 2:-59 3:-66 4:-61 5:-46 
-0 -1 1 1 1 1 0 1 1 0 0 1:-61 2:-55 3:-62 4:-61 5:-47 
-0 -0 1 1 1 0 0 1 1 0 0 1:-71 2:-56 3:-62 4:-61 5:-50 
-0 -1 0 0 1 1 0 1 0 0 0 1:-64 2:-64 3:-65 4:-62 5:-48 
-0 -0 1 1 1 0 1 1 1 0 0 1:-68 2:-59 3:-65 4:-54 5:-51 
-0 -0 1 1 1 0 1 1 1 0 0 1:-68 2:-61 3:-60 4:-53 5:-53 
-0 -1 0 0 0 0 0 0 0 0 0 1:-68 2:-70 3:-72 4:-63 5:-54 
-0 -0 0 0 1 1 0 0 0 0 0 1:-69 2:-61 3:-62 4:-66 5:-44 
-0 -0 1 1 1 0 0 1 1 0 0 1:-69 2:-64 3:-64 4:-60 5:-53 
-0 -0 0 0 1 0 0 1 0 0 0 1:-73 2:-63 3:-65 4:-51 5:-39 
-0 -1 0 0 1 1 0 0 0 0 0 1:-65 2:-57 3:-66 4:-60 5:-41 
-0 -1 0 0 1 1 0 0 0 0 0 1:-65 2:-56 3:-66 4:-57 5:-37 
-0 -1 0 0 0 1 0 0 0 0 0 1:-67 2:-64 3:-71 4:-59 5:-43 
-0 -1 0 0 1 0 0 0 0 0 0 1:-69 2:-65 3:-69 4:-59 5:-46 
-0 -0 1 1 1 0 0 0 0 0 0 1:-70 2:-53 3:-69 4:-64 5:-51 
-0 -1 1 0 1 1 0 0 0 0 0 1:-60 2:-53 3:-71 4:-59 5:-46 
-0 -1 1 1 1 1 0 1 0 0 0 1:-60 2:-53 3:-63 4:-59 5:-44 
-0 -1 0 0 0 1 0 0 0 0 0 1:-61 2:-67 3:-72 4:-58 5:-50 
-0 -0 1 1 1 0 1 1 1 0 0 1:-70 2:-67 3:-70 4:-57 5:-65 
-0 -1 0 1 1 1 1 1 0 0 0 1:-63 2:-63 3:-71 4:-58 5:-53 
-0 -0 1 1 1 0 1 1 1 0 0 1:-65 2:-63 3:-71 4:-59 5:-62 
-0 -1 0 0 1 1 0 0 0 0 0 1:-65 2:-63 3:-70 4:-62 5:-51 
-0 -1 1 1 1 1 0 1 1 0 0 1:-69 2:-66 3:-68 4:-70 5:-60 
-0 -0 1 1 1 0 0 1 1 0 0 1:-69 2:-60 3:-68 4:-68 5:-60 
-0 -0 1 1 1 0 0 1 1 0 0 1:-73 2:-67 3:-64 4:-64 5:-56 
-0 -0 1 1 1 0 1 1 1 0 0 1:-66 2:-68 3:-65 4:-51 5:-57 
-0 -0 1 1 1 0 1 1 1 0 0 1:-68 2:-71 3:-69 4:-63 5:-66 
-1 -1 0 1 1 1 1 1 0 1 0 1:-58 2:-66 3:-72 4:-64 5:-61 
-0 -0 1 1 1 0 1 1 1 0 0 1:-58 2:-58 3:-72 4:-46 5:-64 
-0 -1 0 1 1 0 1 1 0 0 0 1:-60 2:-64 3:-75 4:-50 5:-56 
-1 -0 1 1 1 0 1 1 1 1 0 1:-62 2:-64 3:-74 4:-60 5:-77 
-0 -0 1 1 1 0 1 1 1 0 0 1:-63 2:-65 3:-70 4:-59 5:-68 
-0 -1 0 0 0.7880325263262455 1 0 0 0 0 0 1:-67 2:-65 3:-70 4:-59 5:-46 
-0 -1 0 0 1 1 0 0 0 0 0 1:-66 2:-65 3:-68 4:-62 5:-48 
-0 -0 0 1 1 1 0 1 1 0 0 1:-61 2:-56 3:-60 4:-58 5:-45 
-0 -1 0 0 1 1 1 1 0 0 0 1:-64 2:-65 3:-71 4:-57 5:-50 
-0 -0 1 0 1 0 0 0 0 0 0 1:-74 2:-58 3:-72 4:-60 5:-48 
-0 -0 1 1 1 0 0 0 0 0 0 1:-76 2:-58 3:-72 4:-60 5:-50 
-0 -0 1 1 1 0 0 1 0 0 0 1:-74 2:-64 3:-70 4:-61 5:-55 
-0 -0 1 1 1 0 1 1 1 0 0 1:-74 2:-65 3:-68 4:-59 5:-56 
-0 -1 1 1 1 1 1 1 1 0 0 1:-65 2:-71 3:-68 4:-64 5:-64 
-0 -0 1 1 1 0 1 1 1 0 0 1:-68 2:-68 3:-68 4:-64 5:-64 
-0 -1 1 1 1 0 1 1 0 0 0 1:-67 2:-68 3:-73 4:-63 5:-60 
-0 -1 0 0 1 1 0 1 0 0 0 1:-65 2:-69 3:-71 4:-65 5:-58 
-0 -1 1 1 1 0 0 1 1 0 0 1:-69 2:-71 3:-72 4:-67 5:-64 
-0 -0 1 1 1 1 1 1 1 0 0 1:-60 2:-60 3:-63 4:-58 5:-60 
-0 -1 0 0 1 1 0 1 0 0 0 1:-65 2:-64 3:-64 4:-58 5:-44 
-0 -1 0 0 0 1 0 1 0 0 0 1:-65 2:-69 3:-64 4:-58 5:-43 
-0 -1 0 0 0 1 0 0 0 0 0 1:-62 2:-64 3:-72 4:-59 5:-49 
-0 -1 0 0 1 1 0 1 1 0 0 1:-62 2:-59 3:-64 4:-64 5:-49 
-0 -0 1 1 1 0 1 1 1 0 0 1:-70 2:-63 3:-70 4:-55 5:-66 
-0 -1 0 0 0 0 0 0 0 0 0 1:-70 2:-70 3:-72 4:-66 5:-53 
-0 -0 1 1 1 0 1 1 1 0 0 1:-68 2:-69 3:-71 4:-58 5:-62 
-0 -0 1 1 1 0 1 1 1 0 0 1:-75 2:-64 3:-68 4:-58 5:-65 
-1 -1 0 0 0 1 0 0 0 0 0 1:-64 2:-70 3:-74 4:-67 5:-47 
-0 -1 0 0 0 1 0 0 0 0 0 1:-65 2:-69 3:-70 4:-61 5:-46 
-1 -1 0 0 0 1 0 0 0 1 0 1:-59 2:-71 3:-73 4:-61 5:-47 
-1 -1 0 0 0 1 0 0 0 1 0 1:-61 2:-71 3:-73 4:-63 5:-49 
-0 -1 0 0 0 1 0 1 1 0 0 1:-65 2:-75 3:-68 4:-64 5:-55 
-0 -1 0 0 0 1 0 0 0 0 0 1:-65 2:-76 3:-70 4:-63 5:-51 
-0 -1 1 0 1 1 0 0 0 0 0 1:-63 2:-60 3:-72 4:-63 5:-52 
-0 -1 1 1 1 1 1 1 0 0 0 1:-61 2:-58 3:-72 4:-66 5:-62 
-0 -0 1 1 1 0 1 1 1 0 0 1:-68 2:-57 3:-66 4:-62 5:-62 
-0 -1 0 0 1 0 0 0 0 0 0 1:-69 2:-65 3:-71 4:-66 5:-52 
-0 -1 0 0 0 1 0 0 0 0 0 1:-60 2:-70 3:-71 4:-58 5:-45 
-0 -1 0 0 1 1 0 1 1 0 0 1:-64 2:-68 3:-64 4:-59 5:-45 
-0 -0 0 1 1 1 1 1 1 0 0 1:-66 2:-69 3:-56 4:-53 5:-51 
-0 -0 0 0 1 1 0 1 1 0 0 1:-68 2:-69 3:-60 4:-63 5:-50 
-0 -0 0 0 1 1 0 1 1 0 0 1:-65 2:-70 3:-56 4:-60 5:-47 
-0 -0.1377495449412208 0 0 1 1 0 1 1 0 0 1:-68 2:-76 3:-65 4:-58 5:-51 
-0 -0 1 1 1 1 0 1 1 0 0 1:-69 2:-65 3:-59 4:-62 5:-51 
-0 -0 0 1 1 1 0 1 1 0 0 1:-68 2:-69 3:-62 4:-63 5:-55 
-0 -0 0 0 1 0 0.4836555823199837 1 0 0 0 1:-70 2:-71 3:-68 4:-53 5:-46 
-0 -1 0 0 1 1 0 0.4781570797557029 1 0 0 1:-68 2:-70 3:-65 4:-65 5:-51 
-0 -0 0 0 1 1 0 1 1 0 0 1:-68 2:-70 3:-58 4:-61 5:-46 
-0 -0 0 1 1 1 1 1 1 0 0 1:-64 2:-71 3:-58 4:-62 5:-56 
-0 -0 1 1 1 0 0.9227600722423879 1 1 0 0 1:-73 2:-68 3:-64 4:-62 5:-57 
-0 -0 0 0 1 0 0 0 0 0 0 1:-74 2:-72 3:-71 4:-62 5:-55 
-0 -1 0 0 0 0.786872473147222 0 0 0 0 0 1:-71 2:-73 3:-71 4:-68 5:-56 
-0 -1 0 0 0.4702332377547156 1 0 0 1 0 0 1:-73 2:-74 3:-68 4:-69 5:-55 
-0 -0 1 1 1 1 1 1 1 0 0 1:-53 2:-59 3:-56 4:-46 5:-58 
-0 -0 1 1 1 0.5799596081861706 1 1 1 0 0 1:-66 2:-61 3:-53 4:-48 5:-55 
-0 -0 0 1 1 1 1 1 1 0 0 1:-58 2:-69 3:-54 4:-46 5:-54 
-1 -1 0 0 0 1 0 0 0 0 0 1:-58 2:-68 3:-70 4:-60 5:-50 
-0 -1 0 0 0 1 0 1 0 0 0 1:-65 2:-70 3:-69 4:-59 5:-50 
-0 -1 0 0 0 1 0 0 0 0 0 1:-66 2:-68 3:-72 4:-58 5:-49 
-0 -0 0 0 1 1 0 1 1 0 0 1:-70 2:-70 3:-57 4:-64 5:-43 
-0 -1 0 0 0 1 0 0 0 0 0 1:-64 2:-66 3:-69 4:-64 5:-51 
-1 -1 0 0 0 1 0 0 0 1 0 1:-57 2:-65 3:-71 4:-64 5:-47 
-1 -1 0 0 0 1 0 0 0 0 0 1:-60 2:-73 3:-66 4:-63 5:-47 
-1 -1 0 0 1 1 0 1 1 0 0 1:-65 2:-76 3:-66 4:-67 5:-60 
-0 -1 1 1 1 0 0 1 1 0 0 1:-69 2:-68 3:-68 4:-70 5:-65 
-0 -1 1 1 1 1 0 1 1 0 0 1:-63 2:-64 3:-68 4:-67 5:-57 
-1 -1 1 1 1 1 1 1 1 1 0 1:-64 2:-73 3:-70 4:-66 5:-68 
-1 -1 1 1 1 1 1 1 1 0.7698203874522054 0 1:-66 2:-72 3:-72 4:-64 5:-66 
-1 -1 0 0 0 1 0 1 1 1 0 1:-66 2:-76 3:-71 4:-69 5:-64 
-1 -1 0 0 1 1 0 1 1 1 0 1:-66 2:-75 3:-69 4:-67 5:-62 
-0 -1 0 0 0 0 0 0 0 0 0 1:-67 2:-71 3:-74 4:-57 5:-48 
-0 -1 1 1 1 1 0 1 1 0 0 1:-67 2:-71 3:-70 4:-68 5:-63 
-1 -1 0 0 0 1 0 0 0 1 0 1:-63 2:-69 3:-73 4:-69 5:-61 
-0 -1 0 0 0 1 0 0 0 0 0 1:-65 2:-67 3:-69 4:-71 5:-52 
-0.9739042741118865 -1 0 0 0 1 0 0 1 1 0 1:-64 2:-70 3:-70 4:-68 5:-58 
-1 -1 0 0 0 1 0 0 0 1 0 1:-65 2:-71 3:-72 4:-69 5:-59 
-1 -1 0 0 1 1 0 0 1 1 0 1:-64 2:-69 3:-71 4:-68 5:-60 
-0 -1 1 0 0 1 0 0 0 1 0 1:-67 2:-69 3:-74 4:-69 5:-61 
-0 -1 1 1 1 0 1 1 1 0 0 1:-68 2:-73 3:-70 4:-66 5:-68 
-0 -1 1 1 1 0 0 1 1 0 0 1:-69 2:-67 3:-69 4:-72 5:-67 
-0 -1 1 0 1 0 0 0 0 0 0 1:-70 2:-69 3:-73 4:-72 5:-62 
-0 -1 1 1 1 0 0 0 0 1 0 1:-66 2:-63 3:-74 4:-73 5:-65 
-1 -1 0 0 0 0 0 0 0 1 0 1:-71 2:-75 3:-75 4:-74 5:-64 
-0 -1 0 0 0 0 0 0 0 0 0 1:-71 2:-75 3:-74 4:-67 5:-58 
-0 -1 1 0 1 0 0 0 0 0 0 1:-73 2:-70 3:-74 4:-66 5:-58 
-1 -1 0 0 0 1 1 0 0 1 0 1:-62 2:-69 3:-77 4:-66 5:-63 
-1 -1 0 0 0 1 0 0 0 1 0 1:-65 2:-78 3:-77 4:-67 5:-61 
-0 -0 0 1 1 1 1 1 1 0 0 1:-67 2:-79 3:-57 4:-52 5:-62 
-0 -0 1 1 1 0 1 1 1 0 0 1:-74 2:-80 3:-61 4:-53 5:-64 
-0 -0 1 1 1 0 1 1 0 0 0 1:-74 2:-65 3:-67 4:-53 5:-49 
-0 -0 1 1 1 0 1 1 0 0 0 1:-68 2:-63 3:-76 4:-61 5:-67 
-1 -1 1 0 0 0 0 0 0 1 0 1:-71 2:-72 3:-79 4:-70 5:-62 
-1 -1 0 0 0 1 0 0 1 1 0 1:-60 2:-69 3:-69 4:-72 5:-60 
-1 -1 0 0 0 1 0 0 0 1 0 1:-59 2:-65 3:-77 4:-72 5:-63 
-0 -1 1 1 1 0 0 0 0 0 0 1:-68 2:-59 3:-77 4:-72 5:-62 
-1 -1 1 1 1 1 0 0 0 1 0 1:-64 2:-65 3:-77 4:-74 5:-71 
-0 -1 1 0 1 0 0 0 0 0 0 1:-73 2:-65 3:-76 4:-72 5:-61 
-0 -1 1 0 1 0 0 0 0 0 0 1:-74 2:-67 3:-75 4:-74 5:-61 
-0 -1 0 0.7303654786070465 1 1 0 1 1 0 0 1:-63 2:-60 3:-58 4:-63 5:-45 
-0 -0 1 1 1 1 0 1 1 0 0 1:-67 2:-54 3:-57 4:-67 5:-51 
-0 -1 1 0 1 1 0 0 0 0 0 1:-68 2:-54 3:-65 4:-72 5:-50 
-1 -1 0 0 0 0 0 0 0 1 0 1:-68 2:-69 3:-77 4:-71 5:-58 
-1 -1 0 0 0 1 0 1 1 1 0 1:-67 2:-76 3:-73 4:-73 5:-68 
-0 -1 0 0 0 0 0 0 0 0 0 1:-67 2:-68 3:-74 4:-67 5:-58 
-0 -1 0 1 1 1 0 1 1 0 0 1:-64 2:-70 3:-60 4:-65 5:-56 
-1 -1 1 1 1 1 1 1 1 0 0 1:-64 2:-71 3:-70 4:-62 5:-63 
-1 -1 1 1 1 0 1 1 1 1 0 1:-69 2:-73 3:-75 4:-63 5:-72 
-0 -1 1 0 1 0 0 0 0 0 0 1:-70 2:-67 3:-72 4:-64 5:-57 
-0 -1 1 1 1 0 0 1 1 0 0 1:-70 2:-71 3:-72 4:-66 5:-63 
-0 -1 1 1 1 0 1 1 0 0 0 1:-67 2:-65 3:-74 4:-66 5:-63 
-0 -1 1 1 1 0 1 1 0 0 0 1:-67 2:-66 3:-73 4:-65 5:-62 
-0 -0 1 1 1 0 0 1 1 0 0 1:-72 2:-69 3:-73 4:-65 5:-62 
-0 -1 0 0 0 0 0 0 0 0 0 1:-73 2:-69 3:-73 4:-64 5:-50 
-0 -1 0 0 1 1 0 1 1 0 0 1:-60 2:-64 3:-65 4:-63 5:-50 
-0 -1 0 0 1 1 0 0 1 0 0 1:-63 2:-63 3:-62 4:-75 5:-52 
-0 -1 0 0 1 1 0 1 1 0 0 1:-62 2:-66 3:-63 4:-62 5:-49 
-1 -1 0 0.3712725960243077 1 1 1 1 1 0 0 1:-63 2:-74 3:-68 4:-60 5:-58 
-0 -1 0 1 1 1 1 1 1 0 0 1:-63 2:-68 3:-65 4:-61 5:-57 
-0 -0 1 1 1 0 1 1 0.1648188481221381 0 0 1:-72 2:-70 3:-72 4:-57 5:-58 
-0 -0 1 1 1 0 1 0 0 0 0 1:-72 2:-61 3:-78 4:-60 5:-61 
-0 -0 1 1 1 0 1 0 0 0 0 1:-75 2:-62 3:-78 4:-61 5:-62 
-0 -1 1 1 1 0 1 1 0 0 0 1:-67 2:-60 3:-78 4:-62 5:-63 
-0 -1 1 1 1 0 0 0 0 0 0 1:-68 2:-60 3:-74 4:-70 5:-64 
-0 -1 0 0 0 0 0 0 0 0 0 1:-73 2:-71 3:-71 4:-73 5:-57 
-1 -1 0 0 0 1 0 0 0 1 0 1:-67 2:-70 3:-72 4:-78 5:-61 
-1 -1 1 1 1 0 1 1 0 0 0 1:-66 2:-69 3:-75 4:-64 5:-63 
-0 -1 1 1 1 0 0 1 1 0 0 1:-71 2:-70 3:-70 4:-69 5:-63 
-0 -1 0.886806269964889 0 0 1 0 0 0 1 0 1:-70 2:-70 3:-74 4:-74 5:-60 
-0 -0 1 1 1 0 0 1 1 0 0 1:-70 2:-60 3:-65 4:-74 5:-66 
-0 -1 0 0 0 1 0 0 1 0 0 1:-63 2:-72 3:-65 4:-70 5:-51 
-0 -1 1 1 1 1 1 1 1 0 0 1:-63 2:-65 3:-67 4:-63 5:-62 
-0 -1 0 0 1 1 0 1 1 0 0 1:-63 2:-65 3:-63 4:-63 5:-50 
-1 -1 0 0 0 1 1 0 0 1 0 1:-61 2:-67 3:-74 4:-63 5:-58 
-0 -1 1 1 1 1 0 1 1 0 0 1:-65 2:-67 3:-68 4:-65 5:-59 
-1 -1 0 0 0 1 0 0 0 0 0 1:-62 2:-75 3:-71 4:-60 5:-41 
-0 -0 0 0 1 0 0 0 0 0 0 1:-74 2:-70 3:-66 4:-64 5:-46 
-0 -0 1 0 1 0 0 0 0 0 0 1:-77 2:-61 3:-69 4:-61 5:-47 
-0 -0 1 1 1 0 0 0 0 0 0 1:-69 2:-59 3:-69 4:-59 5:-48 
-0 -0 1 0 1 0 0 0 0 0 0 1:-76 2:-60 3:-70 4:-65 5:-49 
-0 -0 1 0 1 0 0 0 0 0 0 1:-76 2:-62 3:-72 4:-65 5:-46 
-0 -0.76481426828487 1 1 1 0 0 0 0 0 0 1:-70 2:-60 3:-73 4:-65 5:-58 
-0 -0 1 0 1 0 0 0 0 0 0 1:-75 2:-68 3:-73 4:-65 5:-58 
-0 -1 1 0 1 0 0 0 0 0 0 1:-72 2:-64 3:-70 4:-66 5:-52 
-0 -0 0 1 1 1 1 1 1 0 0 1:-63 2:-65 3:-53 4:-51 5:-45 
-0 -0 0 0 1 1 0.7583697189648058 1 1 0 0 1:-66 2:-80 3:-52 4:-57 5:-46 
-0 -0 0 1 1 1 0 1 1 0 0 1:-67 2:-63 3:-54 4:-59 5:-45 
-0 -0 1 1 1 1 1 1 1 0 0 1:-65 2:-58 3:-59 4:-57 5:-49 
-0 -0 1 1 1 1 1 1 1 0 0 1:-66 2:-64 3:-67 4:-59 5:-54 
-0 -1 1 1 1 1 1 1 1 0 0 1:-65 2:-63 3:-67 4:-61 5:-54 
-0 -1 0 0 1 1 0 1 0 0 0 1:-64 2:-67 3:-67 4:-57 5:-48 
-0 -1 0 0 0 1 1 1 0 0 0 1:-59 2:-67 3:-68 4:-57 5:-49 
-0 -1 0 0 1 1 0 1 0 0 0 1:-62 2:-59 3:-65 4:-58 5:-44 
-1 -1 0 0 0 1 0 0 0 1 0 1:-62 2:-73 3:-71 4:-68 5:-54 
-0 -0 0 1 1 1 1 1 1 0 0 1:-64 2:-65 3:-61 4:-62 5:-54 
-0 -1 0 0 1 1 0 0 1 0 0 1:-67 2:-65 3:-66 4:-67 5:-53 
-1 -1 0 0 0 1 0 0 0 1 0 1:-61 2:-67 3:-72 4:-68 5:-52 
-0 -1 0 1 1 1 1 1 1 0 0 1:-60 2:-66 3:-68 4:-64 5:-58 
-0 -1 0 0 0 1 0 0 0 0 0 1:-61 2:-64 3:-70 4:-64 5:-50 
-0 -1 0 0 0 1 0 1 0 0 0 1:-64 2:-72 3:-68 4:-57 5:-48 
-0 -1 0 0 1 1 0 0 1 0 0 1:-62 2:-60 3:-62 4:-67 5:-48 
-0 -1 0 0 1 1 1 0 0 0 0 1:-61 2:-61 3:-73 4:-58 5:-52 
-0 -0 1 0 1 0 0 0 0 0 0 1:-72 2:-63 3:-73 4:-61 5:-52 
-0 -0 0 0 1 0 0 1 1 0 0 1:-77 2:-73 3:-62 4:-58 5:-49 
-0 -0 0 0 1 1 0 1 1 0 0 1:-68 2:-68 3:-65 4:-59 5:-49 
-0 -0 1 1 1 1 0 1 1 0 0 1:-71 2:-71 3:-65 4:-69 5:-64 
-0 -0 1 1 1 0 1 1 1 0 0 1:-79 2:-67 3:-66 4:-64 5:-64 
-0 -1 0 0 1 0 0 0 0 0 0 1:-71 2:-70 3:-74 4:-63 5:-56 
-0 -1 1 0 1 0 0 0 0 0 0 1:-69 2:-69 3:-75 4:-66 5:-62 
-0 -1 1 1 1 0 0 0 0 0 0 1:-71 2:-64 3:-72 4:-67 5:-59 
-0 -0 1 1 1 0 1 1 1 0 0 1:-71 2:-65 3:-73 4:-64 5:-66 
-0 -1 0 0 0 1 0 0 0 0 0 1:-69 2:-68 3:-72 4:-64 5:-42 
-0 -0 0 0 1 1 0 1 1 0 0 1:-67 2:-69 3:-58 4:-59 5:-45 
-0 -0 0 1 1 1 1 1 1 0 0 1:-67 2:-69 3:-58 4:-60 5:-54 
-0 -1 0 0 1 1 0 1 1 0 0 1:-66 2:-72 3:-61 4:-60 5:-47 
-0 -0 1 1 1 0 1 1 1 0 0 1:-71 2:-62 3:-67 4:-50 5:-52 
-0 -0 1 1 1 1 1 1 0 0 0 1:-60 2:-61 3:-68 4:-48 5:-52 
-0 -1 0 1 1 1 1 1 1 0 0 1:-61 2:-68 3:-68 4:-62 5:-61 
-0 -1 0 0 1 1 0 1 0 0 0 1:-62 2:-64 3:-70 4:-63 5:-54 
-0 -1 0 0 1 1 0 0 0 0 0 1:-67 2:-65 3:-72 4:-66 5:-54 
-0 -1 1 1 1 1 0 0 0 0 0 1:-61 2:-55 3:-71 4:-71 5:-57 
-1 -1 0 0 0 1 0 0 0 1 0 1:-59 2:-68 3:-72 4:-71 5:-59 
-0 -1 0 0 0 1 0 0 0 0 0 1:-61 2:-69 3:-72 4:-57 5:-45 
-0 -0 1 1 1 1 0 1 1 0 0 1:-66 2:-54 3:-59 4:-70 5:-48 
-0 -0 1 1 1 1 0 1 1 0 0 1:-65 2:-54 3:-59 4:-57 5:-46 
-0 -0.2156259092737497 0 0 1 0 0 0 0 0 0 1:-66 2:-57 3:-69 4:-57 5:-43 
-0 -1 0 0 1 0 0 0 0 0 0 1:-63 2:-56 3:-71 4:-51 5:-41 
-0 -0 1 1 1 0 1 1 1 0 0 1:-69 2:-62 3:-59 4:-56 5:-49 
-1 -1 1 0.1912662752254772 1 0 1 0 0 1 0 1:-63 2:-63 3:-79 4:-64 5:-61 
-0 -1 1 1 1 0 1 1 1 0 0 1:-67 2:-66 3:-70 4:-65 5:-61 
-0 -1 1 1 1 0.3570272682264987 0 1 1 0 0 1:-67 2:-65 3:-69 4:-66 5:-60 
-0 -1 0 0 0 1 0 0 0 0 0 1:-66 2:-68 3:-70 4:-68 5:-48 
-0 -1 0 0 0 1 0 0 0 0 0 1:-68 2:-70 3:-71 4:-56 5:-43 
-0 -1 0 0 0 1 0 0 0 0 0 1:-65 2:-66 3:-76 4:-67 5:-42 
-0 -0 0 0 1 0 0 0 0 0 0 1:-80 2:-70 3:-68 4:-56 5:-42 
-0 -1 0 0 0 1 0 0 0 0 0 1:-65 2:-67 3:-69 4:-54 5:-42 
-0 -0 0 0 1 0 0 0 0 0 0 1:-71 2:-71 3:-68 4:-56 5:-46 
-0 -1 0 0 0 0 0 0 0 0 0 1:-70 2:-69 3:-72 4:-56 5:-40 
-0 -0 1 0 1 0 0 0 0 0 0 1:-74 2:-69 3:-72 4:-60 5:-54 
-0 -1 0 0 0 0 0 0 0 0 0 1:-72 2:-73 3:-72 4:-60 5:-51 
-0 -1 0 0 0 0 0 0 0 0 0 1:-71 2:-73 3:-73 4:-63 5:-51 
-0 -1 0 0 0 1 0 1 1 0 0 1:-69 2:-74 3:-67 4:-59 5:-50 
-0 -0 1 0 1 0 0 0 1 0 0 1:-75 2:-68 3:-68 4:-64 5:-54 
-0 -1 0 0 0 1 0 0 0 0 0 1:-66 2:-76 3:-68 4:-65 5:-44 
-0 -1 0 0 0 1 0 0 0 0 0 1:-66 2:-69 3:-68 4:-64 5:-47 
-0 -0 0 0 1 1 0 0 0 0 0 1:-72 2:-67 3:-64 4:-62 5:-44 
-0 -1 0 0 1 1 0 1 0 0 0 1:-63 2:-63 3:-70 4:-60 5:-52 
-0 -1 0 0 0 1 0 0 0 0 0 1:-64 2:-67 3:-66 4:-59 5:-40 
-0 -1 0 0 0 1 0 0 0 0 0 1:-66 2:-68 3:-67 4:-64 5:-45 
-0 -1 0 0 0 1 0 0 0 0 0 1:-68 2:-69 3:-68 4:-67 5:-47 
-0 -1 0 0 0 0 0 0 0 0 0 1:-71 2:-67 3:-80 4:-66 5:-43 
-0 -1 1 0 1 0 0 0 0 0 0 1:-69 2:-66 3:-72 4:-68 5:-55 
-0 -0 1 0.9882315442323636 1 0 0 0 0 0 0 1:-75 2:-67 3:-73 4:-61 5:-55 
-0 -0 0 0 1 1 0 1 1 0 0 1:-74 2:-74 3:-62 4:-64 5:-50 
-0 -1 0 0 0 0 0 0 0 0 0 1:-74 2:-77 3:-70 4:-67 5:-51 
-0 -1 0 0 0 1 0 0 0 0 0 1:-63 2:-60 3:-69 4:-63 5:-41 
-0 -1 1 0 1 0 0 0 0 0 0 1:-70 2:-64 3:-73 4:-65 5:-56 
-1 -1 0 0 0 1 0 0 0 1 0 1:-66 2:-66 3:-75 4:-80 5:-56 
-0 -1 0 0 0 1 0 0 0 0 0 1:-64 2:-65 3:-75 4:-65 5:-54 
-0 -1 1 0 1 0 0 0 0 1 0 1:-65 2:-65 3:-76 4:-66 5:-61 
-0 -1 1 0 1 0 0 0 0 1 0 1:-69 2:-69 3:-76 4:-70 5:-63 
-0 -1 0 0 0 0 1 1 0 0 0 1:-70 2:-73 3:-77 4:-58 5:-59 
-0.552794306214703 -0 1 1 1 0 1 1 1 0 0 1:-68 2:-73 3:-74 4:-57 5:-72 
-0 -1 0 0 1 1 0 1 1 0 0 1:-67 2:-71 3:-66 4:-64 5:-55 
-0.1004541418006774 -0 1 1 1 0 1 1 1 1 0 1:-67 2:-72 3:-69 4:-66 5:-74 
-0 -1 1 1 1 1 1 1 1 0 0 1:-59 2:-64 3:-65 4:-62 5:-60 
-0 -1 0 0 1 1 0 1 1 0 0 1:-63 2:-66 3:-60 4:-63 5:-44 
-0 -0 1 1 1 0 1 1 1 0 0 1:-77 2:-76 3:-78 4:-59 5:-71 
-0 -1 1 1 1 0 0.1979009748433191 0 0.8297623662150461 1 0.0006514657980456022 1:-78 2:-79 3:-80 4:-69 5:-72 
-0 -0 1 1 1 0 1 1 1 0 0 1:-74 2:-68 3:-74 4:-68 5:-74 
-0 -0 1 1 1 0 0 1 1 0 0 1:-75 2:-68 3:-73 4:-69 5:-65 
-1 -1 1 1 1 1 1 1 1 1 0 1:-63 2:-64 3:-74 4:-71 5:-68 
-1 -1 0 1 1 1 1 1 1 0 0 1:-61 2:-72 3:-66 4:-62 5:-62 
-0 -0 1 1 1 0 1 1 1 0 0 1:-69 2:-71 3:-74 4:-62 5:-69 
-1 -1 0 1 1 1 1 1 1 1 0 1:-59 2:-71 3:-73 4:-63 5:-66 
-1 -1 0 1 0 1 1 1 0 1 0 1:-59 2:-70 3:-75 4:-62 5:-63 
-1 -1 0 1 1 1 1 1 0 1 0 1:-60 2:-70 3:-76 4:-56 5:-63 
-0 -0 1 1 1 0 1 1 1 0 0 1:-62 2:-66 3:-70 4:-59 5:-70 
-0 -1 0 1 1 1 1 1 0 0 0 1:-63 2:-67 3:-70 4:-59 5:-55 
-1 -1 0 0 0 1 0 0 0 1 0 1:-61 2:-68 3:-77 4:-72 5:-55 
-1 -1 0 1 1 1 1 1 0.8156761349695781 1 0 1:-60 2:-70 3:-75 4:-57 5:-64 
-1 -1 1 1 1 1 1 1 1 0 0 1:-64 2:-71 3:-72 4:-59 5:-64 
-1 -1 0 1 1 1 1 1 0 1 0 1:-61 2:-68 3:-74 4:-63 5:-62 
-1 -1 1 1 1 1 1 1 1 1 0 1:-59 2:-69 3:-68 4:-63 5:-65 
-0 -0 1 1 1 0 1 1 1 0 0 1:-69 2:-66 3:-68 4:-57 5:-65 
-1 -1 0 1 1 1 1 1 0 1 0 1:-62 2:-69 3:-75 4:-63 5:-63 
-1 -1 1 1 1 1 1 1 1 1 0 1:-60 2:-69 3:-75 4:-63 5:-68 
-0 -1 0 0 0 1 0 1 0 0 0 1:-65 2:-68 3:-71 4:-58 5:-51 
-0 -1 1 0 1 0 1 0 0 0 0 1:-71 2:-70 3:-79 4:-62 5:-61 
-0 -0 1 1 1 0 1 1 0 0 0 1:-68 2:-60 3:-72 4:-59 5:-55 
-1 -1 0 0 0 1 0 0 0 1 0 1:-61 2:-61 3:-77 4:-68 5:-56 
-1 -1 0 0 0 1 0 0 0 1 0 1:-53 2:-72 3:-73 4:-68 5:-59 
-1 -1 0 0 0 1 0 0 0 1 0 1:-51 2:-67 3:-73 4:-66 5:-57 
-1 -1 1 1 1 1 1 1 0 0 0 1:-55 2:-58 3:-72 4:-56 5:-55 
-0 -1 0 0 0 1 1 1 1 0 0 1:-62 2:-75 3:-65 4:-56 5:-47 
-1 -1 0 0 0 1 0 0 1 0 0 1:-61 2:-76 3:-66 4:-63 5:-48 
-0 -0 0 1 1 0 1 1 1 0 0 1:-66 2:-70 3:-69 4:-45 5:-53 
-0 -0 1 1 1 0 1 1 1 0 0 1:-67 2:-70 3:-68 4:-48 5:-58 
-0 -0 1 1 1 0 1 1 0 0 0 1:-67 2:-59 3:-72 4:-57 5:-59 
-1 -1 0 0 0 1 1 1 0 1 0 1:-59 2:-70 3:-76 4:-59 5:-57 
-0 -0 1 1 1 0 1 1 1 0 0 1:-66 2:-70 3:-71 4:-59 5:-64 
-0 -0.9999797965651177 0 0 1 0 0 0 1 0 0 1:-72 2:-72 3:-69 4:-64 5:-55 
-0 -1 0 0 1 1 1 1 1 0 0 1:-69 2:-79 3:-70 4:-62 5:-61 
-0 -1 1 0 1 0 0 0 0 0 0 1:-69 2:-68 3:-76 4:-63 5:-60 
-0 -1 0 0 0 0 0 0 0 0 0 1:-70 2:-67 3:-79 4:-67 5:-56 
-0 -1 1 0 1 0 0 0 0 0 0 1:-65 2:-55 3:-73 4:-69 5:-55 
-0 -1 0 0 0 0 0 0 0 0 0 1:-71 2:-73 3:-76 4:-69 5:-57 
-0 -1 0 0 0 1 0 0 0 0 0 1:-71 2:-75 3:-76 4:-68 5:-46 
-0 -0 1 1 1 0 1 1 1 0 0 1:-72 2:-69 3:-69 4:-59 5:-56 
-0 -1 1 1 1 0 0 1 0 0 0 1:-71 2:-69 3:-72 4:-64 5:-59 
-0 -1 0 0 0 1 0 0 0 0 0 1:-58 2:-61 3:-68 4:-63 5:-46 
-0 -1 0 0 1 1 0 0 0 0 0 1:-68 2:-62 3:-66 4:-70 5:-47 
-1 -1 0 0 0 1 0 0 0 1 0 1:-60 2:-67 3:-75 4:-66 5:-54 
-0 -1 1 1 1 0 1 1 0 0 0 1:-68 2:-59 3:-76 4:-62 5:-62 
-0 -1 1 1 1 1 0 1 1 0 0 1:-65 2:-60 3:-66 4:-62 5:-52 
-0 -1 1 1 1 1 0 1 1 0 0 1:-63 2:-60 3:-64 4:-63 5:-54 
-0 -0 1 1 1 1 1 1 1 0 0 1:-63 2:-67 3:-65 4:-59 5:-62 
-0 -1 0 0 0 1 0 0 0 0 0 1:-60 2:-60 3:-69 4:-63 5:-45 
-0 -1 1 0.06545219979624829 1 0 0 0 0 0 0 1:-64 2:-59 3:-72 4:-58 5:-50 
-0 -0 1 1 1 0 1 1 1 0 0 1:-63 2:-61 3:-72 4:-58 5:-77 
-1 -1 0 0 0 1 0 0 0 1 0 1:-62 2:-72 3:-72 4:-64 5:-52 
-1 -1 0 1 1 1 1 1 1 0.3332170341852548 0 1:-64 2:-70 3:-71 4:-65 5:-62 
-0 -1 0 1 1 0 1 1 1 0 0 1:-70 2:-76 3:-69 4:-63 5:-62 
-1 -1 0 0 0 1 0 0 0 1 0 1:-62 2:-73 3:-74 4:-67 5:-62 
-0 -0 1 1 1 1 1 1 1 0 0 1:-67 2:-66 3:-65 4:-65 5:-62 
-0 -1 0 0 1 1 0 1 1 0 0 1:-64 2:-69 3:-63 4:-64 5:-49 
-0 -1 0 0 1 1 0 0 1 0 0 1:-68 2:-67 3:-67 4:-65 5:-52 
-0 -0 1 1 1 0 1 1 1 0 0 1:-72 2:-70 3:-65 4:-57 5:-54 
-0 -0 1 1 1 0 1 1 1 0 0 1:-71 2:-71 3:-72 4:-59 5:-62 
-0 -1 0 0 0 1 0 0 0 0 0 1:-67 2:-73 3:-74 4:-70 5:-45 
-0 -1 0 0 0 1 0 0 0 0 0 1:-67 2:-72 3:-67 4:-69 5:-47 
-0 -1 0 0 0 1 0 0 0 0 0 1:-70 2:-77 3:-72 4:-68 5:-58 
-0 -1 0 0 1 1 1 1 1 0 0 1:-67 2:-75 3:-67 4:-65 5:-60 
-1 -1 0 0 0 0 1 1 0 1 0 1:-69 2:-76 3:-77 4:-63 5:-65 
-0 -1 1 1 1 0 1 1 1 0 0 1:-71 2:-74 3:-73 4:-64 5:-64 
-0 -1 0 0 0 0 1 0 0 0 0 1:-72 2:-73 3:-79 4:-50 5:-46 
-1 -1 0 0 0 0 0 0 0 0 0 1:-68 2:-72 3:-79 4:-65 5:-50 
-0.8305325596969112 -1 0 0 0 0 0 0 0 0 0 1:-69 2:-72 3:-79 4:-64 5:-56 
-0 -1 0 0 0 1 0 0 0 0 0 1:-69 2:-73 3:-80 4:-66 5:-43 
-1 -1 0 0 0 0.9605652870692196 0 0 0 1 0 1:-69 2:-74 3:-80 4:-66 5:-47 
-1 -1 0 0 0 1 0 0 0 1 0 1:-68 2:-74 3:-75 4:-68 5:-60 
-1 -1 0 0 0 1 0 0 0 1 0 1:-68 2:-79 3:-75 4:-64 5:-61 
-0 -1 1 0 1 0 0 0 0 0 0 1:-73 2:-73 3:-74 4:-64 5:-60 
-0 -1 0 0 0 1 0 0 0 0 0 1:-67 2:-72 3:-73 4:-65 5:-60 
-0 -0 0.199681777566802 0 1 0 0 0 0 0 0 1:-74 2:-72 3:-73 4:-64 5:-57 
-0 -0 1 1 1 0 0 1 1 0 0 1:-73 2:-71 3:-71 4:-67 5:-61 
-0 -0 1 1 1 0 1 1 1 0 0 1:-76 2:-70 3:-69 4:-62 5:-61 
-0 -0 1 1 1 0 1 1 1 0 0 1:-70 2:-72 3:-68 4:-62 5:-59 
-1 -1 0 0 0 1 0 0 0 1 0 1:-64 2:-72 3:-74 4:-66 5:-55 
-0 -0 0 0 1 0 0 0 0 0 0 1:-75 2:-71 3:-73 4:-64 5:-53 
-0 -1 0 0 0 0 0 0 0 0 0 1:-71 2:-74 3:-77 4:-64 5:-51 
-0 -1 0 0 0 1 0 0 0 0 0 1:-70 2:-73 3:-71 4:-65 5:-52 
-0 -1 0 0 0 1 0 0 0 0 0 1:-63 2:-67 3:-71 4:-63 5:-48 
-0 -0 1 1 1 0 1 1 1 0 0 1:-72 2:-66 3:-71 4:-62 5:-60 
-0 -0 1 0 1 0 0 0 0 0 0 1:-78 2:-67 3:-68 4:-65 5:-49 
-0 -0 -0 1 1 0 0 0 0 0 0 1:-75 2:-64 3:-70 4:-64 5:-66 
-1 -1 -1 1 1 1 1 1 1 1 0 1:-71 2:-80 3:-71 4:-70 5:-63 
-0 -0 -1 0 1 0 0 0 0 0 0 1:-78 2:-70 3:-73 4:-66 5:-61 
-0 -0 -0 0 0.6102193166502607 0 0 0 0 0 0 1:-76 2:-60 3:-73 4:-70 5:-58 
-0 -0 -0 1 0.3755233186584457 0 1 0 0 0 0 1:-72 2:-68 3:-73 4:-58 5:-72 
-0 -0 -1 1 1 0 0 0 0 0 0 1:-66 2:-62 3:-72 4:-67 5:-66 
-0 -0 -0 1 1 0 0 0 0 0 0 1:-76 2:-69 3:-71 4:-62 5:-68 
-0 -0 -0 0 1 0 0 0 0 0 0 1:-73 2:-61 3:-71 4:-62 5:-60 
-0 -0 -0 1 0 0 0 0 0 0 0 1:-73 2:-55 3:-65 4:-54 5:-66 
-0 -0 -0 1 1 0 0 0 0 0 0 1:-73 2:-61 3:-65 4:-62 5:-62 
-0 -0 -1 1 1 0.7500074136659589 1 1 1 0 0 1:-64 2:-67 3:-64 4:-59 5:-68 
-0 -0 -0 1 0 0 0 0 0 0 0 1:-71 2:-58 3:-66 4:-62 5:-70 
-0 -0 -0 1 1 0 1 1 1 0 0 1:-69 2:-64 3:-66 4:-57 5:-69 
-0 -0 -0 1 0 0 1 0 0 0 0 1:-65 2:-61 3:-73 4:-60 5:-70 
-1 -1 -1 1 1 0 1 1 0 1 0 1:-68 2:-69 3:-78 4:-59 5:-61 
-1 -1 -1 0 0 0 1 0 0 1 0 1:-66 2:-65 3:-79 4:-64 5:-68 
-0 -1 -1 1 1 0 1 1 1 0 0 1:-65 2:-66 3:-69 4:-65 5:-68 
-1 -1 -1 1 1 1 0 1 1 0 0 1:-64 2:-64 3:-72 4:-66 5:-55 
-1 -1 -1 1 1 1 0 1 1 0 0 1:-68 2:-66 3:-74 4:-62 5:-50 
-0 -0 -1 1 1 0 1 1 1 0 0 1:-70 2:-66 3:-70 4:-59 5:-58 
-0 -0 -1 1 1 0 1 1 1 0 0 1:-68 2:-67 3:-69 4:-61 5:-64 
-0 -0 -1 1 1 1 1 1 1 0 0 1:-70 2:-69 3:-61 4:-57 5:-62 
-0 -0 -1 1 1 0 0 1 1 0 0 1:-78 2:-70 3:-67 4:-66 5:-62 
-0 -1 -1 1 1 1 1 1 1 0 0 1:-61 2:-59 3:-64 4:-58 5:-56 
-0 -0 -0 1 1 0 1 1 0 0 0 1:-71 2:-59 3:-64 4:-50 5:-59 
-0 -0 -1 1 1 1 0 1 1 0 0 1:-73 2:-66 3:-59 4:-63 5:-57 
-0 -0 -1 1 1 0 0 1 1 0 0 1:-74 2:-64 3:-59 4:-65 5:-58 
-1 -1 -1 1 1 0.5534143347840554 1 1 1 0.226517381810994 0 1:-58 2:-64 3:-73 4:-54 5:-65 
-1 -1 -1 1 1 1 0 1 1 1 0 1:-59 2:-69 3:-71 4:-80 5:-65 
-0 -0 -0 1 0 0 1 0 0 0 0 1:-67 2:-58 3:-74 4:-58 5:-64 
-0 -0 -1 1 1 0 1 1 0 0 0 1:-72 2:-67 3:-72 4:-62 5:-65 
-0 -0 -1 1 1 0 0 0 0 0 0 1:-72 2:-66 3:-74 4:-62 5:-65 
-0 -0 -0.07734534536381066 1 1 0 0 1 1 0 0 1:-71 2:-58 3:-60 4:-64 5:-55 
-0 -0 -1 1 1 1 0 1 1 0 0 1:-65 2:-55 3:-60 4:-64 5:-55 
-0 -0 -0 1 1 0 0 0 0 0 0 1:-73 2:-56 3:-64 4:-58 5:-53 
-0 -0 -0 1 1 0 0 0 0 0 0 1:-72 2:-60 3:-66 4:-58 5:-61 
-0 -0 -0 1 1 0 0 1 1 0 0 1:-68 2:-59 3:-62 4:-61 5:-61 
-0 -0 -0 1 1 0 0 1 1 0 0 1:-68 2:-58 3:-62 4:-62 5:-61 
-0 -0 -0 1 1 0 0 1 1 0 0 1:-67 2:-58 3:-58 4:-62 5:-58 
-0 -0 -1 1 1 0 0 1 1 0 0 1:-65 2:-57 3:-64 4:-62 5:-58 
-0 -1 -1 1 1 1 1 1 0.1089122352728103 0 0 1:-65 2:-60 3:-69 4:-60 5:-55 
-0 -1 -1 1 1 0 1 1 0 0 0 1:-64 2:-57 3:-69 4:-58 5:-56 
-0 -1 -1 1 1 0 1 1 1 0 0 1:-67 2:-70 3:-71 4:-54 5:-62 
-0 -0 -1 0.9999788760233674 1 0 0 0 0 0 0 1:-68 2:-61 3:-71 4:-66 5:-62 
-1 -1 -1 1 1 1 0 1 1 0 0 1:-66 2:-66 3:-71 4:-65 5:-60 
-0 -1 -1 1 1 1 0 1 1 0 0 1:-67 2:-63 3:-69 4:-66 5:-60 
-1 -1 -1 1 1 1 1 1 1 1 0 1:-68 2:-72 3:-75 4:-66 5:-61 
-0 -0 -1 1 1 0 0 0 0 0 0 1:-68 2:-59 3:-70 4:-63 5:-60 
-0 -1 -1 1 1 1 1 1 1 0 0 1:-73 2:-76 3:-68 4:-63 5:-64 
-0 -0 -0 1 0 0 1 1 1 0 0.0002194389698661459 1:-73 2:-73 3:-71 4:-67 5:-79 
-0 -0 -0 1 0 0 0 0 0 0 0 1:-73 2:-64 3:-68 4:-69 5:-78 
-0 -0 -0 1 1 0 0 0 0 0 0 1:-75 2:-59 3:-65 4:-62 5:-62 
-0 -0 -0 1 0 0 0 0 0 0 0 1:-64 2:-52 3:-68 4:-62 5:-63 
-0 -0 -0 1 0 0 1 0 0 0 0 1:-63 2:-52 3:-68 4:-55 5:-67 
-0 -0 -0 0 0 0 1 0 0 0 0 1:-65 2:-55 3:-78 4:-56 5:-69 
-0 -0 -1 0 1 0 0 0 0 0 0 1:-72 2:-63 3:-80 4:-59 5:-60 
-0 -1 -1 0 0 0 0 0 0 0.9086909279558337 0 1:-75 2:-66 3:-77 4:-78 5:-64 
-0 -0.2839717001134159 -0.9114555696579261 0 0 0 0 0 0 1 0 1:-74 2:-65 3:-76 4:-80 5:-67 
-0 -0 -0 1 1 0 1 0.9628330884151047 0 0 0 1:-80 2:-73 3:-73 4:-58 5:-70 
-0 -0 -1 0 0 0 0 0 0 0 0 1:-77 2:-69 3:-79 4:-70 5:-65 
-0 -0 -1 0 1 0 0 0 0 0 0 1:-76 2:-66 3:-77 4:-70 5:-62 
-0 -1 -1 1 1 1 0 1 1 0 0 1:-63 2:-65 3:-66 4:-68 5:-67 
-0 -1 -1 1 1 0 1 1 0 0 0 1:-71 2:-70 3:-79 4:-58 5:-59 
-0 -1 -1 0 1 0 1 0.1858747160475054 0 0 0 1:-71 2:-68 3:-78 4:-62 5:-58 
-0 -0 -0 1 1 0 0 0 0 0 0 1:-69 2:-58 3:-66 4:-62 5:-64 
-0 -1 -1 1 1 1 1 1 1 0 0 1:-63 2:-60 3:-66 4:-60 5:-53 
-0 -0 -0 1 0 0 0 0 0 0 0 1:-76 2:-47 3:-63 4:-50 5:-67 
-0 -0 -0 1 0 0 1 0 0 0 0 1:-75 2:-64 3:-72 4:-57 5:-68 
-0 -0 -0 1 1 0 1 0 0 0 0 1:-76 2:-64 3:-70 4:-56 5:-64 
-0 -0 -1 1 1 0 0.04015411722965469 1 0 0 0 1:-74 2:-67 3:-72 4:-60 5:-59 
-0 -1 -1 1 1 1 1 1 1 0 0 1:-71 2:-72 3:-71 4:-60 5:-58 
-0 -0.2517658089407333 -1 1 1 0 1 1 0 0 0 1:-73 2:-68 3:-74 4:-59 5:-56 
-0 -0 -1 1 1 0 0 1 1 0 0 1:-80 2:-70 3:-70 4:-58 5:-51 
-0 -0 -1 1 1 0 1 1 1 0 0 1:-78 2:-69 3:-69 4:-57 5:-60 
-0 -0 -0 1 1 0 0 0 0 0 0 1:-76 2:-56 3:-60 4:-52 5:-54 
-0 -0 -0 1 0 0 0 0 0 0 0 1:-69 2:-48 3:-61 4:-56 5:-63 
-0 -0 -0 1 0 0 0 0 0 0 0 1:-68 2:-47 3:-65 4:-56 5:-62 
-0 -0 -0 0 1 0 0 0 0 0 0 1:-76 2:-63 3:-66 4:-70 5:-64 
-0 -0 -0 1 1 0 0.01250492945494101 1 1 0 0 1:-74 2:-63 3:-64 4:-57 5:-58 
-0 -0 -0 1 1 0 1 1 1 0 0 1:-76 2:-67 3:-68 4:-56 5:-62 
-0 -0 -0 1 1 0 0 0 1 0 0 1:-80 2:-66 3:-65 4:-58 5:-61 
-0 -0 -1 0 1 0 0 0 0 0 0 1:-75 2:-65 3:-70 4:-66 5:-60 
-0 -0 -1 1 1 0 1 0 0 0 0 1:-72 2:-65 3:-73 4:-59 5:-59 
-0 -0 -0 0 1 0 0 0 0 0 0 1:-72 2:-59 3:-67 4:-67 5:-62 
-0 -1 -1 0 1 1 0 0 1 0 0 1:-72 2:-66 3:-68 4:-75 5:-63 
-1 -1 -1 1 1 1 1 1 1 1 0 1:-71 2:-75 3:-80 4:-66 5:-65 
-0 -1 -1 0 1 0 0 0 0 1 0.0003226788338575043 1:-78 2:-72 3:-79 4:-74 5:-63 
-0.9242973190302329 -1 -1 1 1 1 0 1 1 0.1967247162048475 0 1:-65 2:-67 3:-70 4:-68 5:-68 
-0 -0 -0 1 1 0 1 1 0 0 0 1:-66 2:-63 3:-69 4:-62 5:-68 
-0 -0 -0 0 0 0 1 0 0 0 0 1:-67 2:-65 3:-79 4:-61 5:-70 
-0 -0 -0 1 1 0 1 1 1 0 0 1:-67 2:-66 3:-64 4:-63 5:-70 
-1 -1 -1 0 1 1 0 0 0 1 0 1:-69 2:-67 3:-77 4:-76 5:-59 
-0 -0 -0 1 1 0 0 0 0 0 0 1:-72 2:-67 3:-71 4:-65 5:-69 
-0 -0 -0 1 1 0 0 1 1 0 0 1:-73 2:-69 3:-69 4:-65 5:-70 
-0 -0 -0 1 1 0 1 0 0 0 0 1:-66 2:-60 3:-73 4:-59 5:-65 
-0 -0 -0 0 1 0 0 0 0 0 0 1:-67 2:-56 3:-68 4:-66 5:-59 
-1 -1 -1 1 1 0 1 1 0 0 0 1:-64 2:-64 3:-77 4:-57 5:-63 
-0 -0 -0 1 1 0 1 1 0 0 0 1:-69 2:-63 3:-69 4:-57 5:-66 
-0 -0 -1 0 0 0 0 0 0 0 0 1:-74 2:-66 3:-78 4:-64 5:-65 
-0 -0 -1 1 1 0 1 1 0 0 0 1:-73 2:-68 3:-73 4:-56 5:-66 
-0 -0 -0 1 1 0 1 1 0 0 0 1:-72 2:-68 3:-72 4:-57 5:-67 
-0 -0 -1 1 1 0 1 0 0 0 0 1:-71 2:-68 3:-75 4:-63 5:-66 
-0 -0 -0 1 0 0 0 0 0 0 0 1:-73 2:-63 3:-69 4:-64 5:-72 
-0 -0 -1 0 1 0 0 0 0 0 0 1:-78 2:-57 3:-69 4:-61 5:-49 
-0 -0 -0 1 0 0 0 0 0 0 0 1:-77 2:-57 3:-62 4:-61 5:-64 
-0 -0 -0 1 1 0 0 0 0 0 0 1:-74 2:-59 3:-62 4:-61 5:-65 
-0 -0 -0 0 1 0 0 0 0 0 0 1:-74 2:-61 3:-68 4:-65 5:-64 
-0 -0 -0.8713946089727423 1 1 1 0 1 1 0 0 1:-64 2:-61 3:-61 4:-68 5:-65 
-0 -1 -1 1 1 1 1 1 1 0 0 1:-58 2:-64 3:-62 4:-61 5:-69 
-0 -0.01873336898261137 -0 0 0 0 0 0 0 0 0 1:-67 2:-50 3:-74 4:-70 5:-55 
-0 -0 -1 1 1 0 0.3746291525065282 0 0 0 0 1:-67 2:-51 3:-70 4:-51 5:-46 
-0 -1 -1 0 1 1 0 0 0 0 0 1:-64 2:-55 3:-70 4:-64 5:-50 
-0 -1 -1 1 1 0 0 0 0 0 0 1:-64 2:-51 3:-70 4:-55 5:-42 
-0 -0 -1 1 1 0 1 1 0 0 0 1:-66 2:-54 3:-68 4:-48 5:-43 
-0 -0 -1 1 1 0 1 0 0 0 0 1:-64 2:-48 3:-70 4:-49 5:-43 
-0 -1 -1 1 1 0 1 0 0 0 0 1:-66 2:-53 3:-72 4:-49 5:-42 
-0 -1 -1 1 1 0 0 1 1 0 0 1:-61 2:-60 3:-68 4:-67 5:-67 
-0 -1 -1 1 1 1 0 0 0 0 0 1:-60 2:-51 3:-66 4:-66 5:-55 
-0 -1 -1 1 1 0 0 0 0 0 0 1:-68 2:-58 3:-68 4:-66 5:-56 
-0 -0 -0 1 1 0 0 0 0 0 0 1:-67 2:-60 3:-66 4:-66 5:-67 
-1 -1 -1 0 1 0 0 0 0 0.8558389430161695 0 1:-61 2:-58 3:-75 4:-65 5:-63 
-0 -1 -0.2262925235372255 0 0 0 0 0 0 0 0 1:-63 2:-46 3:-80 4:-63 5:-52 
-0 -0 -1 1 1 0 0 1 1 0 0 1:-75 2:-59 3:-59 4:-60 5:-48 
-0 -0 -1 1 1 0 0 1 1 0 0 1:-73 2:-65 3:-69 4:-60 5:-56 
-0 -1 -1 1 1 1 1 1 1 0 0 1:-71 2:-73 3:-70 4:-65 5:-60 
-0 -0 -0 1 0 0 0 0 0 0 0 1:-67 2:-58 3:-71 4:-63 5:-66 
-0 -0 -0 1 1 0 0 1 1 0 0 1:-72 2:-59 3:-57 4:-60 5:-57 
-0 -1 -1 0 1 1 0 0 1 0 0 1:-72 2:-59 3:-65 4:-71 5:-53 
-0 -0 -0 0 1 0 0 0 0 0 0 1:-74 2:-60 3:-66 4:-71 5:-62 
-0 -1 -1 1 1 0 0 0 0 0 0 1:-63 2:-60 3:-72 4:-67 5:-64 
-0 -0 -1 0 1 0 0 0 0 0 0 1:-78 2:-60 3:-71 4:-56 5:-50 
-0 -0 -0 0 1 0 0 0 0 0 0 1:-72 2:-50 3:-66 4:-56 5:-50 
-0 -0 -1 1 1 0 1 1 0 0 0 1:-71 2:-61 3:-71 4:-50 5:-48 
-0 -0 -0 1 0 0 1 0 0 0 0 1:-73 2:-62 3:-71 4:-58 5:-72 
-0 -0 -0 1 1 0 1 0 0 0 0 1:-74 2:-68 3:-70 4:-62 5:-72 
-0 -1 -1 1 1 1 0 1 1 0 0 1:-65 2:-60 3:-63 4:-63 5:-58 
-0 -1 -1 0 1 0 0 0 0 0 0 1:-68 2:-61 3:-73 4:-66 5:-60 
-0 -0 -1 1 1 0 1 0.8500973973303123 0 0 0 1:-68 2:-60 3:-71 4:-55 5:-57 
-0 -0 -0 1 1 0 0 0 0 0 0 1:-67 2:-53 3:-66 4:-59 5:-57 
-0 -0 -0 1 1 0 0 0 0 0 0 1:-69 2:-56 3:-67 4:-64 5:-58 
-0 -0 -0 1 0 0 0 0 0 0 0 1:-64 2:-50 3:-69 4:-56 5:-64 
-0 -0 -1 1 1 0 1 1 1 0 0 1:-66 2:-64 3:-62 4:-57 5:-61 
-0 -0 -1 1 1 0 1 1 1 0 0 1:-72 2:-65 3:-65 4:-57 5:-61 
-0 -0 -0 1 0 0 0 0 0 0 0 1:-74 2:-52 3:-64 4:-58 5:-61 
-0 -0 -0 1 1 0 1 1 1 0 0 1:-73 2:-63 3:-65 4:-57 5:-65 
-0 -0 -0 0 1 0 0 0 0 0 0 1:-75 2:-60 3:-70 4:-64 5:-60 
-0 -0 -0 1 1 0 0 0 0 0 0 1:-75 2:-62 3:-69 4:-56 5:-59 
-0 -0 -0 1 1 0 1 1 1 0 0 1:-80 2:-64 3:-60 4:-52 5:-68 
-0 -0 -1 1 1 0 0 1 1 0 0 1:-79 2:-71 3:-71 4:-61 5:-64 
-0 -0 -0 1 1 0 1 0 0 0 0 1:-79 2:-72 3:-76 4:-61 5:-68 
-0 -0 -1 1 1 0 1 1 0 0 0 1:-74 2:-74 3:-77 4:-61 5:-70 
-0 -0 -1 1 1 0 1 1 0 0 0 1:-73 2:-73 3:-78 4:-61 5:-66 
-1 -1 -1 0 1 1 0 1 0 1 0 1:-73 2:-74 3:-79 4:-68 5:-64 
-1 -1 -1 1 1 1 0 1 1 0 0 1:-75 2:-74 3:-77 4:-66 5:-59 
-1 -1 -1 1 1 1 1 1 1 1 0 1:-72 2:-75 3:-77 4:-66 5:-59 
-0 -1 -1 0 1 1 0 0 0 0 0 1:-69 2:-63 3:-72 4:-71 5:-60 
-0 -1 -1 1 1 1 1 1 1 0 0 1:-70 2:-69 3:-71 4:-61 5:-60 
-0 -0 -0 1 1 0 0 0 0 0 0 1:-70 2:-60 3:-73 4:-59 5:-62 
-0 -0 -0 1 1 0 0 1 0 0 0 1:-66 2:-59 3:-66 4:-61 5:-63 
-0 -0 -0 1 0 0 1 0 0.4996312902443515 0 0 1:-66 2:-62 3:-65 4:-63 5:-80 
-0 -0 -0 1 0 0 0 0 0 0 0 1:-70 2:-62 3:-68 4:-65 5:-68 
-0 -0 -0 1 0 0 0 0 0 0 0 1:-75 2:-65 3:-70 4:-63 5:-73 
-0 -0 -0 1 0 0 0 0 0 0 0 1:-67 2:-58 3:-71 4:-61 5:-67 
-0 -0 -0 0 1 0 0 0 0 0 0 1:-75 2:-60 3:-71 4:-62 5:-60 
-0 -1 -1 1 1 0.79727817317017 1 1 1 0 0 1:-67 2:-65 3:-69 4:-62 5:-61 
-0 -0 -0 1 1 0 1 0 0 0 0 1:-65 2:-62 3:-69 4:-63 5:-70 
-0 -1 -1 0 1 0 0 0 0 0 0 1:-68 2:-61 3:-70 4:-69 5:-61 
-0 -0 -1 1 1 0 1 1 1 0 0 1:-62 2:-61 3:-63 4:-52 5:-63 
-0 -0 -1 1 1 1 1 1 1 0 0 1:-61 2:-63 3:-56 4:-53 5:-62 
-0 -0 -0 1 1 0 0 0 0 0 0 1:-70 2:-47 3:-59 4:-51 5:-56 
-0 -0 -0 1 1 0 1 0 0 0 0 1:-73 2:-58 3:-69 4:-52 5:-58 
-0 -0 -0 0 1 0 0 0 0 0 0 1:-71 2:-55 3:-69 4:-61 5:-58 
-0 -0 -0 1 0 0 0 0 0 0 0 1:-71 2:-58 3:-65 4:-63 5:-67 
-0 -0 -0 0 1 0 0 0 0 0 0 1:-73 2:-55 3:-68 4:-63 5:-57 
-0 -0 -1 0 1 0 0 0 0 0 0 1:-72 2:-61 3:-67 4:-68 5:-57 
-0 -1 -1 1 1 1 0 1 1 0 0 1:-72 2:-64 3:-68 4:-65 5:-55 
-0 -0 -0 1 0 0 0 0 0 0 0 1:-64 2:-53 3:-65 4:-61 5:-66 
-0 -0 -0 1 0 0 0 0 0 0 0 1:-69 2:-61 3:-68 4:-62 5:-69 
-0 -0 -0 0 0 0 1 0 0 0 0 1:-68 2:-61 3:-76 4:-59 5:-69 
-0 -0 -0 1 1 0 0 1 1 0 0 1:-66 2:-58 3:-64 4:-62 5:-63 
-0 -0.5952286689483341 -1 1 1 1 1 1 1 0 0 1:-67 2:-68 3:-63 4:-62 5:-63 
-1 -1 -1 1 1 1 1 1 1 0 0 1:-65 2:-74 3:-66 4:-61 5:-66 
-0 -1 -1 1 1 0 1 1 1 0 0 1:-66 2:-64 3:-69 4:-63 5:-62 
-0 -0 -1 1 1 1 1 1 1 0 0 1:-66 2:-64 3:-64 4:-62 5:-62 
-0 -1 -1 1 1 1 1 1 1 0 0 1:-64 2:-66 3:-66 4:-63 5:-67 
-1 -1 -1 1 1 1 1 1 1 1 0 1:-61 2:-68 3:-70 4:-59 5:-68 
-1 -1 -1 1 1 1 1 1 1 1 0 1:-60 2:-65 3:-69 4:-62 5:-57 
-0 -1 -1 1 1 1 1 1 1 0 0 1:-67 2:-69 3:-67 4:-62 5:-64 
-0 -0 -1 1 1 0 1 1 1 0 0 1:-72 2:-68 3:-70 4:-61 5:-64 
-0 -0 -0 1 1 0 1 1 1 0 0 1:-63 2:-58 3:-64 4:-60 5:-62 
-1 -1 -1 1 1 1 1 1 1 0.8536628162917801 0 1:-63 2:-71 3:-66 4:-64 5:-63 
-0 -1 -1 1 1 1 1 1 1 0 0 1:-65 2:-66 3:-68 4:-63 5:-64 
-0 -1 -1 1 1 1 1 1 1 0 0 1:-65 2:-66 3:-66 4:-61 5:-58 
-0 -0 -0 1 1 0 0 1 0 0 0 1:-65 2:-57 3:-64 4:-60 5:-63 
-0 -0 -0 1 1 0 1 0 0 0 0 1:-64 2:-50 3:-64 4:-54 5:-60 
-0 -0 -0 1 0 0 0 0 0 0 0 1:-68 2:-49 3:-60 4:-54 5:-60 
-0 -0 -0 1 1 0 1 0 0 0 0 1:-68 2:-52 3:-60 4:-49 5:-60 
-0 -0 -0 1 0 0 0 0 0 0 0 1:-71 2:-48 3:-63 4:-50 5:-62 
-0 -0 -0 1 0 0 1 0 0 0 0 1:-62 2:-47 3:-63 4:-50 5:-63 
-0 -0 -0 1 1 0 0 0 0 0 0 1:-63 2:-47 3:-55 4:-59 5:-62 
-0 -0 -0 0 1 0 0 0 0 0 0 1:-67 2:-46 3:-61 4:-64 5:-49 
-0 -0 -0 1 1 0 0 0 0 0 0 1:-68 2:-50 3:-58 4:-60 5:-55 
-0 -0 -0 1 1 0 0 0 0 0 0 1:-69 2:-49 3:-64 4:-50 5:-56 
-0 -0 -0 0 1 0 0 0 0 0 0 1:-72 2:-60 3:-71 4:-67 5:-60 
-1 -1 -1 1 1 1 1 1 1 1 0 1:-63 2:-67 3:-75 4:-68 5:-66 
-0 -0 -1 1 1 0 0 0 0 0 0 1:-66 2:-52 3:-62 4:-67 5:-53 
-0 -0 -0 1 1 0 1 1 1 0 0 1:-78 2:-65 3:-59 4:-54 5:-63 
-0 -0 -0 1 1 0 1 0 0 0 0 1:-80 2:-71 3:-73 4:-59 5:-65 
-0 -0 -1 0 1 0 0 0 0 0 0 1:-80 2:-71 3:-73 4:-65 5:-64 
-0 -0 -0 0 1 0 0 0 0 0 0 1:-79 2:-68 3:-74 4:-63 5:-63 
-1 -1 -1 0 1 0 0 0 0 1 0 1:-68 2:-68 3:-79 4:-67 5:-69 
-1 -1 -1 1 0.0225552985718788 0 1 0.5567816370111938 0 1 0 1:-62 2:-64 3:-75 4:-63 5:-71 
-1 -1 -1 1 1 1 1 1 0 1 0 1:-66 2:-67 3:-76 4:-64 5:-56 
-0 -1 -1 1 1 1 0 1 1 0 0 1:-71 2:-72 3:-66 4:-64 5:-49 
-1 -1 -1 1 1 1 1 1 1 1 0 1:-70 2:-79 3:-71 4:-68 5:-49 
-0 -0 -1 1 1 1 1 1 1 0 0 1:-70 2:-66 3:-62 4:-60 5:-59 
-0 -0 -0 1 1 0 1 1 1 0 0 1:-69 2:-58 3:-59 4:-54 5:-58 
-0 -1 -1 1 1 1 1 1 1 0 0 1:-67 2:-63 3:-71 4:-55 5:-50 
-0 -0 -1 1 1 0 0 0 0 0 0 1:-69 2:-62 3:-71 4:-61 5:-58 
-0 -1 -1 1 1 1 1 1 1 0 0 1:-67 2:-69 3:-71 4:-51 5:-49 
-0.65071081650905 -1 -1 1 1 1 1 1 1 0 0 1:-69 2:-68 3:-71 4:-61 5:-50 
-0 -1 -1 1 1 1 1 1 1 0 0 1:-68 2:-68 3:-68 4:-59 5:-48 
-0 -1 -1 1 1 1 1 1 1 0 0 1:-67 2:-64 3:-70 4:-51 5:-48 
-0 -1 -1 1 1 0.2146993963378382 1 1 1 0 0 1:-71 2:-66 3:-71 4:-51 5:-48 
-0 -0 -0 1 0.9396869976909021 0 1 0 0 0 0 1:-75 2:-59 3:-62 4:-45 5:-68 
-0 -0 -0 1 1 0 1 1 1 0 0 1:-77 2:-59 3:-61 4:-46 5:-50 
-0 -1 -1 1 1 1 1 1 1 0 0 1:-69 2:-69 3:-69 4:-61 5:-57 
-0 -0 -0 1 1 0 0 0 0 0 0 1:-69 2:-57 3:-67 4:-62 5:-59 
-0 -0 -1 0 1 0 0 0 0 0 0 1:-67 2:-60 3:-72 4:-65 5:-63 
-0 -0 -0 1 0 0 0.188611433633352 0 0 0 0 1:-71 2:-67 3:-74 4:-65 5:-79 
-0 -1 -1 1 1 0 0 1 1 0 0 1:-71 2:-67 3:-72 4:-66 5:-61 
-0 -0 -0 1 1 0 0 0 1 0 0 1:-76 2:-64 3:-66 4:-66 5:-61 
-0 -0 -0 1 1 0 0 0 0 0 0 1:-77 2:-63 3:-66 4:-66 5:-65 
-0 -0 -0 1 1 0 0 0 0 0 0 1:-76 2:-66 3:-69 4:-62 5:-65 
-0 -0 -1 1 1 0 0 1 1 0 0 1:-76 2:-69 3:-69 4:-63 5:-62 
-0 -1 -1 0.8557305803482849 1 1 0 1 1 0 0 1:-76 2:-69 3:-74 4:-63 5:-51 
-0 -0 -1 1 1 0 0 0 0 0 0 1:-75 2:-63 3:-70 4:-62 5:-58 
-0 -0 -0 1 1 0 0 0 1 0 0 1:-76 2:-63 3:-57 4:-69 5:-70 
-0 -0 -0 0 1 0 0 0 0 0 0 1:-73 2:-63 3:-70 4:-69 5:-65 
-0 -0 -0 1 1 0 0 0 0 0 0 1:-74 2:-62 3:-68 4:-63 5:-65 
-0 -1 -1 0 1 1 0 0 0 0 0 1:-74 2:-60 3:-71 4:-62 5:-43 
-0 -0 -1 1 1 0 0 1 1 0 0 1:-74 2:-65 3:-68 4:-61 5:-59 
-0 -0 -1 1 1 0 0 0.1195379061222777 0 0 0 1:-74 2:-64 3:-69 4:-58 5:-59 
-0 -1 -1 1 1 1 0 0.02036799692521771 1 0 0 1:-63 2:-57 3:-64 4:-70 5:-59 
-0 -0 -1 1 1 1 1 1 1 0 0 1:-71 2:-68 3:-55 4:-58 5:-60 
-0 -0 -1 1 1 0 1 1 1 0 0 1:-67 2:-72 3:-68 4:-53 5:-70 
-0 -0 -1 1 1 0 1 1 1 0 0 1:-67 2:-72 3:-69 4:-61 5:-71 
-1 -1 -1 0 1 0 0 0 0 1 0 1:-66 2:-65 3:-76 4:-69 5:-65 
-0 -0 -0 1 1 0 0 1 1 0 0 1:-67 2:-65 3:-68 4:-68 5:-71 
-0 -0 -0 1 1 0 1 1 1 0 0 1:-70 2:-67 3:-66 4:-63 5:-70 
-0 -0 -0 1 0 0 1 0 0 0 0 1:-66 2:-63 3:-70 4:-61 5:-74 
-0 -0 -0 1 1 0 0 0 0 0 0 1:-71 2:-63 3:-68 4:-64 5:-68 
-0 -1 -1 0 0 0 0 0 0 0 0 1:-61 2:-49 3:-74 4:-70 5:-55 
-1 -1 -1 1 1 1 1 1 1 1 0 1:-67 2:-71 3:-76 4:-62 5:-63 
-0 -1 -1 1 1 1 1 1 1 0 0 1:-66 2:-73 3:-57 4:-63 5:-62 
-1 -1 -1 1 1 1 1 1 1 0 0 1:-69 2:-73 3:-69 4:-65 5:-60 
-0 -0 -0 1 1 0 0 0 0 0 0 1:-68 2:-63 3:-69 4:-63 5:-66 
-0 -0 -1 1 1 0 0 1 1 0 0 1:-72 2:-69 3:-69 4:-65 5:-64 
-0 -0 -1 0 0 0 0 0 0 1 0 1:-67 2:-63 3:-79 4:-66 5:-68 
-0 -1 -1 1 1 1 0 1 1 0 0 1:-68 2:-67 3:-71 4:-67 5:-64 
-0 -1 -1 1 1 0 1 1 0 0 0 1:-70 2:-69 3:-75 4:-62 5:-63 
-0 -1 -1 0 1 0 0 0 0 0 0 1:-73 2:-66 3:-76 4:-67 5:-58 
-0 -0 -1 1 1 0 0 1 1 0 0 1:-70 2:-66 3:-69 4:-66 5:-65 
-0 -0 -1 1 1 0 0 1 1 0 0 1:-68 2:-63 3:-67 4:-68 5:-64 
-0 -0 -0 1 1 0 0 0 0 0 0 1:-75 2:-62 3:-68 4:-59 5:-62 
-0 -0 -0 1 1 0 0 0 0 0 0 1:-74 2:-62 3:-71 4:-60 5:-61 
-0 -0 -1 1 1 0 1 1 0 0 0 1:-60 2:-59 3:-71 4:-57 5:-66 
-1 -1 -1 1 1 1 1 1 1 0 0 1:-62 2:-66 3:-66 4:-62 5:-59 
-0 -1 -1 1 1 1 0 1 1 0 0 1:-66 2:-66 3:-71 4:-69 5:-65 
-0 -0 -0 1 1 0 0 1 1 0 0 1:-66 2:-65 3:-70 4:-68 5:-71 
-1 -1 -1 1 1 1 1 1 1 1 0 1:-60 2:-66 3:-68 4:-65 5:-61 
-1 -1 -1 1 1 1 1 1 1 1 0 1:-60 2:-67 3:-68 4:-65 5:-62 
-1 -1 -1 1 1 1 1 1 1 1 0 1:-62 2:-65 3:-71 4:-66 5:-65 
-0 -0 -0 0 1 0 0 0 0 0 0 1:-76 2:-65 3:-70 4:-67 5:-65 
-0 -0 -0 -1 0 0 0 0 0 0 0.0004937052579609971 1:-74 2:-66 3:-73 4:-69 5:-77 
-0 -1 -1 -1 1 0 0 0 0 0.9999350667943786 0 1:-69 2:-62 3:-73 4:-72 5:-71 
-0 -1 -1 -1 1 0 0 0 0.3844592326915348 0 0 1:-70 2:-64 3:-70 4:-66 5:-63 
-0 -1 -1 -1 1 0 0 0 0 0 0 1:-68 2:-63 3:-73 4:-65 5:-63 
-1 -1 -1 -1 1 1 1 1 0 1 0 1:-68 2:-67 3:-78 4:-69 5:-62 
-0 -1 -1 -1 1 1 0 1 1 0 0 1:-70 2:-66 3:-67 4:-69 5:-63 
-0 -0 -0 -1 1 0 1 0 0 0 0 1:-71 2:-64 3:-69 4:-48 5:-61 
-0 -0 -0 -1 1 0 0 0 0 0 0 1:-73 2:-58 3:-67 4:-58 5:-61 
-0 -0 -0 -0 0 0 1 0 0 0 0 1:-67 2:-67 3:-69 4:-46 5:-69 
-0 -1 -1 -1 1 1 1 1 1 0 0 1:-74 2:-75 3:-74 4:-57 5:-61 
-1 -1 -1 -1 1 1 1 1 1 1 0 1:-66 2:-76 3:-79 4:-58 5:-60 
-0 -1 -1 -1 1 1 1 1 1 0 0 1:-72 2:-75 3:-69 4:-61 5:-63 
-1 -1 -1 -1 1 1 1 1 1 0 0 1:-70 2:-74 3:-69 4:-63 5:-62 
-0 -0 -1 -1 1 0 1 1 0 0 0 1:-77 2:-71 3:-74 4:-60 5:-65 
-0 -0 -1 -1 1 0 0 0 0 0 0 1:-68 2:-57 3:-69 4:-61 5:-56 
-0 -0 -1 -1 1 0 1 1 0 0 0 1:-68 2:-71 3:-72 4:-54 5:-64 
-0 -0 -0 -1 1 0 0 0 0 0 0 1:-73 2:-60 3:-70 4:-60 5:-64 
-0 -0 -1 -1 1 0 1 1 1 0 0 1:-74 2:-73 3:-69 4:-61 5:-64 
-0 -0 -0 -0 1 0 1 1 1 0 0 1:-68 2:-72 3:-66 4:-60 5:-69 
-0 -0 -0 -0 1 1 1 1 1 0 0 1:-68 2:-70 3:-57 4:-60 5:-60 
-0 -0 -0 -1 1 0 0 0 1 0 0 1:-79 2:-68 3:-66 4:-60 5:-64 
-0 -0 -1 -1 1 0 1 1 0 0 0 1:-77 2:-75 3:-76 4:-52 5:-64 
-1 -1 -1 -0 1 1 1 1 0 1 0 1:-60 2:-70 3:-76 4:-55 5:-62 
-1 -1 -1 -0 1 1 1 1 0 1 0 1:-58 2:-69 3:-72 4:-54 5:-62 
-0.5599707338466653 -1 -0 -0 1 1 1 1 1 0 0 1:-62 2:-70 3:-68 4:-64 5:-71 
-0 -0 -0 -1 0 0 0 0 0 0 0 1:-70 2:-63 3:-68 4:-63 5:-69 
-0 -0 -0 -1 0 0 0 0 1 0 0 1:-70 2:-64 3:-62 4:-64 5:-68 
-0 -0 -1 -1 1 0 1 0 0 0 0 1:-62 2:-62 3:-70 4:-58 5:-63 
-0 -0 -1 -1 1 0 1 1 0 0 0 1:-65 2:-64 3:-69 4:-60 5:-64 
-1 -1 -1 -1 1 1 0 1 1 1 0 1:-67 2:-73 3:-68 4:-72 5:-64 
-0 -0 -0 -0 0 0 1 1 0 0 0 1:-71 2:-70 3:-66 4:-44 5:-66 
-0 -0 -0 -0 0 0 1 1 0 0 0 1:-61 2:-75 3:-71 4:-44 5:-66 
-0 -0 -0 -0 0 0 1 1 0 0 0 1:-61 2:-70 3:-70 4:-46 5:-68 
-0 -0 -0 -0 0 0 1 0 0 0 0 1:-74 2:-70 3:-70 4:-48 5:-68 
-0 -1 -1 -1 1 1 0 1 1 0 0 1:-71 2:-64 3:-71 4:-61 5:-48 
-0 -1 -1 -1 1 1 0 0 0 0 0 1:-70 2:-54 3:-69 4:-66 5:-45 
-0 -1 -1 -1 1 1 1 1 1 0 0 1:-66 2:-62 3:-70 4:-62 5:-52 
-0 -1 -1 -1 1 1 0 1 1 0 0 1:-72 2:-62 3:-70 4:-63 5:-52 
-0 -1 -1 -1 1 1 0 1 1 0 0 1:-73 2:-70 3:-66 4:-73 5:-60 
-0 -0 -0 -0 1 0 0 1 1 0 0 1:-74 2:-67 3:-59 4:-56 5:-63 
-0 -0 -0 -0 0 0 1 1 1 0 0 1:-66 2:-70 3:-59 4:-46 5:-60 
-0 -0 -0 -0 0 0 1 1 0 0 0 1:-68 2:-61 3:-60 4:-50 5:-59 
-0 -0 -0 -0 0 0 1 1 1 0 0 1:-66 2:-64 3:-58 4:-50 5:-62 
-0 -0 -0 -0 1 1 1 1 1 0 0 1:-60 2:-71 3:-58 4:-49 5:-60 
-0 -0 -0 -1 0 0 1 0 0 0 0 1:-64 2:-61 3:-72 4:-60 5:-67 
-0 -0 -0 -1 1 0 1 1 0 0 0 1:-64 2:-61 3:-66 4:-55 5:-58 
-0 -0 -0 -1 1 0 1 0 0 0 0 1:-68 2:-58 3:-75 4:-60 5:-65 
-0 -0 -0 -0 0 0 1 0 0 0 0 1:-66 2:-67 3:-70 4:-49 5:-68 
-0 -0 -0 -1 1 0 0 1 1 0 0 1:-67 2:-66 3:-61 4:-66 5:-66 
-0 -0 -0 -1 0 0 1 1 0 0 0 1:-67 2:-70 3:-71 4:-58 5:-70 
-0 -0 -1 -1 1 0 1 0 0 0 0 1:-66 2:-57 3:-70 4:-56 5:-58 
-0 -0 -0 -1 1 0 1 0 0 0 0 1:-70 2:-65 3:-70 4:-54 5:-62 
-0 -1 -1 -1 1 0 1 1 1 0 0 1:-68 2:-67 3:-70 4:-61 5:-62 
-1 -1 -1 -1 1 0 1 0 0 1 0 1:-69 2:-67 3:-75 4:-67 5:-68 
-0 -0 -1 -1 1 0 0 1 1 0 0 1:-71 2:-67 3:-65 4:-62 5:-62 
-0 -0 -0 -0 0 0 1 1 0 0 0 1:-70 2:-68 3:-65 4:-49 5:-63 
-0 -0 -1 -1 1 0 0 1 1 0 0 1:-66 2:-62 3:-65 4:-64 5:-61 
-0 -0 -0 -0 0 0 1 0 0 0 0 1:-68 2:-69 3:-68 4:-50 5:-77 
-0 -0 -0 -0 1 0 1 1 0 0 0 1:-61 2:-69 3:-69 4:-46 5:-61 
-0 -0 -1 -0 1 0 1 1 0 0 0 1:-67 2:-69 3:-71 4:-52 5:-62 
-0 -0 -0 -0 0 0 1 1 0 0 0 1:-68 2:-67 3:-63 4:-42 5:-66 
-1 -1 -1 -1 1 1 1 1 1 0.6112025458256312 0 1:-60 2:-67 3:-69 4:-63 5:-67 
-0 -0 -0 -1 0 0 1 0 0 0 0 1:-70 2:-66 3:-68 4:-61 5:-71 
-0 -0 -0 -0 0 0 1 1 0 0 0 1:-69 2:-64 3:-64 4:-44 5:-64 
-1 -1 -1 -1 1 1 0 0 0 0 0 1:-69 2:-63 3:-73 4:-69 5:-62 
-0 -0 -1 -1 1 0 1 1 0 0 0 1:-63 2:-67 3:-74 4:-54 5:-66 
-1 -1 -1 -0 1 1 1 1 1 1 0 1:-63 2:-72 3:-76 4:-54 5:-57 
-0 -0 -0 -0 0 0 1 1 0 0 0 1:-67 2:-65 3:-66 4:-52 5:-64 
-0 -0 -0 -1 0 0 1 0 0 0 0 1:-78 2:-68 3:-69 4:-46 5:-71 
-0 -0 -0 -0.6699435122129563 0 0 1 0 0 0 0 1:-67 2:-59 3:-67 4:-47 5:-71 
-0 -0 -0 -0 0 0 1 0 0 0 0 1:-67 2:-62 3:-68 4:-48 5:-63 
-0 -0 -1 -1 1 0 0 0 0 0 0 1:-65 2:-62 3:-68 4:-63 5:-63 
-1 -1 -1 -1 1 1 1 1 1 1 0 1:-65 2:-70 3:-71 4:-65 5:-65 
-1 -1 -1 -1 1 1 1 1 1 1 0 1:-65 2:-68 3:-74 4:-63 5:-60 
-0 -0 -1 -0 1 0 1 1 0 0 0 1:-68 2:-69 3:-70 4:-50 5:-60 
-0 -1 -1 -0 0 0 1 1 0 0.6086133400274096 0 1:-63 2:-71 3:-77 4:-50 5:-67 
-1 -1 -1 -0 1 1 1 1 0 0 0 1:-59 2:-65 3:-71 4:-56 5:-60 
-0 -0 -1 -0 1 0 1 1 0 0 0 1:-60 2:-70 3:-71 4:-43 5:-59 
-1 -1 -1 -1 1 1 1 1 1 0 0 1:-65 2:-68 3:-71 4:-61 5:-62 
-0 -0 -0 -0 1 0 1 1 1 0 0 1:-66 2:-70 3:-69 4:-50 5:-62 
-0 -0 -1 -1 1 0 1 1 1 0 0 1:-68 2:-65 3:-68 4:-59 5:-59 
-0 -0 -0 -0 0 0 1 1 0 0 0 1:-62 2:-63 3:-71 4:-45 5:-60 
-0 -0 -0 -0 1 0 1 1 0.8763520315443671 0 0 1:-66 2:-69 3:-67 4:-46 5:-59 
-0 -0 -0 -0 0 0 1 0 0 0 0 1:-65 2:-60 3:-69 4:-47 5:-63 
-1 -1 -1 -1 1 1 1 1 1 1 0 1:-62 2:-67 3:-71 4:-64 5:-63 
-0 -0 -0 -0 0 0 1 0 0 0 0 1:-63 2:-58 3:-67 4:-48 5:-58 
-0 -0 -0 -0 1 0 1 1 0 0 0 1:-59 2:-59 3:-66 4:-51 5:-56 
-0 -0 -0 -0 1 0 1 1 0 0 0 1:-59 2:-63 3:-70 4:-50 5:-60 
-0 -0 -0 -0 0 0 1 1 0 0 0 1:-61 2:-62 3:-66 4:-46 5:-60 
-0 -0 -0 -0 0 0 1 1 0 0 0 1:-61 2:-67 3:-65 4:-45 5:-61 
-0 -0 -0 -0 0 0 1 1 1 0 0 1:-58 2:-60 3:-52 4:-39 5:-53 
-0 -0 -0 -1 1 0 0 0 0 0 0 1:-67 2:-52 3:-65 4:-53 5:-50 
-0 -0 -1 -0 1 0 1 1 0 0 0 1:-60 2:-57 3:-65 4:-49 5:-50 
-0 -0 -0 -0 0 0 1 1 0 0 0 1:-63 2:-63 3:-66 4:-53 5:-63 
-0 -0 -0 -1 1 0 1 0 0 0 0 1:-75 2:-62 3:-68 4:-51 5:-62 
-0 -0 -0 -1 0 0 1 0 0 0 0 1:-62 2:-51 3:-67 4:-49 5:-67 
-0 -0 -0 -1 1 0 1 0 0 0 0 1:-61 2:-53 3:-69 4:-53 5:-55 
-0 -0 -0 -1 1 0 1 0 0 0 0 1:-72 2:-59 3:-68 4:-51 5:-55 
-0 -0 -0 -1 1 0 0 0 0 0 0 1:-69 2:-56 3:-66 4:-56 5:-58 
-0 -1 -1 -1 1 1 0 1 0 0 0 1:-66 2:-61 3:-71 4:-65 5:-54 
-0 -0 -1 -1 1 0 1 1 1 0 0 1:-71 2:-66 3:-70 4:-56 5:-55 
-0 -0 -1 -1 1 0 0 0 0 0 0 1:-73 2:-51 3:-64 4:-69 5:-55 
-0 -0 -0 -1 0.733109693903517 0 1 0 0 0 0 1:-72 2:-62 3:-70 4:-46 5:-60 
-0 -0 -0 -1 0 0 1 0 0 0 0 1:-77 2:-63 3:-70 4:-47 5:-62 
-0 -0 -0 -1 0 0 0 0 0 0 0 1:-74 2:-53 3:-62 4:-55 5:-67 
-0 -0 -1 -1 1 1 0 1 1 0 0 1:-71 2:-70 3:-64 4:-67 5:-63 
-0 -0 -0 -0 0 0 0 1 1 0 0 1:-72 2:-68 3:-60 4:-59 5:-68 
-0 -1 -1 -1 1 0 1 1 0 0 0 1:-66 2:-66 3:-71 4:-61 5:-63 
-0 -1 -1 -0 1 1 1 1 1 0 0 1:-66 2:-71 3:-70 4:-56 5:-59 
-0 -0 -1 -1 1 1 1 1 1 0 0 1:-74 2:-71 3:-66 4:-60 5:-58 
-0 -0 -0 -0 0 0 0 1 1 0 0 1:-73 2:-65 3:-56 4:-54 5:-67 
-0 -0 -0 -1 0 0 1 0 0 0 0 1:-69 2:-65 3:-69 4:-52 5:-66 
-0 -0 -0 -0 0 0 1 1 1 0 0 1:-70 2:-66 3:-63 4:-57 5:-66 
-0 -0 -1 -1 1 0 1 1 1 0 0 1:-64 2:-65 3:-68 4:-63 5:-66 
-0 -0 -0 -0 0 0 1 1 0 0 0 1:-67 2:-70 3:-69 4:-51 5:-68 
-0 -0 -0 -0 0 0 1 1 1 0 0 1:-69 2:-70 3:-65 4:-54 5:-68 
-0 -0 -0 -0 0 0 1 0 0 0 0 1:-62 2:-59 3:-67 4:-52 5:-60 
-0 -0 -0 -0 0 0 0 1 1 0 0 1:-67 2:-64 3:-55 4:-59 5:-63 
-0 -0 -0 -0 0 0 1 1 1 0 0 1:-65 2:-65 3:-56 4:-55 5:-63 
-0 -1 -1 -0 1 1 1 1 1 0 0 1:-65 2:-67 3:-62 4:-51 5:-46 
-0 -1 -1 -1 1 1 1 1 1 0 0 1:-69 2:-65 3:-68 4:-54 5:-46 
-0 -1 -1 -1 1 1 1 1 1 0 0 1:-68 2:-68 3:-71 4:-53 5:-43 
-0 -0 -0 -0 0 0 1 0 0 0 0 1:-72 2:-55 3:-55 4:-41 5:-64 
-0 -0 -0 -0 0 0 1 0 0 0 0 1:-76 2:-61 3:-66 4:-39 5:-65 
-0 -0 -0 -0 0 0 1 0 0 0 0 1:-61 2:-52 3:-55 4:-38 5:-66 
-0 -0 -1 -0 1 1 0 1 1 0 0 1:-61 2:-60 3:-56 4:-61 5:-55 
-0 -0 -1 -0 1 1 0 1 1 0 0 1:-65 2:-64 3:-59 4:-61 5:-54 
-0 -1 -1 -0 1 1 0 1 1 0 0 1:-65 2:-66 3:-59 4:-61 5:-49 
-0 -1 -1 -0 1 1 1 1 1 0 0 1:-66 2:-67 3:-67 4:-56 5:-50 
-0 -0 -1 -0 1 1 1 1 0 0 0 1:-62 2:-62 3:-66 4:-51 5:-51 
-0 -0 -1 -0 1 0 1 1 0 0 0 1:-62 2:-61 3:-71 4:-47 5:-52 
-0 -0 -0 -1 1 0 1 0 0 0 0 1:-63 2:-62 3:-75 4:-43 5:-57 
-0 -0 -1 -0 1 0 1 1 0 0 0 1:-64 2:-66 3:-74 4:-44 5:-58 
-0 -0 -0 -0 0 0 1 1 0 0 0 1:-67 2:-65 3:-62 4:-44 5:-60 
-1 -1 -1 -0 1 1 1 1 1 1 0 1:-56 2:-66 3:-66 4:-64 5:-60 
-0 -0 -0 -1 0 0 0 0 0 0 0 1:-73 2:-60 3:-68 4:-61 5:-69 
-0 -0 -0 -0 1 0.629038237817887 0 1 1 0 0 1:-73 2:-72 3:-59 4:-69 5:-68 
-0 -0 -0 -0 0 0 1 1 1 0 0 1:-65 2:-66 3:-53 4:-49 5:-69 
-0 -0 -0 -0 0 0 1 1 1 0 0 1:-62 2:-73 3:-54 4:-46 5:-70 
-0 -0 -0 -0 1 0 1 1 0 0 0 1:-65 2:-57 3:-59 4:-50 5:-56 
-0 -0 -0 -1 1 0 0 0 0.1778851505142695 0 0 1:-67 2:-53 3:-59 4:-61 5:-53 
-0 -1 -1 -1 1 0 0 1 1 0 0 1:-73 2:-64 3:-70 4:-64 5:-57 
-0 -0 -0 -1 1 0 1 1 0 0 0 1:-75 2:-67 3:-70 4:-45 5:-57 
-0.8080392137542313 -1 -1 -0.06889586235123506 1 0 1 1 0 0 0 1:-67 2:-72 3:-80 4:-44 5:-56 
-0 -0 -0 -0 0 0 0 0 1 0 0 1:-71 2:-60 3:-57 4:-58 5:-64 
-0 -0 -0 -0 1 0 0 1 1 0 0 1:-72 2:-67 3:-60 4:-58 5:-62 
-0 -1 -1 -1 1 1 1 1 1 0 0 1:-69 2:-67 3:-65 4:-58 5:-51 
-0 -1 -1 -1 1 1 0 1 1 0 0 1:-69 2:-67 3:-66 4:-64 5:-51 
-0 -0 -0 -0 0 0 1 1 1 0 0 1:-72 2:-74 3:-59 4:-44 5:-66 
-0 -0 -0 -0.6000794985434775 1 0 1 1 1 0 0 1:-65 2:-64 3:-64 4:-60 5:-65 
-0 -0 -0 -0 0 0 1 0 0 0 0 1:-68 2:-64 3:-66 4:-46 5:-66 
-0 -0 -0 -0 0 0 1 1 1 0 0 1:-62 2:-66 3:-51 4:-47 5:-69 
-0 -0 -0 -0 1 1 0 1 1 0 0 1:-65 2:-64 3:-56 4:-63 5:-59 
-0 -0 -1 -1 1 0 0 0 0 0 0 1:-70 2:-59 3:-67 4:-68 5:-62 
-0 -0 -0 -1 1 0 0 0 0 0 0 1:-70 2:-60 3:-66 4:-70 5:-68 
-0 -0 -1 -1 1 0 0 1 1 0 0 1:-77 2:-67 3:-66 4:-62 5:-63 
-0 -0 -1 -1 1 1 0 1 1 0 0 1:-73 2:-67 3:-66 4:-62 5:-56 
-0 -1 -1 -1 1 1 0 1 1 0 0 1:-76 2:-67 3:-68 4:-67 5:-56 
-0 -0 -0 -1 1 0 0 0 0 0 0 1:-64 2:-59 3:-66 4:-64 5:-63 
-0 -0 -0 -0 0 0 1 1 0.193512292687386 0 0 1:-65 2:-62 3:-56 4:-43 5:-61 
-0 -0 -0 -0 1 0 1 1 1 0 0 1:-68 2:-61 3:-58 4:-44 5:-53 
-0 -0 -0 -1 1 0 0 0 1 0 0 1:-73 2:-54 3:-56 4:-64 5:-62 
-0 -0 -0 -1 1 0 1 0 0 0 0 1:-74 2:-53 3:-68 4:-44 5:-53 
-0 -0 -0 -0 1 0 0 1 0 0 0 1:-74 2:-59 3:-58 4:-46 5:-52 
-0 -0 -0 -1 1 0 0 0 1 0 0 1:-72 2:-52 3:-57 4:-62 5:-52 
-0 -0 -0 -1 1 0 0 0 0 0 0 1:-71 2:-55 3:-67 4:-63 5:-63 
-0 -0 -0 -1 0 0 0 0 0 0 0 1:-80 2:-55 3:-67 4:-46 5:-61 
-0 -0 -0 -0 1 0 1 1 1 0 0 1:-69 2:-66 3:-58 4:-45 5:-51 
-0 -0 -0 -1 1 0 1 0 0 0 0 1:-73 2:-64 3:-65 4:-55 5:-63 
-0 -1 -1 -1 1 1 0 0 0 0 0 1:-60 2:-55 3:-69 4:-65 5:-53 
-0 -0 -0 -1 0 0 0.1975826628799827 0 0 0 0 1:-60 2:-55 3:-64 4:-58 5:-62 
-0 -0 -1 -1 1 0 0.5287911694452484 1 1 0 0 1:-74 2:-68 3:-70 4:-62 5:-62 
-0 -0 -0 -1 1 0 0 0 0 0 0 1:-75 2:-64 3:-69 4:-61 5:-65 
-0 -0 -0 -1 1 0 0 0 0 0 0 1:-75 2:-56 3:-66 4:-65 5:-59 
-0 -1 -1 -1 1 1 0 1 1 0 0 1:-72 2:-63 3:-67 4:-75 5:-60 
-0 -0 -0 -1 0 0 1 0 0 0 0 1:-76 2:-63 3:-66 4:-48 5:-62 
-0 -0 -1 -1 1 0 1 1 0 0 0 1:-75 2:-70 3:-74 4:-59 5:-62 
-0 -1 -1 -1 1 0 1 0 0 0 0 1:-72 2:-63 3:-76 4:-63 5:-62 
-0 -0 -0 -0 0 0 1 0 0 0 0 1:-72 2:-61 3:-62 4:-44 5:-60 
-0 -0 -0 -0 0 0 1 0 0 0 0 1:-65 2:-60 3:-64 4:-48 5:-62 
-0 -0 -0 -0 0 0 1 1 0 0 0 1:-64 2:-61 3:-63 4:-46 5:-63 
-0 -0 -0 -1 1 0 0 1 1 0 0 1:-69 2:-62 3:-61 4:-58 5:-60 
-0 -0 -0 -1 1 0 1 0 0 0 0 1:-70 2:-60 3:-66 4:-48 5:-56 
-0 -0 -0 -0 0 0 1 0 0 0 0 1:-68 2:-60 3:-65 4:-48 5:-61 
-0 -0 -0 -0 0 0 1 1 0 0 0 1:-67 2:-68 3:-65 4:-47 5:-65 
-0 -0 -0 -1 1 0 0 0 0 0 0 1:-71 2:-64 3:-69 4:-63 5:-66 
-0 -0 -1 -1 1 1 1 1 1 0 0 1:-73 2:-71 3:-69 4:-62 5:-61 
-0 -1 -1 -0.2463698169024967 1 1 0 1 1 0 0 1:-67 2:-63 3:-62 4:-59 5:-48 
-0 -1 -1 -1 1 1 0 1 1 0 0 1:-63 2:-60 3:-62 4:-69 5:-49 
-0 -1 -1 -1 1 1 0 1 1 0 0 1:-73 2:-68 3:-66 4:-68 5:-61 
-0 -0 -0 -0 1 0 0 1 1 0 0 1:-73 2:-69 3:-56 4:-63 5:-64 
-0 -0 -0 -0 0 0 1 1 1 0 0 1:-67 2:-71 3:-67 4:-53 5:-67 
-0 -0 -0 -1 1 0 0 0 0 0 0 1:-72 2:-64 3:-67 4:-59 5:-62 
-0 -0 -1 -1 1 0 1 1 1 0 0 1:-72 2:-71 3:-70 4:-61 5:-65 
-0 -0 -0 -1 1 0 0 1 1 0 0 1:-74 2:-71 3:-61 4:-65 5:-67 
-0 -0 -1 -1 1 0 1 1 1 0 0 1:-74 2:-73 3:-71 4:-64 5:-66 
-1 -1 -1 -1 1 1 1 1 1 0 0 1:-67 2:-65 3:-71 4:-59 5:-48 
-0 -1 -1 -1 1 0 0 0 0 0 0 1:-67 2:-58 3:-69 4:-60 5:-55 
-0 -0 -1 -1 1 0 1 0 0 0 0 1:-61 2:-54 3:-69 4:-57 5:-56 
-0 -0 -0 -0 0 0 1 0 0 0 0 1:-63 2:-55 3:-64 4:-49 5:-65 
-0 -0 -0 -0 0 0 1 0 0 0 0 1:-62 2:-56 3:-57 4:-51 5:-61 
-0 -0 -0 -0 1 0 0 1 1 0 0 1:-72 2:-63 3:-57 4:-60 5:-60 
-0 -0 -0 -0 0.6606536474726747 0 1 1 1 0 0 1:-63 2:-64 3:-57 4:-55 5:-61 
-0 -0 -0 -0 0 0 1 1 1 0 0 1:-61 2:-61 3:-58 4:-49 5:-60 
-0 -0 -0 -1 1 0 0 1 1 0 0 1:-73 2:-66 3:-63 4:-60 5:-62 
-0 -0 -0 -1 1 0 1 1 0 0 0 1:-72 2:-64 3:-69 4:-48 5:-57 
-0 -0 -0 -0 1 0 0 1 1 0 0 1:-75 2:-64 3:-58 4:-55 5:-61 
-0 -0 -0.2033538011299189 -1 1 0 1 1 1 0 0 1:-67 2:-64 3:-64 4:-60 5:-61 
-0 -0 -0 -0 1 0 0 1 1 0 0 1:-66 2:-67 3:-55 4:-63 5:-65 
-0 -1 -1 -1 1 1 1 1 1 0 0 1:-67 2:-67 3:-68 4:-63 5:-63 
-1 -1 -1 -1 1 1 0 0 0 1 0 1:-67 2:-65 3:-73 4:-69 5:-66 
-0 -0 -0 -1 1 0 1 0 0 0 0 1:-67 2:-64 3:-69 4:-56 5:-65 
-0 -0 -0 -1 0 0 1 1 0 0 0 1:-68 2:-69 3:-71 4:-56 5:-68 
-0 -0 -0 -1 0 0 1 1 0 0 0 1:-67 2:-67 3:-70 4:-54 5:-67 
-0 -0 -0 -1 1 0 0 0 0 0 0 1:-75 2:-60 3:-65 4:-51 5:-59 
-0 -0 -1 -1 1 0 1 1 1 0 0 1:-68 2:-69 3:-69 4:-59 5:-64 
-1 -1 -1 -0 1 1 1 1 1 0 0 1:-66 2:-76 3:-68 4:-61 5:-68 
-0 -1 -1 -0 1 1 1 1 1 0 0 1:-60 2:-66 3:-68 4:-55 5:-56 
-1 -1 -1 -1 1 1 0 1 1 1 0 1:-62 2:-63 3:-69 4:-78 5:-62 
-1 -1 -1 -0 1 1 1 1 1 1 0 1:-57 2:-70 3:-69 4:-64 5:-61 
-0 -1 -1 -1 1 1 1 1 1 0 0 1:-66 2:-69 3:-67 4:-65 5:-63 
-0 -0.9153187087306328 -1 -0 1 1 1 1 1 0 0 1:-61 2:-64 3:-63 4:-64 5:-63 
-0 -0 -0 -0 0 0 1 1 0 0 0 1:-61 2:-64 3:-68 4:-45 5:-63 
-0 -1 -1 -0 1 1 1 1 1 0 0 1:-63 2:-63 3:-62 4:-58 5:-52 
-0 -0 -0 -1 1 0 1 0 0 0 0 1:-62 2:-46 3:-75 4:-53 5:-57 
-0 -0 -0 -1 1 0 0 0 0 0 0 1:-74 2:-56 3:-65 4:-65 5:-61 
-0 -0 -0 -1 1 0 0 0 0 0 0 1:-73 2:-62 3:-66 4:-58 5:-62 
-0 -0 -0 -1 1 0 0 0 0 0 0 1:-71 2:-61 3:-67 4:-65 5:-64 
-0 -0 -0 -0 1 0 0 1 1 0 0 1:-70 2:-63 3:-57 4:-58 5:-62 
-0 -0 -0 -1 1 0 0 0 0 0 0 1:-74 2:-51 3:-69 4:-57 5:-58 
-0 -0 -1 -1 1 0 1 1 0 0 0 1:-63 2:-64 3:-68 4:-61 5:-64 
-0 -0 -1 -1 1 0 0 0.6011244402335999 1 0 0 1:-69 2:-65 3:-69 4:-63 5:-64 
-0 -0 -0 -1 1 0 1 1 1 0 0 1:-67 2:-66 3:-64 4:-62 5:-65 
-0 -0 -0 -0 1 0 0 1 1 0 0 1:-67 2:-59 3:-55 4:-61 5:-61 
-0 -0 -0 -1 1 0 0 0 1 0 0 1:-68 2:-53 3:-55 4:-66 5:-60 
-0 -0 -0 -1 1 0 0 0 0 0 0 1:-68 2:-53 3:-67 4:-69 5:-66 
-0 -0 -0 -1 0 0 0 0 0 0 0 1:-64 2:-57 3:-65 4:-64 5:-66 
-0 -0 -0 -1 0 0 0 0 0 0 0 1:-64 2:-62 3:-66 4:-65 5:-69 
-0 -0 -1 -1 1 0 0 1 1 0 0 1:-67 2:-63 3:-66 4:-65 5:-64 
-0 -0 -0 -1 0 0 1 0 0 0 0 1:-65 2:-62 3:-65 4:-61 5:-67 
-0 -0 -0 -1 0 0 0 0 0 0 0 1:-68 2:-61 3:-67 4:-65 5:-76 
-0 -1 -1 -1 1 1 0 1 1 0 0 1:-61 2:-62 3:-66 4:-65 5:-62 
-0 -0 -0 -0 1 0 0 1 1 0 0 1:-70 2:-61 3:-54 4:-65 5:-62 
-0 -0 -1 -1 1 0 0 1 1 0 0 1:-70 2:-62 3:-60 4:-65 5:-57 
-0 -0.1676281205188526 -1 -1 1 0 1 1 0 0 0 1:-66 2:-62 3:-69 4:-59 5:-58 
-0 -0 -0 -1 0 0 0 0 0 0 0 1:-67 2:-47 3:-66 4:-64 5:-63 
-0 -1 -1 -1 1 1 1 1 1 0 0 1:-61 2:-63 3:-67 4:-65 5:-65 
-1 -1 -1 -1 1 1 1 1 1 0 0 1:-59 2:-63 3:-68 4:-66 5:-64 
-0 -0 -1 -1 1 0 0 0 0 0 0 1:-71 2:-63 3:-68 4:-63 5:-63 
-0 -0 -0 -0 1 0 0 1 1 0 0 1:-65 2:-65 3:-57 4:-64 5:-64 
-0 -0 -0 -1 0 0 0 0 0 0 0 1:-74 2:-45 3:-62 4:-53 5:-55 
-0 -1 -1 -1 1 1 1 1 1 0 0 1:-59 2:-63 3:-68 4:-64 5:-64 
-0 -0 -0 -1 0 0 0 0 0 0 0 1:-68 2:-48 3:-60 4:-56 5:-57 
-0 -0 -0 -1 1 0 0 0 0 0 0 1:-69 2:-47 3:-56 4:-62 5:-55 
-0 -0 -0 -1 1 0 0 0 0 0 0 1:-72 2:-63 3:-68 4:-61 5:-65 
-0 -0 -0 -1 0 0 1 0 0 0 0 1:-73 2:-62 3:-69 4:-54 5:-64 
-0 -0 -0 -1 0 0 1 0 0 0 0 1:-69 2:-64 3:-69 4:-54 5:-67 
-0 -0 -0 -1 0 0 0 0 0 0 0 1:-70 2:-46 3:-59 4:-53 5:-64 
-0 -0 -0 -1 1 0 0 0 0 0 0 1:-70 2:-45 3:-58 4:-57 5:-52 
-0 -0 -0 -0 1 0 0 1 1 0 0 1:-70 2:-64 3:-53 4:-58 5:-52 
-0 -0 -0 -1 1 0 0 1 1 0 0 1:-69 2:-64 3:-60 4:-62 5:-62 
-0 -0 -1 -0 1 1 1 1 1 0 0 1:-64 2:-65 3:-63 4:-62 5:-62 
-0 -1 -1 -1 1 1 0 1 1 0 0 1:-69 2:-65 3:-65 4:-76 5:-63 
-0 -0 -1 -1 1 0 0 1 1 0 0 1:-67 2:-64 3:-67 4:-65 5:-64 
-0 -1 -1 -0 1 1 1 1 1 0 0 1:-61 2:-66 3:-65 4:-57 5:-59 
-0 -0 -1 -0 1 1 1 1 1 0 0 1:-62 2:-66 3:-68 4:-56 5:-61 
-0 -0 -0 -0 0 0 1 1 1 0 0 1:-65 2:-63 3:-61 4:-50 5:-61 
-0 -0 -0.1432342927555206 -1 1 0 1 0 0 0 0 1:-71 2:-58 3:-66 4:-51 5:-52 
-0 -0 -0 -0 1 0 1 1 1 0 0 1:-70 2:-70 3:-62 4:-51 5:-63 
-0 -0 -0 -0 0 0 0 1 1 0 0 1:-64 2:-59 3:-56 4:-56 5:-64 
-0 -0 -0 -0 1 0 1 1 1 0 0 1:-60 2:-58 3:-58 4:-45 5:-48 
-0 -0 -0 -0 1 0 0 1 1 0 0 1:-62 2:-58 3:-56 4:-53 5:-50 
-0 -0 -1 -0 1 1 0.5019082259389314 1 1 0 0 1:-61 2:-57 3:-55 4:-52 5:-45 
-0 -0 -0 -0 1 0 0 1 1 0 0 1:-67 2:-55 3:-52 4:-54 5:-47 
-0 -0 -0 -0 0 0 1 0 0 0 0 1:-65 2:-55 3:-62 4:-50 5:-63 
-0 -0 -0 -0 0 0 1 1 1 0 0 1:-71 2:-67 3:-63 4:-56 5:-69 
-0 -0 -0 -1 1 0 0 1 1 0 0 1:-63 2:-59 3:-62 4:-59 5:-58 
-0 -0 -1 -0 1 1 1 1 1 0 0 1:-65 2:-70 3:-59 4:-59 5:-57 
-0 -0 -0 -1 1 0 0 1 1 0 0 1:-69 2:-63 3:-60 4:-61 5:-65 
-0 -0 -1 -0 1 1 1 1 1 0 0 1:-61 2:-64 3:-60 4:-61 5:-57 
-0 -0 -0 -1 0 0 1 0 0 0 0 1:-57 2:-55 3:-67 4:-56 5:-64 
-1 -1 -1 -0 1 1 1 1 1 0 0 1:-56 2:-66 3:-67 4:-56 5:-54 
-0 -0 -1 -1 1 0 1 1 0 0 0 1:-65 2:-63 3:-68 4:-58 5:-61 
-0 -0 -0 -0 0 0 0 1 1 0 0 1:-67 2:-62 3:-55 4:-54 5:-60 
-0 -0 -0 -0 0 0 0 0 1 0 0 1:-66 2:-54 3:-49 4:-49 5:-62 
-0 -0 -0 -0 0 0 1 0 0 0 0 1:-66 2:-55 3:-62 4:-45 5:-61 
-0 -0 -0 -1 0 0 0 0 0 0 0 1:-69 2:-56 3:-63 4:-55 5:-66 
-0 -0 -0 -1 0 0 0 0 0 0 0 1:-67 2:-50 3:-65 4:-55 5:-65 
-0 -0 -0 -0 0 0 1 1 1 0 0 1:-67 2:-70 3:-62 4:-46 5:-63 
-0 -0 -0 -0 1 0 1 1 1 0 0 1:-67 2:-69 3:-62 4:-53 5:-61 
-0 -0 -1 -1 1 0 1 1 1 0 0 1:-71 2:-71 3:-70 4:-64 5:-67 
-0 -0 -0 -0 1 0 1 1 1 0 0 1:-70 2:-72 3:-65 4:-54 5:-63 
-0 -0 -0 -1 1 0 0 0 0 0 0 1:-69 2:-61 3:-66 4:-63 5:-64 
-0 -0 -0 -1 1 0 0 0 0 0 0 1:-78 2:-60 3:-70 4:-63 5:-62 
-0 -0 -0 -1 0 0 0 1 1 0 0 1:-67 2:-65 3:-63 4:-61 5:-69 
-0 -0 -0 -1 0 0 1 0 0 0 0 1:-67 2:-64 3:-65 4:-61 5:-70 
-0 -0 -1 -0 1 1 1 1 1 0 0 1:-67 2:-73 3:-67 4:-64 5:-69 
-0 -0 -1 -1 1 0 1 0 0 0 0 1:-72 2:-64 3:-75 4:-63 5:-65 
-0 -0 -0 -1 1 0 1 0 0 0 0 1:-66 2:-63 3:-66 4:-61 5:-65 
-0 -1 -1 -1 1 1 1 1 1 0 0 1:-65 2:-70 3:-68 4:-62 5:-66 
-0 -1 -1 -1 1 0.8873829664868179 0 1 1 0 0 1:-66 2:-64 3:-67 4:-66 5:-64 
-0 -0 -0 -1 1 0 0 0 1 0 0 1:-74 2:-65 3:-66 4:-63 5:-64 
-0 -0 -1 -1 1 0 1 1 1 0 0 1:-73 2:-69 3:-69 4:-62 5:-64 
-1 -1 -1 -1 1 1 0 1 1 0 0 1:-64 2:-64 3:-69 4:-67 5:-62 
-0 -0 -1 -1 1 1 0 1 1 0 0 1:-65 2:-65 3:-64 4:-64 5:-64 
-0 -0 -1 -1 1 0 0 1 1 0 0 1:-71 2:-67 3:-66 4:-65 5:-64 
-1 -1 -1 -1 1 1 1 1 1 1 0 1:-61 2:-65 3:-69 4:-67 5:-62 
-0 -0 -0 -1 0 0 1 0.5291106998725721 0 0 0 1:-61 2:-63 3:-67 4:-64 5:-68 
-0 -1 -1 -0 1 1 1 1 1 0 0 1:-66 2:-71 3:-66 4:-62 5:-61 
-0 -0 -1 -1 1 0 1 1 1 0 0 1:-69 2:-65 3:-65 4:-58 5:-59 
-0 -0 -0 -0 1 0 1 1 1 0 0 1:-72 2:-68 3:-65 4:-55 5:-64 
-0 -0 -1 -1 1 0 0 1 1 0 0 1:-69 2:-65 3:-68 4:-64 5:-63 
-0 -0 -0 -1 1 0 0 0 0 0 0 1:-71 2:-62 3:-68 4:-65 5:-66 
-0 -0 -0 -1 0 0 1 0 0 0 0 1:-62 2:-58 3:-67 4:-53 5:-66 
-0 -0 -0 -0 1 0 1 1 1 0 0 1:-61 2:-58 3:-60 4:-56 5:-59 
-0 -0 -0 -1 1 0 1 1 0 0 0 1:-69 2:-68 3:-70 4:-61 5:-68 
-0 -0 -0 -1 1 0 0 0 0 0 0 1:-70 2:-63 3:-69 4:-66 5:-67 
-0 -0 -1 -0.2704207663614763 1 0 1 1 1 0 0 1:-70 2:-73 3:-67 4:-62 5:-68 
-0 -0 -0 -1 1 0 1 1 1 0 0 1:-70 2:-68 3:-70 4:-62 5:-68 
-0 -0 -1 -1 1 0 1 1 1 0 0 1:-70 2:-67 3:-70 4:-62 5:-65 
-0 -0 -0 -1 1 0 1 0 0 0 0 1:-71 2:-67 3:-70 4:-57 5:-65 
-0 -0 -0 -1 1 0 1 0 0 0 0 1:-70 2:-67 3:-70 4:-62 5:-68 
-0 -1 -1 -1 1 1 1 1 1 0 0 1:-70 2:-69 3:-72 4:-63 5:-60 
-0 -1 -1 -1 1 1 0 1 1 0 0 1:-64 2:-60 3:-64 4:-63 5:-57 
-0 -0 -1 -1 1 0 1 0 0 0 0 1:-62 2:-60 3:-71 4:-57 5:-62 
-0 -0 -0 -1 0 0 1 0 0 0 0 1:-65 2:-61 3:-71 4:-52 5:-69 
-0 -0 -0 -1 1 0 0 0 1 0 0 1:-75 2:-70 3:-69 4:-64 5:-69 
-0 -1 -1 -1 1 0 1 1 1 0 0 1:-74 2:-70 3:-74 4:-62 5:-63 
-0 -0 -1 -1 1 0 1 0 0 0 0 1:-73 2:-69 3:-72 4:-65 5:-70 
-0 -0 -1 -1 1 0 1 0 0 0 0 1:-73 2:-69 3:-75 4:-61 5:-69 
-1 -1 -1 -1 1 0 1 0 0 1 0 1:-68 2:-68 3:-75 4:-63 5:-66 
-0 -1 -1 -1 1 0 1 0 0 0 0 1:-66 2:-64 3:-72 4:-63 5:-65 
-0 -0 -0 -1 1 0 1 0 0 0 0 1:-72 2:-65 3:-70 4:-60 5:-65 
-0 -0 -1 -1 1 0 0.6720942706393741 1 1 0 0 1:-72 2:-69 3:-66 4:-62 5:-64 
-0 -0 -1 -1 1 0 0 1 1 0 0 1:-74 2:-69 3:-65 4:-62 5:-61 
-0 -0 -0 -1 1 0 0.5707453017276356 0 0 0 0 1:-73 2:-63 3:-68 4:-57 5:-65 
-0 -0 -1 -1 1 0 0 0 0 0 0 1:-66 2:-59 3:-68 4:-62 5:-62 
-0 -0 -0 -1 1 0 0 1 1 0 0 1:-74 2:-63 3:-63 4:-60 5:-60 
-0 -0 -0 -1 1 0 0 1 0 0 0 1:-74 2:-62 3:-64 4:-56 5:-57 
-0 -0 -0 -1 1 0 0 1 1 0 0 1:-77 2:-67 3:-59 4:-60 5:-60 
-0 -0 -1 -1 1 0 1 1 1 0 0 1:-73 2:-68 3:-66 4:-57 5:-59 
-0 -0 -0 -1 1 0 1 1 0 0 0 1:-67 2:-65 3:-67 4:-58 5:-64 
-0 -0 -1 -1 1 0 1 1 0 0 0 1:-64 2:-65 3:-70 4:-58 5:-63 
-0 -0 -1 -1 1 0 1 1 1 0 0 1:-76 2:-68 3:-70 4:-60 5:-63 
-0 -0 -0 -1 1 0 1 0 0 0 0 1:-74 2:-62 3:-67 4:-51 5:-61 
-0 -1 -1 -1 1 0 0 1 1 0 0 1:-75 2:-68 3:-71 4:-63 5:-59 
-0 -0 -0 -1 1 0 0 0 0 0 0 1:-76 2:-64 3:-68 4:-62 5:-64 
-0.5830470221326238 -1 -1 -1 1 0 0 0 0 0.4223967735988174 0 1:-74 2:-62 3:-79 4:-65 5:-57 
-0 -0 -1 -1 1 0 0 0 0 0 0 1:-74 2:-51 3:-65 4:-65 5:-52 
-0 -1 -1 -1 1 1 1 1 1 0 0 1:-63 2:-62 3:-66 4:-62 5:-56 
-0 -1 -1 -1 1 1 1 1 1 0 0 1:-63 2:-65 3:-68 4:-61 5:-54 
-0.1494421823600788 -1 -1 -0 1 1 1 1 1 0 0 1:-58 2:-65 3:-61 4:-64 5:-54 
-1 -1 -1 -0 1 1 1 1 1 1 0 1:-57 2:-70 3:-70 4:-64 5:-64 
-0 -0 -1 -1 -1 1 0.03587299494328705 1 1 0 0 1:-62 2:-61 3:-64 4:-65 5:-63 
-1 -1 -1 -1 -1 1 0 0 0 1 0 1:-67 2:-64 3:-75 4:-72 5:-66 
-0 -0 -1 -1 -1 0 1 1 0 0 0 1:-68 2:-62 3:-67 4:-57 5:-56 
-0 -0 -0 -1 -1 0 1 0 0 0 0 1:-78 2:-67 3:-72 4:-58 5:-64 
-0 -0 -1 -1 -1 0 1 1 0 0 0 1:-71 2:-66 3:-74 4:-59 5:-66 
-0 -0 -1 -1 -1 0 1 0 0 0 0 1:-76 2:-64 3:-74 4:-58 5:-62 
-0 -0 -1 -0 -1 0 1 1 1 0 0 1:-77 2:-73 3:-69 4:-55 5:-56 
-0 -1 -1 -1 -0 0 0 0 0 0 0 1:-72 2:-66 3:-75 4:-67 5:-59 
-0 -1 -1 -1 -1 0 1 0 0 0 0 1:-73 2:-69 3:-80 4:-58 5:-59 
-1 -1 -1 -1 -0 1 0 0 0 1 0 1:-68 2:-63 3:-73 4:-72 5:-58 
-0 -1 -1 -1 -0 0 0 0 1 0 0.0002790185165566955 1:-77 2:-69 3:-69 4:-73 5:-63 
-0 -0 -1 -1 -0 0 0 0 0 0 0 1:-76 2:-67 3:-70 4:-65 5:-57 
-0 -0 -1 -1 -0 0 0 0 0 0 0 1:-76 2:-65 3:-70 4:-67 5:-57 
-0 -0 -0 -1 -1 0 0 0 0 0 0 1:-75 2:-60 3:-73 4:-64 5:-65 
-0 -0 -1 -1 -1 0 1 0 0 0 0 1:-73 2:-65 3:-73 4:-63 5:-64 
-0 -0 -0 -1 -1 0 1 1 0.856069691468351 0 0 1:-74 2:-63 3:-72 4:-59 5:-80 
-0 -1 -1 -1 -1 0 0 0 0 0 0 1:-73 2:-68 3:-75 4:-65 5:-60 
-0 -1 -1 -1 -0 0 1 1 1 0 0 1:-73 2:-72 3:-71 4:-61 5:-58 
-1 -1 -1 -1 -1 0 1 0 0 1 0 1:-71 2:-66 3:-79 4:-64 5:-64 
-0 -0 -1 -1 -1 0 1 1 1 0 0 1:-69 2:-67 3:-69 4:-62 5:-61 
-0 -0 -1 -0 -1 1 0 1 1 0 0 1:-67 2:-68 3:-62 4:-64 5:-60 
-0 -0 -0 -1 -1 0 1 1 1 0 0 1:-73 2:-69 3:-64 4:-60 5:-63 
-0 -0 -1 -1 -1 0 1 1 0 0 0 1:-72 2:-65 3:-72 4:-57 5:-62 
-0 -0 -1 -1 -1 0 1 0 0 0 0 1:-68 2:-57 3:-75 4:-58 5:-63 
-0 -0 -1 -1 -1 0 0 0 0 0 0 1:-72 2:-61 3:-69 4:-69 5:-62 
-1 -1 -1 -1 -0 1 0 0 0 1 0 1:-68 2:-61 3:-76 4:-71 5:-58 
-1 -1 -1 -0 -0 1 1 1 1 1 0 1:-63 2:-75 3:-75 4:-62 5:-58 
-1 -1 -1 -0 -1 1 1 1 1 0 0 1:-64 2:-69 3:-69 4:-65 5:-59 
-0 -1 -1 -1 -1 1 1 1 1 0 0 1:-66 2:-69 3:-68 4:-65 5:-68 
-0 -1 -1 -1 -1 0 0 1 0 0 0 1:-72 2:-68 3:-71 4:-63 5:-59 
-0 -0 -0 -1 -1 0 0 0 0 0 0 1:-73 2:-58 3:-71 4:-61 5:-59 
-0 -0 -0 -1 -1 0 0 0 0 0 0 1:-71 2:-58 3:-70 4:-71 5:-66 
-0 -1 -1 -1 -1 0 0 0 0 0 0 1:-76 2:-70 3:-72 4:-64 5:-60 
-0 -1 -1 -0 -0 1 0 0 0 0 0 1:-71 2:-70 3:-74 4:-63 5:-53 
-0 -0 -1 -1 -1 0 0 0 0 0 0 1:-70 2:-57 3:-75 4:-62 5:-61 
-0 -0 -1 -1 -1 0 0 0 0 0 0 1:-74 2:-58 3:-73 4:-67 5:-58 
-0 -1 -1 -0 -0 0 0 1 1 0 0 1:-80 2:-77 3:-71 4:-62 5:-56 
-0 -0 -1 -1 -0 0 0 0 1 0 0 1:-79 2:-66 3:-64 4:-61 5:-52 
-0 -0 -1 -1 -1 0 1 0 0 0 0 1:-75 2:-66 3:-71 4:-57 5:-57 
-0 -0 -0 -1 -1 0 0 0 0 0 0 1:-75 2:-53 3:-73 4:-60 5:-55 
-0 -0 -0 -1 -1 0 1 1 1 0 8.416682988196211e-05 1:-69 2:-66 3:-74 4:-61 5:-78 
-0 -0 -1 -1 -0 0 0 1 0.082265969033154 0 0 1:-73 2:-67 3:-68 4:-61 5:-54 
-0 -0 -1 -0 -1 0 1 1 0 0 0 1:-69 2:-66 3:-69 4:-53 5:-53 
-1 -1 -1 -0 -0 1 0 1 0.07385935147258967 0 0 1:-69 2:-72 3:-73 4:-62 5:-53 
-0 -1 -1 -0 -0 0 1 1 0 0 0 1:-68 2:-67 3:-73 4:-56 5:-53 
-0 -1 -1 -0 -0 1 0 1 1 0 0 1:-63 2:-66 3:-63 4:-61 5:-50 
-0 -0.7398338552246737 -1 -1 -0 1 0 0 0 0 0 1:-67 2:-59 3:-65 4:-64 5:-50 
-0 -0 -0 -1 -1 0 1 1 1 0 0 1:-66 2:-72 3:-69 4:-52 5:-72 
-0 -0 -1 -0 -0 1 0 1 1 0 0 1:-68 2:-74 3:-60 4:-61 5:-55 
-0 -1 -1 -0 -0 1 0 1 1 0 0 1:-69 2:-71 3:-61 4:-61 5:-47 
-1 -1 -1 -1 -1 1 1 1 1 1 0 1:-63 2:-68 3:-71 4:-61 5:-65 
-1 -1 -1 -1 -1 1 0.8357611700163508 0 0 1 0 1:-65 2:-68 3:-78 4:-71 5:-64 
-0 -0 -1 -1 -1 0 0 0 0 0 0 1:-73 2:-61 3:-69 4:-63 5:-57 
-0 -1 -1 -0 -0 1 0 1 1 0 0 1:-72 2:-70 3:-69 4:-63 5:-53 
-0 -1 -1 -1 -1 1 1 1 1 0 0 1:-67 2:-67 3:-69 4:-63 5:-59 
-0 -1 -1 -1 -1 0 1 1 1 0 0 1:-67 2:-69 3:-72 4:-62 5:-67 
-0 -0 -1 -1 -1 0 1 1 1 0 0 1:-70 2:-72 3:-70 4:-54 5:-66 
-0 -0 -1 -1 -1 0 1 1 1 0 0 1:-71 2:-71 3:-73 4:-55 5:-64 
-0 -0 -1 -1 -1 0 0.3605864995934908 0 0 0 7.915842074084297e-05 1:-80 2:-72 3:-74 4:-63 5:-63 
-0 -0 -1 -1 -1 0 1 1 1 0 0 1:-75 2:-72 3:-66 4:-63 5:-63 
-0 -0 -0 -1 -1 0 1 1 1 0 0 1:-71 2:-64 3:-69 4:-63 5:-71 
-0 -0 -1 -1 -1 0 0 0 1 0 0 1:-73 2:-65 3:-68 4:-66 5:-61 
-1 -1 -1 -1 -1 1 1 0 0 1 0 1:-68 2:-67 3:-79 4:-67 5:-63 
-0.2722928162983449 -1 -1 -1 -1 0 0 0 0 0 0 1:-72 2:-66 3:-78 4:-67 5:-62 
-0 -0 -0 -1 -1 0 1 1 1 0 0 1:-71 2:-65 3:-66 4:-64 5:-66 
-0 -0 -0 -1 -1 0 1 1 1 0 0 1:-72 2:-68 3:-67 4:-61 5:-67 
-0 -0 -0 -1 -1 0 1 1 0 0 0 1:-75 2:-66 3:-70 4:-61 5:-65 
-0 -0 -0 -1 -1 0 1 1 1 0 0 1:-77 2:-67 3:-70 4:-60 5:-66 
-0 -0 -1 -1 -1 0 1 0 0 0 0 1:-76 2:-67 3:-72 4:-61 5:-65 
-0 -1 -1 -0 -1 1 0 1 1 0 0 1:-66 2:-68 3:-65 4:-64 5:-58 
-0 -0.3510700120744037 -1 -1 -0 0 0 1 1 0 0 1:-75 2:-72 3:-69 4:-64 5:-59 
-0 -0 -0 -1 -1 0 1 1 1 0 0 1:-76 2:-69 3:-68 4:-55 5:-61 
-0 -1 -1 -0 -0 1 0 1 1 0 0 1:-76 2:-71 3:-65 4:-67 5:-52 
-0 -0 -0 -1 -1 0 1 1 0 0 0 1:-75 2:-68 3:-71 4:-48 5:-59 
-0 -0 -0 -1 -1 0 1 0 0 0 0 1:-74 2:-58 3:-70 4:-48 5:-57 
-0 -0 -0 -1 -1 0 1 1 0 0 0 1:-72 2:-65 3:-72 4:-49 5:-64 
-0 -0 -1 -1 -1 0 1 0 0 0 0 1:-75 2:-67 3:-74 4:-61 5:-62 
-0 -1 -1 -1 -1 1 1 1 0 0 0 1:-66 2:-66 3:-75 4:-60 5:-58 
-0 -1 -1 -1 -0.8821318990532483 0 0 0 0 0 0 1:-71 2:-64 3:-70 4:-68 5:-58 
-0 -0 -1 -1 -1 0 0 0 0 0 0 1:-71 2:-62 3:-68 4:-68 5:-63 
-0 -0 -1 -1 -1 0 1 0 0 0 0 1:-70 2:-64 3:-73 4:-58 5:-58 
-0 -0 -1 -1 -1 0 0 0 0 0 0 1:-78 2:-62 3:-73 4:-69 5:-61 
-0 -1 -1 -1 -0 0 0 0 0 0 0 1:-79 2:-60 3:-71 4:-70 5:-47 
-0 -0 -0 -1 -1 0 0 0 0 0 0 1:-78 2:-50 3:-69 4:-56 5:-47 
-0 -0 -0 -1 -1 0 0 0 0 0 0 1:-69 2:-49 3:-62 4:-56 5:-55 
-0 -0 -0 -1 -1 0 0 0 0 0 0 1:-70 2:-54 3:-62 4:-67 5:-61 
-0 -0 -0 -1 -1 0 1 1 1 0 0 1:-62 2:-57 3:-63 4:-57 5:-61 
-0 -0 -1 -0 -1 1 1 1 1 0 0 1:-64 2:-68 3:-65 4:-60 5:-61 
-1 -1 -1 -0 -1 1 1 1 1 0 0 1:-53 2:-69 3:-68 4:-49 5:-56 
-0.1373670922635341 -1 -1 -1 -1 1 1 1 0 0 0 1:-52 2:-57 3:-70 4:-55 5:-54 
-0 -0 -0 -1 -1 0 0 0 0 0 0 1:-78 2:-65 3:-67 4:-62 5:-60 
-1 -1 -1 -1 -1 1 1 1 1 1 0 1:-67 2:-73 3:-71 4:-65 5:-65 
-1 -1 -1 -0 -0 1 1 1 1 1 0 1:-67 2:-74 3:-72 4:-65 5:-58 
-0 -1 -1 -1 -0 1 0 1 0 0 0 1:-68 2:-67 3:-72 4:-65 5:-56 
-0 -0 -1 -1 -1 0 1 1 1 0 0 1:-68 2:-66 3:-71 4:-61 5:-65 
-0 -1 -1 -0 -0 1 0 1 1 0 0 1:-66 2:-68 3:-61 4:-63 5:-50 
-0 -1 -1 -0 -1 1 1 1 1 0 0 1:-60 2:-66 3:-69 4:-51 5:-53 
-0 -1 -1 -0 -1 1 0 1 1 0 0 1:-60 2:-64 3:-61 4:-62 5:-53 
-0 -0.5287819681770947 -1 -0 -1 1 0 1 1 0 0 1:-63 2:-65 3:-64 4:-58 5:-52 
-0 -1 -1 -1 -0 0 0 0 0 0 0 1:-72 2:-58 3:-77 4:-64 5:-54 
-0 -0 -1 -1 -1 0 1 1 0 0 0 1:-61 2:-60 3:-74 4:-48 5:-54 
-0 -0 -0 -0 -1 0 0 1 0 0 0 1:-61 2:-53 3:-63 4:-50 5:-46 
-0 -0 -1 -0 -1 0 1 1 1 0 0 1:-65 2:-65 3:-63 4:-51 5:-52 
-0 -1 -1 -0 -1 1 1 1 0 0 0 1:-57 2:-58 3:-73 4:-50 5:-48 
-0 -0 -1 -1 -1 0 1 1 0 0 0 1:-55 2:-60 3:-70 4:-48 5:-57 
-0 -0 -1 -0 -1 1 3.317085467135666e-06 1 1 0 0 1:-64 2:-68 3:-56 4:-54 5:-49 
-1 -1 -1 -0 -0 1 1 1 1 0 0 1:-64 2:-73 3:-73 4:-54 5:-49 
-0 -0 -0 -0 -1 0 0 1 1 0 0 1:-67 2:-63 3:-56 4:-62 5:-58 
-0 -0 -0 -0 -1 1 1 1 1 0 0 1:-58 2:-71 3:-62 4:-54 5:-68 
-1 -1 -1 -1 -1 1 1 1 0 0.8798590437377629 0 1:-61 2:-64 3:-78 4:-54 5:-57 
-1 -1 -1 -1 -1 1 1 0 0 1 0 1:-61 2:-61 3:-78 4:-63 5:-56 
-0 -0 -0 -0 -1 0 0 1 1 0 0 1:-68 2:-60 3:-56 4:-64 5:-52 
-0 -0 -0 -0 -1 0 0 1 1 0 0 1:-68 2:-63 3:-54 4:-57 5:-52 
-0 -0 -0 -1 -1 0 1 1 1 0 0 1:-59 2:-63 3:-60 4:-56 5:-63 
-0 -1 -1 -0 -1 1 1 1 1 0 0 1:-62 2:-71 3:-68 4:-55 5:-56 
-0 -1 -1 -0 -0 1 0 1 1 0 0 1:-72 2:-72 3:-64 4:-67 5:-54 
-0 -0 -0 -1 -1 0 1 1 1 0 0 1:-73 2:-68 3:-68 4:-54 5:-60 
-0 -0 -1 -1 -0 0 1 0 0 0 0 1:-75 2:-68 3:-73 4:-57 5:-55 
-0 -1 -1 -1 -0 1 0 0 0 0 0 1:-71 2:-67 3:-73 4:-66 5:-54 
-0 -0 -1 -1 -0 1 0 1 1 0 0 1:-71 2:-66 3:-65 4:-66 5:-55 
-0 -0 -1 -0.3842793876387008 -0 0 0 0.3944054220340848 1 0 0 1:-77 2:-69 3:-63 4:-67 5:-55 
-0 -1 -1 -1 -0 1 0 1 1 0 0 1:-71 2:-66 3:-63 4:-70 5:-57 
-0 -0 -0 -1 -1 0 0 1 1 0 0 1:-77 2:-66 3:-63 4:-57 5:-57 
